{"learner":{"attributes":{"scikit_learn":"{\"_estimator_type\": \"regressor\"}"},"feature_names":["lag1","lag2","lag3","lag12","roll3","roll6","roll12","roll3_std","mom_sin","mom_cos","mom_sin2","mom_cos2","month","trend","log_pop","lga_level","state_level","rainfall_mm_day","temperature_mean_c","humidity_pct","solar_kwh_m2_day","rain_lag1","temp_lag1"],"feature_types":["float","float","float","float","float","float","float","float","float","float","float","float","int","int","float","float","float","float","float","float","float","float","float"],"gradient_booster":{"model":{"cats":{"enc":[],"feature_segments":[],"sorted_idx":[]},"gbtree_model_param":{"num_parallel_tree":"1","num_trees":"700"},"iteration_indptr":[0,1,2,3,4,5,6,7,8,9,10,11,12,13,14,15,16,17,18,19,20,21,22,23,24,25,26,27,28,29,30,31,32,33,34,35,36,37,38,39,40,41,42,43,44,45,46,47,48,49,50,51,52,53,54,55,56,57,58,59,60,61,62,63,64,65,66,67,68,69,70,71,72,73,74,75,76,77,78,79,80,81,82,83,84,85,86,87,88,89,90,91,92,93,94,95,96,97,98,99,100,101,102,103,104,105,106,107,108,109,110,111,112,113,114,115,116,117,118,119,120,121,122,123,124,125,126,127,128,129,130,131,132,133,134,135,136,137,138,139,140,141,142,143,144,145,146,147,148,149,150,151,152,153,154,155,156,157,158,159,160,161,162,163,164,165,166,167,168,169,170,171,172,173,174,175,176,177,178,179,180,181,182,183,184,185,186,187,188,189,190,191,192,193,194,195,196,197,198,199,200,201,202,203,204,205,206,207,208,209,210,211,212,213,214,215,216,217,218,219,220,221,222,223,224,225,226,227,228,229,230,231,232,233,234,235,236,237,238,239,240,241,242,243,244,245,246,247,248,249,250,251,252,253,254,255,256,257,258,259,260,261,262,263,264,265,266,267,268,269,270,271,272,273,274,275,276,277,278,279,280,281,282,283,284,285,286,287,288,289,290,291,292,293,294,295,296,297,298,299,300,301,302,303,304,305,306,307,308,309,310,311,312,313,314,315,316,317,318,319,320,321,322,323,324,325,326,327,328,329,330,331,332,333,334,335,336,337,338,339,340,341,342,343,344,345,346,347,348,349,350,351,352,353,354,355,356,357,358,359,360,361,362,363,364,365,366,367,368,369,370,371,372,373,374,375,376,377,378,379,380,381,382,383,384,385,386,387,388,389,390,391,392,393,394,395,396,397,398,399,400,401,402,403,404,405,406,407,408,409,410,411,412,413,414,415,416,417,418,419,420,421,422,423,424,425,426,427,428,429,430,431,432,433,434,435,436,437,438,439,440,441,442,443,444,445,446,447,448,449,450,451,452,453,454,455,456,457,458,459,460,461,462,463,464,465,466,467,468,469,470,471,472,473,474,475,476,477,478,479,480,481,482,483,484,485,486,487,488,489,490,491,492,493,494,495,496,497,498,499,500,501,502,503,504,505,506,507,508,509,510,511,512,513,514,515,516,517,518,519,520,521,522,523,524,525,526,527,528,529,530,531,532,533,534,535,536,537,538,539,540,541,542,543,544,545,546,547,548,549,550,551,552,553,554,555,556,557,558,559,560,561,562,563,564,565,566,567,568,569,570,571,572,573,574,575,576,577,578,579,580,581,582,583,584,585,586,587,588,589,590,591,592,593,594,595,596,597,598,599,600,601,602,603,604,605,606,607,608,609,610,611,612,613,614,615,616,617,618,619,620,621,622,623,624,625,626,627,628,629,630,631,632,633,634,635,636,637,638,639,640,641,642,643,644,645,646,647,648,649,650,651,652,653,654,655,656,657,658,659,660,661,662,663,664,665,666,667,668,669,670,671,672,673,674,675,676,677,678,679,680,681,682,683,684,685,686,687,688,689,690,691,692,693,694,695,696,697,698,699,700],"tree_info":[0,0,0,0,0,0,0,0,0,0,0,0,0,0,0,0,0,0,0,0,0,0,0,0,0,0,0,0,0,0,0,0,0,0,0,0,0,0,0,0,0,0,0,0,0,0,0,0,0,0,0,0,0,0,0,0,0,0,0,0,0,0,0,0,0,0,0,0,0,0,0,0,0,0,0,0,0,0,0,0,0,0,0,0,0,0,0,0,0,0,0,0,0,0,0,0,0,0,0,0,0,0,0,0,0,0,0,0,0,0,0,0,0,0,0,0,0,0,0,0,0,0,0,0,0,0,0,0,0,0,0,0,0,0,0,0,0,0,0,0,0,0,0,0,0,0,0,0,0,0,0,0,0,0,0,0,0,0,0,0,0,0,0,0,0,0,0,0,0,0,0,0,0,0,0,0,0,0,0,0,0,0,0,0,0,0,0,0,0,0,0,0,0,0,0,0,0,0,0,0,0,0,0,0,0,0,0,0,0,0,0,0,0,0,0,0,0,0,0,0,0,0,0,0,0,0,0,0,0,0,0,0,0,0,0,0,0,0,0,0,0,0,0,0,0,0,0,0,0,0,0,0,0,0,0,0,0,0,0,0,0,0,0,0,0,0,0,0,0,0,0,0,0,0,0,0,0,0,0,0,0,0,0,0,0,0,0,0,0,0,0,0,0,0,0,0,0,0,0,0,0,0,0,0,0,0,0,0,0,0,0,0,0,0,0,0,0,0,0,0,0,0,0,0,0,0,0,0,0,0,0,0,0,0,0,0,0,0,0,0,0,0,0,0,0,0,0,0,0,0,0,0,0,0,0,0,0,0,0,0,0,0,0,0,0,0,0,0,0,0,0,0,0,0,0,0,0,0,0,0,0,0,0,0,0,0,0,0,0,0,0,0,0,0,0,0,0,0,0,0,0,0,0,0,0,0,0,0,0,0,0,0,0,0,0,0,0,0,0,0,0,0,0,0,0,0,0,0,0,0,0,0,0,0,0,0,0,0,0,0,0,0,0,0,0,0,0,0,0,0,0,0,0,0,0,0,0,0,0,0,0,0,0,0,0,0,0,0,0,0,0,0,0,0,0,0,0,0,0,0,0,0,0,0,0,0,0,0,0,0,0,0,0,0,0,0,0,0,0,0,0,0,0,0,0,0,0,0,0,0,0,0,0,0,0,0,0,0,0,0,0,0,0,0,0,0,0,0,0,0,0,0,0,0,0,0,0,0,0,0,0,0,0,0,0,0,0,0,0,0,0,0,0,0,0,0,0,0,0,0,0,0,0,0,0,0,0,0,0,0,0,0,0,0,0,0,0,0,0,0,0,0,0,0,0,0,0,0,0,0,0,0,0,0,0,0,0,0,0,0,0,0,0,0,0,0,0,0,0,0,0,0,0,0,0,0,0,0,0,0,0,0,0,0,0,0,0,0,0,0,0,0,0,0,0,0,0,0,0,0,0,0,0,0,0,0,0,0,0,0,0,0,0,0,0,0,0,0,0,0,0,0,0,0,0,0,0,0,0,0,0,0,0,0,0,0,0,0,0,0,0,0,0,0,0,0,0,0,0,0,0,0,0,0,0,0,0,0,0,0],"trees":[{"base_weights":[3.625454E-3,-1.062263E0,9.288827E-1,-1.756161E0,-6.6547424E-1,4.8111713E-1,1.4989159E0,-2.8857038E0,-1.556943E0,-9.26684E-1,-3.9125887E-1,2.142428E-1,7.5280607E-1,1.2929639E0,2.023504E0,-4.555181E0,-2.56278E0,-1.8340002E0,-1.3649797E0,-1.0789958E0,-8.1953776E-1,-5.185435E-1,-2.4374746E-1,6.8242595E-2,3.391912E-1,6.258531E-1,8.529186E-1,1.1625348E0,1.507949E0,1.8564578E0,2.3317616E0,-1.8156534E-1,-1.1836356E-1,-9.561132E-2,-2.4075139E0,-6.0300156E-2,-1.7104522E0,-1.4021529E0,-1.0881329E0,-1.0997488E0,-5.9973526E-1,-8.927077E-1,-7.2390306E-1,-5.295067E-1,8.430791E-2,-2.6941565E-1,-8.644872E-3,2.8778732E-2,2.560571E-1,2.4477412E-1,4.4822538E-1,4.0682095E-1,6.5805566E-1,-0E0,8.688413E-1,1.033428E0,1.2392635E0,7.5894827E-1,1.5356708E0,1.0279021E0,1.9067297E0,6.496938E-2,7.611328E-2,-7.311294E-2,-3.2022547E-2,-5.1748022E-2,-2.3457065E-2,-4.536145E-2,-3.9543122E-2,-3.444962E-2,-1.0545072E-2,-5.8282465E-2,-3.2685693E-2,-4.8654354E-3,-2.331383E-2,-2.6998775E-2,-1.2453022E-2,1.621189E-3,-2.1898298E-2,-1.6066635E-2,1.486805E-2,2.7763596E-2,-5.364284E-3,-1.0564811E-2,-6.6146147E-3,-9.123743E-3,5.5932365E-3,1.4202508E-2,3.7986797E-4,6.484428E-3,2.3111403E-2,4.8304936E-3,8.717461E-3,1.1800692E-2,1.8680537E-2,8.5013383E-4,1.4995836E-2,1.791133E-2,2.2192322E-2,-1.3296577E-2,1.43714305E-2,2.3762014E-2,2.778219E-2,3.142495E-2,-1.3991857E-2,3.4678917E-2,3.9460957E-2,3.8835872E-2,8.906979E-3,4.374869E-2,4.9441166E-2,5.055325E-2,1.2124994E-2,5.4120395E-2,6.2099088E-2],"categories":[],"categories_nodes":[],"categories_segments":[],"categories_sizes":[],"default_left":[0,0,0,0,0,0,0,0,0,0,0,0,0,0,0,0,0,0,0,0,0,0,0,0,0,0,0,0,0,0,0,0,0,0,0,0,0,0,0,0,0,0,0,0,0,0,0,0,0,0,0,0,0,0,0,0,0,0,0,0,0,0,0,0,0,0,0,0,0,0,0,0,0,0,0,0,0,0,0,0,0,0,0,0,0,0,0,0,0,0,0,0,0,0,0,0,0,0,0,0,0,0,0,0,0,0,0,0,0,0,0,0,0,0,0],"id":0,"left_children":[1,3,5,7,9,11,13,15,17,19,21,23,25,27,29,31,33,35,37,39,41,43,45,47,49,51,53,55,57,59,61,-1,-1,-1,63,-1,65,67,69,71,73,75,77,79,81,83,85,87,89,91,93,95,97,99,101,103,105,107,109,111,113,-1,-1,-1,-1,-1,-1,-1,-1,-1,-1,-1,-1,-1,-1,-1,-1,-1,-1,-1,-1,-1,-1,-1,-1,-1,-1,-1,-1,-1,-1,-1,-1,-1,-1,-1,-1,-1,-1,-1,-1,-1,-1,-1,-1,-1,-1,-1,-1,-1,-1,-1,-1,-1,-1],"loss_changes":[1.7493564E4,2.2671787E3,2.422166E3,6.6688574E2,3.749873E2,3.8533716E2,4.466416E2,2.2231909E2,1.3130615E2,4.212036E1,4.77713E1,4.889225E1,3.239966E1,8.1055664E1,5.314795E1,2.6532349E1,2.4058594E1,1.670288E1,1.27890625E1,9.646362E0,9.787964E0,9.233734E0,7.12516E0,9.133837E0,1.4588089E1,7.6273804E0,1.9876953E1,1.6213379E1,2.122461E1,2.8525146E1,4.684082E0,0E0,0E0,0E0,7.6672363E0,0E0,5.833008E0,8.715332E0,7.3632812E0,5.3171387E0,3.4652138E0,2.2573242E0,3.4624634E0,8.7725525E0,6.0412064E0,4.1110916E0,6.99705E0,7.2640195E0,3.9558306E0,2.8302574E0,5.828537E0,5.3137016E0,4.131317E0,6.372428E0,4.8900146E0,1.5821655E1,4.632324E0,9.869907E0,5.2209473E0,1.8031895E1,5.754883E0,0E0,0E0,0E0,0E0,0E0,0E0,0E0,0E0,0E0,0E0,0E0,0E0,0E0,0E0,0E0,0E0,0E0,0E0,0E0,0E0,0E0,0E0,0E0,0E0,0E0,0E0,0E0,0E0,0E0,0E0,0E0,0E0,0E0,0E0,0E0,0E0,0E0,0E0,0E0,0E0,0E0,0E0,0E0,0E0,0E0,0E0,0E0,0E0,0E0,0E0,0E0,0E0,0E0,0E0],"parents":[2147483647,0,0,1,1,2,2,3,3,4,4,5,5,6,6,7,7,8,8,9,9,10,10,11,11,12,12,13,13,14,14,15,15,16,16,17,17,18,18,19,19,20,20,21,21,22,22,23,23,24,24,25,25,26,26,27,27,28,28,29,29,30,30,34,34,36,36,37,37,38,38,39,39,40,40,41,41,42,42,43,43,44,44,45,45,46,46,47,47,48,48,49,49,50,50,51,51,52,52,53,53,54,54,55,55,56,56,57,57,58,58,59,59,60,60],"right_children":[2,4,6,8,10,12,14,16,18,20,22,24,26,28,30,32,34,36,38,40,42,44,46,48,50,52,54,56,58,60,62,-1,-1,-1,64,-1,66,68,70,72,74,76,78,80,82,84,86,88,90,92,94,96,98,100,102,104,106,108,110,112,114,-1,-1,-1,-1,-1,-1,-1,-1,-1,-1,-1,-1,-1,-1,-1,-1,-1,-1,-1,-1,-1,-1,-1,-1,-1,-1,-1,-1,-1,-1,-1,-1,-1,-1,-1,-1,-1,-1,-1,-1,-1,-1,-1,-1,-1,-1,-1,-1,-1,-1,-1,-1,-1,-1],"split_conditions":[7.3689704E0,6.2461066E0,8.487352E0,5.1119876E0,6.7912216E0,7.9738445E0,9.257701E0,3.234477E0,5.820083E0,6.4723463E0,7.0925736E0,7.6544433E0,8.212026E0,8.889722E0,9.625142E0,1.15827675E1,4.305506E0,5.5573673E0,6.5759006E0,6.8109627E0,6.6515718E0,7.7816E0,8.37E0,7.7982683E0,7.819345E0,7.7273126E0,7.4994235E0,8.496793E0,6.936657E0,6.665199E0,9.887713E0,-1.8156534E-1,-1.1836356E-1,-9.561132E-2,6.551432E0,-6.0300156E-2,6.7753663E0,6.016157E0,5.6746393E-1,4.573861E0,-4.8985874E-16,7.4301143E0,5.558388E0,2.439E1,7.080198E0,7.1831117E0,2.587E1,6.9862866E0,8.296047E0,2.55E1,3.31E0,6.9272604E0,1.5E0,6.7911124E0,8.283431E0,3.378E1,8.700681E0,1.2246469E-16,8.892462E0,7.672292E0,9.499571E0,6.496938E-2,7.611328E-2,-7.311294E-2,-3.2022547E-2,-5.1748022E-2,-2.3457065E-2,-4.536145E-2,-3.9543122E-2,-3.444962E-2,-1.0545072E-2,-5.8282465E-2,-3.2685693E-2,-4.8654354E-3,-2.331383E-2,-2.6998775E-2,-1.2453022E-2,1.621189E-3,-2.1898298E-2,-1.6066635E-2,1.486805E-2,2.7763596E-2,-5.364284E-3,-1.0564811E-2,-6.6146147E-3,-9.123743E-3,5.5932365E-3,1.4202508E-2,3.7986797E-4,6.484428E-3,2.3111403E-2,4.8304936E-3,8.717461E-3,1.1800692E-2,1.8680537E-2,8.5013383E-4,1.4995836E-2,1.791133E-2,2.2192322E-2,-1.3296577E-2,1.43714305E-2,2.3762014E-2,2.778219E-2,3.142495E-2,-1.3991857E-2,3.4678917E-2,3.9460957E-2,3.8835872E-2,8.906979E-3,4.374869E-2,4.9441166E-2,5.055325E-2,1.2124994E-2,5.4120395E-2,6.2099088E-2],"split_indices":[0,0,0,0,0,0,0,6,0,0,0,0,0,0,4,14,4,4,15,4,0,6,17,15,15,6,1,15,15,16,0,0,0,0,6,0,1,0,7,6,10,1,6,20,4,0,22,4,1,22,17,15,17,15,15,22,0,10,15,1,0,0,0,0,0,0,0,0,0,0,0,0,0,0,0,0,0,0,0,0,0,0,0,0,0,0,0,0,0,0,0,0,0,0,0,0,0,0,0,0,0,0,0,0,0,0,0,0,0,0,0,0,0,0,0],"split_type":[0,0,0,0,0,0,0,0,0,0,0,0,0,0,0,0,0,0,0,0,0,0,0,0,0,0,0,0,0,0,0,0,0,0,0,0,0,0,0,0,0,0,0,0,0,0,0,0,0,0,0,0,0,0,0,0,0,0,0,0,0,0,0,0,0,0,0,0,0,0,0,0,0,0,0,0,0,0,0,0,0,0,0,0,0,0,0,0,0,0,0,0,0,0,0,0,0,0,0,0,0,0,0,0,0,0,0,0,0,0,0,0,0,0,0],"sum_hessian":[1.7735E4,8.241E3,9.494E3,2.996E3,5.245E3,5.319E3,4.175E3,4.46E2,2.55E3,2.684E3,2.561E3,2.685E3,2.634E3,3.002E3,1.173E3,6.9E1,3.77E2,1.038E3,1.512E3,1.102E3,1.582E3,1.372E3,1.189E3,1.24E3,1.445E3,1.167E3,1.467E3,1.875E3,1.127E3,7.68E2,4.05E2,1.6E1,5.3E1,6.9E1,3.08E2,4.18E2,6.2E2,1.327E3,1.85E2,1.054E3,4.8E1,8.88E2,6.94E2,1.348E3,2.4E1,1.071E3,1.18E2,1.027E3,2.13E2,7.78E2,6.67E2,1.53E2,1.014E3,2.7E1,1.44E3,7.08E2,1.167E3,4.2E1,1.085E3,4.6E1,7.22E2,2.34E2,1.71E2,3E2,8E0,6.09E2,1.1E1,5.63E2,7.64E2,1.7E2,1.5E1,9E0,1.045E3,1.5E1,3.3E1,8.73E2,1.5E1,5E0,6.89E2,1.341E3,7E0,5E0,1.9E1,3.93E2,6.78E2,4.7E1,7.1E1,3.4E1,9.93E2,2E2,1.3E1,2.79E2,4.99E2,5.12E2,1.55E2,3.1E1,1.22E2,5.89E2,4.25E2,1.4E1,1.3E1,6.26E2,8.14E2,7.02E2,6E0,5.7E2,5.97E2,1.8E1,2.4E1,6.56E2,4.29E2,2.1E1,2.5E1,4.55E2,2.67E2],"tree_param":{"num_deleted":"0","num_feature":"23","num_nodes":"115","size_leaf_vector":"1"}},{"base_weights":[1.4408159E-3,-1.0057937E0,9.2143065E-1,-1.7435447E0,-6.4027977E-1,4.857876E-1,1.4592414E0,-2.8074281E0,-1.543203E0,-9.1921484E-1,-3.5936365E-1,2.2637527E-1,7.2780055E-1,1.22689E0,1.9153717E0,-4.4814053E0,-2.4544013E0,-1.7742007E0,-1.3350407E0,-1.0632429E0,-7.93623E-1,-5.105973E-1,-2.0664637E-1,1.3400425E-1,3.984099E-1,6.103523E-1,8.307913E-1,1.1106745E0,1.3818055E0,1.7038337E0,2.1207547E0,-5.772488E0,-1.1354726E-1,-2.488192E0,-0E0,-1.9334159E0,-1.6427822E0,-1.351261E0,-8.547447E-1,-1.0785143E0,-4.2046022E-1,-6.353969E-1,-8.3900195E-1,-5.1653993E-1,1.3051551E-2,-3.621672E-2,-2.6112464E-1,4.800421E-2,2.3125249E-1,3.4368786E-1,5.878436E-1,5.247541E-1,6.8905056E-1,1.603405E-1,8.4550625E-1,8.866438E-1,1.1531671E0,3.2390067E-1,1.4135859E0,1.4028481E0,5.3816997E-2,1.3276938E0,2.168921E0,-8.3439484E-2,-1.9033769E-1,-8.259085E-2,-6.775556E-2,-5.8497127E-2,-3.6572266E-2,-4.9731396E-2,-2.0904982E-2,-4.3187026E-2,-3.8287427E-2,-1.1743736E-2,-3.170344E-2,-2.9277382E-2,-3.4042038E-2,-2.1339156E-2,6.131158E-4,-1.9548066E-2,1.0105605E-2,-2.7172945E-2,-2.2713626E-2,-1.5664859E-2,1.4500718E-2,-3.0099591E-3,5.5457763E-3,-1.0143542E-2,-5.592641E-3,4.1378555E-3,-2.6194795E-4,-8.201963E-3,7.246436E-3,8.507895E-3,1.3794027E-2,1.6627917E-2,3.822442E-2,3.7996636E-3,1.6235959E-2,1.8318404E-2,2.286804E-2,-9.577173E-3,1.830602E-2,2.3435792E-2,2.7860789E-2,2.7424583E-2,-1.1055348E-2,3.26299E-2,3.6792103E-2,2.6181886E-2,-4.756673E-3,4.3931585E-2,3.8161784E-2,4.3427616E-2,-4.6433212E-4,5.4948437E-3,5.2070484E-2,6.216733E-2,7.6459065E-2],"categories":[],"categories_nodes":[],"categories_segments":[],"categories_sizes":[],"default_left":[0,0,0,0,0,0,0,0,0,0,0,0,0,0,0,0,0,0,0,0,0,0,0,0,0,0,0,0,0,0,0,0,0,0,0,0,0,0,0,0,0,0,0,0,0,0,0,0,0,0,0,0,0,0,0,0,0,0,0,0,0,0,0,0,0,0,0,0,0,0,0,0,0,0,0,0,0,0,0,0,0,0,0,0,0,0,0,0,0,0,0,0,0,0,0,0,0,0,0,0,0,0,0,0,0,0,0,0,0,0,0,0,0,0,0,0,0,0,0],"id":1,"left_children":[1,3,5,7,9,11,13,15,17,19,21,23,25,27,29,31,33,35,37,39,41,43,45,47,49,51,53,55,57,59,61,63,-1,65,-1,67,69,71,73,75,77,79,81,83,-1,85,87,89,91,93,95,97,99,101,103,105,107,109,111,113,-1,115,117,-1,-1,-1,-1,-1,-1,-1,-1,-1,-1,-1,-1,-1,-1,-1,-1,-1,-1,-1,-1,-1,-1,-1,-1,-1,-1,-1,-1,-1,-1,-1,-1,-1,-1,-1,-1,-1,-1,-1,-1,-1,-1,-1,-1,-1,-1,-1,-1,-1,-1,-1,-1,-1,-1,-1,-1],"loss_changes":[1.6514658E4,2.2919668E3,2.1808735E3,5.931543E2,4.4521973E2,3.2279077E2,4.375293E2,2.4479541E2,1.1000293E2,4.9997314E1,6.525629E1,3.9342346E1,3.1156982E1,4.698828E1,5.4791992E1,3.320813E1,3.0923096E1,1.796582E1,7.607422E0,1.2021606E1,9.901794E0,8.358582E0,1.3068859E1,1.3488672E1,8.503311E0,7.6387634E0,1.354071E1,1.3180298E1,3.8587646E1,1.454834E1,2.1930664E1,1.19198E1,0E0,1.1902588E1,0E0,1.6604004E0,6.616699E0,4.726074E0,3.3486633E0,5.3721924E0,4.455778E0,5.8830414E0,5.1140137E0,8.349182E0,0E0,4.9081497E0,5.9634476E0,4.4331603E0,4.0387383E0,4.382904E0,2.9882889E0,3.734085E0,2.7343445E0,7.362065E0,5.9661255E0,9.608994E0,3.9144287E0,1.0015089E1,4.879883E0,1.1012146E1,0E0,1.9918938E1,1.5473633E1,0E0,0E0,0E0,0E0,0E0,0E0,0E0,0E0,0E0,0E0,0E0,0E0,0E0,0E0,0E0,0E0,0E0,0E0,0E0,0E0,0E0,0E0,0E0,0E0,0E0,0E0,0E0,0E0,0E0,0E0,0E0,0E0,0E0,0E0,0E0,0E0,0E0,0E0,0E0,0E0,0E0,0E0,0E0,0E0,0E0,0E0,0E0,0E0,0E0,0E0,0E0,0E0,0E0,0E0,0E0,0E0],"parents":[2147483647,0,0,1,1,2,2,3,3,4,4,5,5,6,6,7,7,8,8,9,9,10,10,11,11,12,12,13,13,14,14,15,15,16,16,17,17,18,18,19,19,20,20,21,21,22,22,23,23,24,24,25,25,26,26,27,27,28,28,29,29,30,30,31,31,33,33,35,35,36,36,37,37,38,38,39,39,40,40,41,41,42,42,43,43,45,45,46,46,47,47,48,48,49,49,50,50,51,51,52,52,53,53,54,54,55,55,56,56,57,57,58,58,59,59,61,61,62,62],"right_children":[2,4,6,8,10,12,14,16,18,20,22,24,26,28,30,32,34,36,38,40,42,44,46,48,50,52,54,56,58,60,62,64,-1,66,-1,68,70,72,74,76,78,80,82,84,-1,86,88,90,92,94,96,98,100,102,104,106,108,110,112,114,-1,116,118,-1,-1,-1,-1,-1,-1,-1,-1,-1,-1,-1,-1,-1,-1,-1,-1,-1,-1,-1,-1,-1,-1,-1,-1,-1,-1,-1,-1,-1,-1,-1,-1,-1,-1,-1,-1,-1,-1,-1,-1,-1,-1,-1,-1,-1,-1,-1,-1,-1,-1,-1,-1,-1,-1,-1,-1],"split_conditions":[7.4145727E0,6.200509E0,8.487352E0,5.1119876E0,6.7753663E0,7.9738445E0,9.172742E0,3.6888795E0,5.8435445E0,6.4723463E0,7.0925736E0,7.819345E0,8.226574E0,8.823206E0,9.499571E0,1.15827675E1,6.8823466E0,5.6416755E0,6.7388806E0,7.1831117E0,-5E-1,8.451481E0,-5E-1,7.6544433E0,3.41E0,8.03236E0,7.4994235E0,8.278816E0,6.936657E0,8.860468E0,7.2564507E0,1.10424595E1,-1.1354726E-1,4.7095304E0,-0E0,5.8037696E0,6.8690143E0,6.016157E0,-4.8985874E-16,-1.8369701E-16,5E-1,7.3336763E0,6.6359468E0,2.439E1,1.3051551E-2,8.37E0,7.2548847E0,-1.8369701E-16,6.7936406E0,7.868254E0,8.438799E0,6.286246E0,1.28E0,1.8016666E1,8.335671E0,8.752783E0,8.670429E0,3.6739403E-16,8.660254E-1,9.503084E0,5.3816997E-2,-5E-1,1.0024333E1,-8.3439484E-2,-1.9033769E-1,-8.259085E-2,-6.775556E-2,-5.8497127E-2,-3.6572266E-2,-4.9731396E-2,-2.0904982E-2,-4.3187026E-2,-3.8287427E-2,-1.1743736E-2,-3.170344E-2,-2.9277382E-2,-3.4042038E-2,-2.1339156E-2,6.131158E-4,-1.9548066E-2,1.0105605E-2,-2.7172945E-2,-2.2713626E-2,-1.5664859E-2,1.4500718E-2,-3.0099591E-3,5.5457763E-3,-1.0143542E-2,-5.592641E-3,4.1378555E-3,-2.6194795E-4,-8.201963E-3,7.246436E-3,8.507895E-3,1.3794027E-2,1.6627917E-2,3.822442E-2,3.7996636E-3,1.6235959E-2,1.8318404E-2,2.286804E-2,-9.577173E-3,1.830602E-2,2.3435792E-2,2.7860789E-2,2.7424583E-2,-1.1055348E-2,3.26299E-2,3.6792103E-2,2.6181886E-2,-4.756673E-3,4.3931585E-2,3.8161784E-2,4.3427616E-2,-4.6433212E-4,5.4948437E-3,5.2070484E-2,6.216733E-2,7.6459065E-2],"split_indices":[0,0,0,0,0,0,0,2,0,0,0,15,0,0,0,14,15,5,5,1,9,3,9,0,17,3,1,15,15,15,15,14,0,0,0,6,1,0,10,9,8,1,0,20,0,17,0,9,5,0,1,15,17,20,3,6,0,10,9,3,0,8,0,0,0,0,0,0,0,0,0,0,0,0,0,0,0,0,0,0,0,0,0,0,0,0,0,0,0,0,0,0,0,0,0,0,0,0,0,0,0,0,0,0,0,0,0,0,0,0,0,0,0,0,0,0,0,0,0],"split_type":[0,0,0,0,0,0,0,0,0,0,0,0,0,0,0,0,0,0,0,0,0,0,0,0,0,0,0,0,0,0,0,0,0,0,0,0,0,0,0,0,0,0,0,0,0,0,0,0,0,0,0,0,0,0,0,0,0,0,0,0,0,0,0,0,0,0,0,0,0,0,0,0,0,0,0,0,0,0,0,0,0,0,0,0,0,0,0,0,0,0,0,0,0,0,0,0,0,0,0,0,0,0,0,0,0,0,0,0,0,0,0,0,0,0,0,0,0,0,0],"sum_hessian":[1.7819E4,8.506E3,9.313E3,2.816E3,5.69E3,5.147E3,4.166E3,4.43E2,2.373E3,2.853E3,2.837E3,2.486E3,2.661E3,2.764E3,1.402E3,7.4E1,3.69E2,1.119E3,1.254E3,1.323E3,1.53E3,1.423E3,1.414E3,1.62E3,8.66E2,1.249E3,1.412E3,1.587E3,1.177E3,6.98E2,7.04E2,2.2E1,5.2E1,3.64E2,5E0,4.96E2,6.23E2,1.21E3,4.4E1,1.291E3,3.2E1,3.47E2,1.183E3,1.415E3,8E0,3.44E2,1.07E3,8.62E2,7.58E2,6.76E2,1.9E2,6.05E2,6.44E2,3.1E1,1.381E3,2.59E2,1.328E3,3.5E1,1.142E3,1.67E2,5.31E2,4.3E1,6.61E2,5E0,1.7E1,1.61E2,2.03E2,4.82E2,1.4E1,6.12E2,1.1E1,5.42E2,6.68E2,1.5E1,2.9E1,4.68E2,8.23E2,1.9E1,1.3E1,3.42E2,5E0,6.42E2,5.41E2,1.408E3,7E0,2.68E2,7.6E1,5.23E2,5.47E2,3.34E2,5.28E2,1.4E1,7.44E2,4.5E2,2.26E2,1.84E2,6E0,2.5E1,5.8E2,3.19E2,3.25E2,1.5E1,1.6E1,7.89E2,5.92E2,2.54E2,5E0,7.15E2,6.13E2,1.6E1,1.9E1,8.29E2,3.13E2,1.62E2,5E0,1.2E1,3.1E1,5.35E2,1.26E2],"tree_param":{"num_deleted":"0","num_feature":"23","num_nodes":"119","size_leaf_vector":"1"}},{"base_weights":[5.5921352E-3,-9.677627E-1,8.4721565E-1,-1.6453378E0,-6.4048827E-1,4.6345642E-1,1.4044968E0,-3.52787E0,-1.5299067E0,-9.250074E-1,-3.999083E-1,1.8313088E-1,7.1230876E-1,1.1676176E0,1.8386906E0,-1.6947104E-1,-3.18208E0,-1.8816507E0,-1.3178167E0,-7.273403E-1,-1.0354128E0,-1.8933325E-1,-5.2762544E-1,7.4703105E-2,4.245522E-1,1.5265661E-1,7.4976563E-1,1.0061039E0,1.3096063E0,1.6074203E0,2.034132E0,-3.3634877E0,-1.5558534E0,-2.159906E0,-1.7018657E0,-1.3862528E0,-1.0071412E0,-8.0402225E-1,-3.4887907E-1,-1.0760727E0,-6.0257095E-1,-3.30058E-1,2.9742574E-2,-6.8789303E-1,-3.691909E-1,5.758045E-2,1.1490897E0,3.2676125E-1,6.313315E-1,-1.18536994E-1,5.955181E-1,6.730031E-1,1.0453374E0,9.056614E-1,1.1826748E0,1.2517341E0,1.4801575E0,1.3623391E0,5.0668385E-2,1.9224749E0,6.836433E-2,-1.10047795E-1,-7.7824436E-2,-5.44566E-2,-2.1214845E-2,-6.754101E-2,-3.7936114E-2,-2.286327E-2,-5.21429E-2,-4.515839E-2,-3.748364E-2,-3.1025602E-2,5.9145386E-3,-2.6678734E-2,-1.8974952E-2,-1.1908923E-2,2.4870345E-2,-3.7140645E-2,-3.0054335E-2,3.0334946E-2,-2.1315496E-2,-1.2330539E-2,-3.5321014E-3,-2.2271922E-4,3.0333642E-2,-2.2906473E-2,-1.6388232E-2,-1.15185445E-2,1.45397335E-2,-1.29522E-3,4.9294014E-3,7.897026E-3,5.0157648E-2,9.430522E-3,3.1655144E-2,1.588338E-2,2.6211789E-2,3.3633485E-2,-7.128316E-3,2.0990811E-2,6.716855E-3,1.7400159E-2,2.544823E-2,2.4277281E-2,3.601332E-2,2.1276308E-2,2.8471153E-2,3.3475738E-2,3.9644558E-2,3.3576127E-2,3.921879E-2,4.750219E-2,4.0370133E-2,4.229068E-2,1.497226E-3,5.4102838E-2,6.1663676E-2],"categories":[],"categories_nodes":[],"categories_segments":[],"categories_sizes":[],"default_left":[0,0,0,0,0,0,0,0,0,0,0,0,0,0,0,0,0,0,0,0,0,0,0,0,0,0,0,0,0,0,0,0,0,0,0,0,0,0,0,0,0,0,0,0,0,0,0,0,0,0,0,0,0,0,0,0,0,0,0,0,0,0,0,0,0,0,0,0,0,0,0,0,0,0,0,0,0,0,0,0,0,0,0,0,0,0,0,0,0,0,0,0,0,0,0,0,0,0,0,0,0,0,0,0,0,0,0,0,0,0,0,0,0,0,0,0,0],"id":2,"left_children":[1,3,5,7,9,11,13,15,17,19,21,23,25,27,29,-1,31,33,35,37,39,41,43,45,47,49,51,53,55,57,59,61,63,65,67,69,71,73,75,77,79,81,83,85,87,89,91,93,95,97,99,101,103,105,107,109,111,113,-1,115,-1,-1,-1,-1,-1,-1,-1,-1,-1,-1,-1,-1,-1,-1,-1,-1,-1,-1,-1,-1,-1,-1,-1,-1,-1,-1,-1,-1,-1,-1,-1,-1,-1,-1,-1,-1,-1,-1,-1,-1,-1,-1,-1,-1,-1,-1,-1,-1,-1,-1,-1,-1,-1,-1,-1,-1,-1],"loss_changes":[1.4535014E4,1.8224355E3,2.0336519E3,5.729375E2,3.7910962E2,3.928954E2,3.9519092E2,8.385901E1,1.8412158E2,5.3982178E1,8.067136E1,6.931267E1,6.22323E1,5.5226074E1,5.6132324E1,0E0,3.1140259E1,4.1063232E1,3.1052002E1,2.5946594E1,2.7317017E1,3.5204887E1,4.695398E1,3.3389122E1,1.6110596E1,2.296046E1,6.207312E1,1.8965332E1,9.826416E0,8.596069E0,1.2654785E1,1.2727539E1,1.2020607E0,2.4957764E1,1.7346313E1,1.7656982E1,9.96756E0,9.974731E0,9.327854E0,1.5545166E1,2.6014633E1,1.1759773E1,1.6497849E1,9.060608E0,1.21754E1,1.9461641E1,1.2152687E1,4.3044853E0,5.4836197E0,1.7714655E1,2.387062E0,3.5251587E1,1.9142456E1,5.147827E0,1.2285767E0,4.723755E0,7.7948E-1,9.949524E0,0E0,1.8129883E0,0E0,0E0,0E0,0E0,0E0,0E0,0E0,0E0,0E0,0E0,0E0,0E0,0E0,0E0,0E0,0E0,0E0,0E0,0E0,0E0,0E0,0E0,0E0,0E0,0E0,0E0,0E0,0E0,0E0,0E0,0E0,0E0,0E0,0E0,0E0,0E0,0E0,0E0,0E0,0E0,0E0,0E0,0E0,0E0,0E0,0E0,0E0,0E0,0E0,0E0,0E0,0E0,0E0,0E0,0E0,0E0,0E0],"parents":[2147483647,0,0,1,1,2,2,3,3,4,4,5,5,6,6,7,7,8,8,9,9,10,10,11,11,12,12,13,13,14,14,16,16,17,17,18,18,19,19,20,20,21,21,22,22,23,23,24,24,25,25,26,26,27,27,28,28,29,29,30,30,31,31,32,32,33,33,34,34,35,35,36,36,37,37,38,38,39,39,40,40,41,41,42,42,43,43,44,44,45,45,46,46,47,47,48,48,49,49,50,50,51,51,52,52,53,53,54,54,55,55,56,56,57,57,59,59],"right_children":[2,4,6,8,10,12,14,16,18,20,22,24,26,28,30,-1,32,34,36,38,40,42,44,46,48,50,52,54,56,58,60,62,64,66,68,70,72,74,76,78,80,82,84,86,88,90,92,94,96,98,100,102,104,106,108,110,112,114,-1,116,-1,-1,-1,-1,-1,-1,-1,-1,-1,-1,-1,-1,-1,-1,-1,-1,-1,-1,-1,-1,-1,-1,-1,-1,-1,-1,-1,-1,-1,-1,-1,-1,-1,-1,-1,-1,-1,-1,-1,-1,-1,-1,-1,-1,-1,-1,-1,-1,-1,-1,-1,-1,-1,-1,-1,-1,-1],"split_conditions":[7.3702307E0,6.1904073E0,8.437718E0,4.2028546E0,6.6883545E0,7.979339E0,9.119102E0,7.6248837E-3,5.6489744E0,-1.8369701E-16,-1.8369701E-16,7.819345E0,6.665199E0,8.689969E0,9.418898E0,-1.6947104E-1,4.836282E0,5.2204432E0,6.2576675E0,3.348213E-1,6.8582754E0,7.1017E0,7.035306E0,1.1019701E0,2.05E0,6.800302E0,8.585599E0,6.023E1,9.002086E0,8.8761215E0,9.595705E0,5.03E0,8.838E1,7.898201E-1,3.8501475E0,6.0356045E0,9.099E1,6.55128E0,8.126468E0,6.285998E0,5.049856E0,7.05E0,7.289118E-1,6.841118E0,1.303852E0,7.6241307E0,6.244497E0,5.4644984E-1,8.335671E0,-8.660254E-1,1E1,8.257904E0,3.3333334E-3,8.284252E0,8.824825E0,8.643383E0,6.123234E-17,9.503084E0,5.0668385E-2,3.7E-1,6.836433E-2,-1.10047795E-1,-7.7824436E-2,-5.44566E-2,-2.1214845E-2,-6.754101E-2,-3.7936114E-2,-2.286327E-2,-5.21429E-2,-4.515839E-2,-3.748364E-2,-3.1025602E-2,5.9145386E-3,-2.6678734E-2,-1.8974952E-2,-1.1908923E-2,2.4870345E-2,-3.7140645E-2,-3.0054335E-2,3.0334946E-2,-2.1315496E-2,-1.2330539E-2,-3.5321014E-3,-2.2271922E-4,3.0333642E-2,-2.2906473E-2,-1.6388232E-2,-1.15185445E-2,1.45397335E-2,-1.29522E-3,4.9294014E-3,7.897026E-3,5.0157648E-2,9.430522E-3,3.1655144E-2,1.588338E-2,2.6211789E-2,3.3633485E-2,-7.128316E-3,2.0990811E-2,6.716855E-3,1.7400159E-2,2.544823E-2,2.4277281E-2,3.601332E-2,2.1276308E-2,2.8471153E-2,3.3475738E-2,3.9644558E-2,3.3576127E-2,3.921879E-2,4.750219E-2,4.0370133E-2,4.229068E-2,1.497226E-3,5.4102838E-2,6.1663676E-2],"split_indices":[1,5,15,5,1,1,1,7,1,9,9,15,16,1,1,0,1,5,1,7,5,5,5,7,21,15,1,19,3,15,15,17,19,7,3,15,19,5,15,1,3,17,7,15,7,1,15,7,3,9,12,3,17,1,3,15,9,3,0,17,0,0,0,0,0,0,0,0,0,0,0,0,0,0,0,0,0,0,0,0,0,0,0,0,0,0,0,0,0,0,0,0,0,0,0,0,0,0,0,0,0,0,0,0,0,0,0,0,0,0,0,0,0,0,0,0,0],"split_type":[0,0,0,0,0,0,0,0,0,0,0,0,0,0,0,0,0,0,0,0,0,0,0,0,0,0,0,0,0,0,0,0,0,0,0,0,0,0,0,0,0,0,0,0,0,0,0,0,0,0,0,0,0,0,0,0,0,0,0,0,0,0,0,0,0,0,0,0,0,0,0,0,0,0,0,0,0,0,0,0,0,0,0,0,0,0,0,0,0,0,0,0,0,0,0,0,0,0,0,0,0,0,0,0,0,0,0,0,0,0,0,0,0,0,0,0,0],"sum_hessian":[1.774E4,8.226E3,9.514E3,2.677E3,5.549E3,5.636E3,3.878E3,1.52E2,2.525E3,2.54E3,3.009E3,2.652E3,2.984E3,2.513E3,1.365E3,1.8E1,1.34E2,9.45E2,1.58E3,9.15E2,1.625E3,1.138E3,1.871E3,1.832E3,8.2E2,1.88E2,2.796E3,1.182E3,1.331E3,6.32E2,7.33E2,1.19E2,1.5E1,3.64E2,5.81E2,1.29E3,2.9E2,7.59E2,1.56E2,1.483E3,1.42E2,6.93E2,4.45E2,9.27E2,9.44E2,1.805E3,2.7E1,5.6E2,2.6E2,1.17E2,7.1E1,2.224E3,5.72E2,7.6E2,4.22E2,1.004E3,3.27E2,1.65E2,4.67E2,5.13E2,2.2E2,8.1E1,3.8E1,1E1,5E0,3.28E2,3.6E1,2.3E1,5.58E2,6.81E2,6.09E2,2.84E2,6E0,5.02E2,2.57E2,1.51E2,5E0,4.58E2,1.025E3,8E0,1.34E2,5E2,1.93E2,4.3E2,1.5E1,5.99E2,3.28E2,9.29E2,1.5E1,9.28E2,8.77E2,1.1E1,1.6E1,5.53E2,7E0,1.87E2,7.3E1,9E0,1.08E2,5.4E1,1.7E1,1.458E3,7.66E2,2.31E2,3.41E2,1.43E2,6.17E2,2.95E2,1.27E2,3.07E2,6.97E2,1.75E2,1.52E2,1.59E2,6E0,2.83E2,2.3E2],"tree_param":{"num_deleted":"0","num_feature":"23","num_nodes":"117","size_leaf_vector":"1"}},{"base_weights":[-1.6372736E-3,-9.52437E-1,8.671395E-1,-1.653797E0,-6.0440546E-1,4.5556486E-1,1.3749962E0,-3.5624225E0,-1.5480093E0,-8.8657063E-1,-3.5754734E-1,2.019817E-1,6.7242557E-1,1.1793828E0,1.8653007E0,-3.9698663E0,-2.2139914E0,-2.0548136E0,-1.3943073E0,-9.973749E-1,-7.756992E-1,-5.143911E-1,-2.1141319E-1,1.235715E-1,3.601116E-1,5.5130017E-1,7.706403E-1,1.0706471E0,1.3828617E0,1.7740281E0,6.826648E-2,-5.3756013E0,-3.5270462E0,-2.6267989E0,-1.1734298E0,-2.184667E0,-1.785328E0,-1.5592452E0,-1.2438738E0,-1.0041082E0,5.7963342E-3,-6.216401E-1,-8.184949E-1,-5.268347E-1,2.711092E-1,-2.84611E-1,-1.1539775E-1,1.8853085E-2,1.8467766E-1,3.0574313E-1,5.282317E-1,4.4370672E-1,6.012372E-1,1.5917073E-1,7.838929E-1,-1.3165095E-2,1.0757568E0,6.427002E-1,1.4084845E0,9.802377E-1,1.801822E0,-7.913535E-2,-1.8855445E-1,-1.0813969E-1,-5.056056E-2,-8.728032E-2,-3.296224E-2,-1.691062E-2,-4.5654595E-2,-6.626465E-2,-4.032022E-2,-5.484864E-2,-2.3694137E-2,-4.7005277E-2,-1.1341746E-3,-3.7780028E-2,-2.1423945E-2,-3.0960258E-2,-2.5081238E-2,-2.0743947E-2,-1.08460905E-2,-2.5740296E-2,-2.1843998E-2,-1.2591299E-2,-1.7875792E-2,2.8774874E-2,-0E0,-5.570764E-3,-1.0557076E-2,2.1108473E-3,-5.0325785E-3,7.7158003E-3,-8.0901766E-5,8.631182E-3,4.0320028E-3,5.3504547E-3,1.06503405E-2,1.48408925E-2,3.63583E-2,1.6595839E-2,1.0274174E-2,1.6358756E-2,2.0943338E-2,1.9860847E-2,-6.6878744E-3,2.1029692E-2,2.517552E-2,2.8766531E-2,3.4211572E-2,3.6368027E-2,3.7487089E-3,3.9959844E-2,4.5371633E-2,5.987249E-2,1.0574764E-2,5.0206568E-2,5.7717662E-2],"categories":[],"categories_nodes":[],"categories_segments":[],"categories_sizes":[],"default_left":[0,0,0,0,0,0,0,0,0,0,0,0,0,0,0,0,0,0,0,0,0,0,0,0,0,0,0,0,0,0,0,0,0,0,0,0,0,0,0,0,0,0,0,0,0,0,0,0,0,0,0,0,0,0,0,0,0,0,0,0,0,0,0,0,0,0,0,0,0,0,0,0,0,0,0,0,0,0,0,0,0,0,0,0,0,0,0,0,0,0,0,0,0,0,0,0,0,0,0,0,0,0,0,0,0,0,0,0,0,0,0,0,0,0,0,0,0],"id":3,"left_children":[1,3,5,7,9,11,13,15,17,19,21,23,25,27,29,31,33,35,37,39,41,43,45,47,49,51,53,55,57,59,-1,61,63,65,67,69,71,73,75,77,-1,79,81,83,85,87,89,91,93,95,97,99,101,103,105,-1,107,109,111,113,115,-1,-1,-1,-1,-1,-1,-1,-1,-1,-1,-1,-1,-1,-1,-1,-1,-1,-1,-1,-1,-1,-1,-1,-1,-1,-1,-1,-1,-1,-1,-1,-1,-1,-1,-1,-1,-1,-1,-1,-1,-1,-1,-1,-1,-1,-1,-1,-1,-1,-1,-1,-1,-1,-1,-1,-1],"loss_changes":[1.4681923E4,2.069565E3,1.9399766E3,5.5877686E2,3.9453174E2,2.8186902E2,3.9474072E2,6.606799E1,2.0288037E2,3.099707E1,6.912854E1,2.9203537E1,3.1997559E1,6.312207E1,3.7413086E1,3.856421E1,1.0724579E1,1.4964111E1,4.745703E1,1.10147705E1,7.720825E0,1.45312195E1,1.0915421E1,1.0105989E1,6.752487E0,6.077423E0,1.1961914E1,1.5848389E1,1.7775269E1,1.829419E1,0E0,3.1864319E1,2.4788818E0,5.412964E0,1.1639328E0,3.1517334E0,6.2702637E0,1.0831055E1,7.1140137E0,4.477417E0,0E0,4.7993546E0,2.4430542E0,1.0051025E1,4.252698E0,5.715332E0,6.684499E0,3.06945E0,5.040184E0,3.5422935E0,3.0813675E0,3.9868774E0,3.7572021E0,6.93809E0,5.637146E0,0E0,1.2597412E1,1.0563695E1,4.3132324E0,2.1743256E1,9.164795E0,0E0,0E0,0E0,0E0,0E0,0E0,0E0,0E0,0E0,0E0,0E0,0E0,0E0,0E0,0E0,0E0,0E0,0E0,0E0,0E0,0E0,0E0,0E0,0E0,0E0,0E0,0E0,0E0,0E0,0E0,0E0,0E0,0E0,0E0,0E0,0E0,0E0,0E0,0E0,0E0,0E0,0E0,0E0,0E0,0E0,0E0,0E0,0E0,0E0,0E0,0E0,0E0,0E0,0E0,0E0,0E0],"parents":[2147483647,0,0,1,1,2,2,3,3,4,4,5,5,6,6,7,7,8,8,9,9,10,10,11,11,12,12,13,13,14,14,15,15,16,16,17,17,18,18,19,19,20,20,21,21,22,22,23,23,24,24,25,25,26,26,27,27,28,28,29,29,31,31,32,32,33,33,34,34,35,35,36,36,37,37,38,38,39,39,41,41,42,42,43,43,44,44,45,45,46,46,47,47,48,48,49,49,50,50,51,51,52,52,53,53,54,54,56,56,57,57,58,58,59,59,60,60],"right_children":[2,4,6,8,10,12,14,16,18,20,22,24,26,28,30,32,34,36,38,40,42,44,46,48,50,52,54,56,58,60,-1,62,64,66,68,70,72,74,76,78,-1,80,82,84,86,88,90,92,94,96,98,100,102,104,106,-1,108,110,112,114,116,-1,-1,-1,-1,-1,-1,-1,-1,-1,-1,-1,-1,-1,-1,-1,-1,-1,-1,-1,-1,-1,-1,-1,-1,-1,-1,-1,-1,-1,-1,-1,-1,-1,-1,-1,-1,-1,-1,-1,-1,-1,-1,-1,-1,-1,-1,-1,-1,-1,-1,-1,-1,-1,-1,-1,-1],"split_conditions":[7.4145727E0,6.200509E0,8.487352E0,4.305506E0,6.7322106E0,7.9466176E0,9.257701E0,5.2894073E0,5.4664297E0,6.4723463E0,7.0535855E0,7.819345E0,8.200837E0,8.912474E0,9.826629E0,1.15827675E1,4.67E0,5.273E0,5.891644E0,7.4548764E0,-5E-1,7.7816E0,7.2548847E0,7.574045E0,3.41E0,7.974764E0,7.4994235E0,5.500864E0,6.936657E0,6.7911124E0,6.826648E-2,1.1308788E1,4.890349E0,5.868206E0,5.22E0,5.9771376E0,5.891644E0,7.4943495E0,6.805751E0,6.7122912E0,5.7963342E-3,6.8141637E0,6.6515718E0,-1.8369701E-16,7.080198E0,-1.8369701E-16,-5E-1,-8.660254E-1,-1.8369701E-16,7.7701654E0,8.798153E0,6.123234E-17,5.838E1,7.9E1,8.263117E0,-1.3165095E-2,8.489332E0,1.2246469E-16,8.892462E0,7.326467E0,9.499571E0,-7.913535E-2,-1.8855445E-1,-1.0813969E-1,-5.056056E-2,-8.728032E-2,-3.296224E-2,-1.691062E-2,-4.5654595E-2,-6.626465E-2,-4.032022E-2,-5.484864E-2,-2.3694137E-2,-4.7005277E-2,-1.1341746E-3,-3.7780028E-2,-2.1423945E-2,-3.0960258E-2,-2.5081238E-2,-2.0743947E-2,-1.08460905E-2,-2.5740296E-2,-2.1843998E-2,-1.2591299E-2,-1.7875792E-2,2.8774874E-2,-0E0,-5.570764E-3,-1.0557076E-2,2.1108473E-3,-5.0325785E-3,7.7158003E-3,-8.0901766E-5,8.631182E-3,4.0320028E-3,5.3504547E-3,1.06503405E-2,1.48408925E-2,3.63583E-2,1.6595839E-2,1.0274174E-2,1.6358756E-2,2.0943338E-2,1.9860847E-2,-6.6878744E-3,2.1029692E-2,2.517552E-2,2.8766531E-2,3.4211572E-2,3.6368027E-2,3.7487089E-3,3.9959844E-2,4.5371633E-2,5.987249E-2,1.0574764E-2,5.0206568E-2,5.7717662E-2],"split_indices":[0,0,0,4,0,0,0,15,4,0,0,15,0,0,4,14,17,0,0,4,9,6,0,0,17,15,1,15,15,15,0,14,0,15,17,6,0,6,5,6,0,6,0,9,4,9,9,9,9,4,1,9,19,19,15,0,15,10,15,5,0,0,0,0,0,0,0,0,0,0,0,0,0,0,0,0,0,0,0,0,0,0,0,0,0,0,0,0,0,0,0,0,0,0,0,0,0,0,0,0,0,0,0,0,0,0,0,0,0,0,0,0,0,0,0,0,0],"split_type":[0,0,0,0,0,0,0,0,0,0,0,0,0,0,0,0,0,0,0,0,0,0,0,0,0,0,0,0,0,0,0,0,0,0,0,0,0,0,0,0,0,0,0,0,0,0,0,0,0,0,0,0,0,0,0,0,0,0,0,0,0,0,0,0,0,0,0,0,0,0,0,0,0,0,0,0,0,0,0,0,0,0,0,0,0,0,0,0,0,0,0,0,0,0,0,0,0,0,0,0,0,0,0,0,0,0,0,0,0,0,0,0,0,0,0,0,0],"sum_hessian":[1.7771E4,8.485E3,9.286E3,2.812E3,5.673E3,5.131E3,4.155E3,1.45E2,2.667E3,2.645E3,3.028E3,2.367E3,2.764E3,2.974E3,1.181E3,1.09E2,3.6E1,6.16E2,2.051E3,1.316E3,1.329E3,1.458E3,1.57E3,1.585E3,7.82E2,1.243E3,1.521E3,1.945E3,1.029E3,9.73E2,2.08E2,2.2E1,8.7E1,2.4E1,1.2E1,4.08E2,2.08E2,9.71E2,1.08E3,1.309E3,7E0,2.95E2,1.034E3,1.436E3,2.2E1,8.88E2,6.82E2,5.86E2,9.99E2,5.95E2,1.87E2,4E2,8.43E2,3.3E1,1.488E3,6E0,1.939E3,3.6E1,9.93E2,3.5E1,9.38E2,7E0,1.5E1,8.2E1,5E0,1.9E1,5E0,6E0,6E0,3.94E2,1.4E1,1.98E2,1E1,9.66E2,5E0,1.047E3,3.3E1,1.115E3,1.94E2,2.3E2,6.5E1,7.09E2,3.25E2,5.68E2,8.68E2,5E0,1.7E1,3.63E2,5.25E2,1.49E2,5.33E2,4.8E1,5.38E2,3.24E2,6.75E2,1.69E2,4.26E2,1.81E2,6E0,1.88E2,2.12E2,5.42E2,3.01E2,1.4E1,1.9E1,6.05E2,8.83E2,7E2,1.239E3,1.6E1,2E1,5.85E2,4.08E2,1.2E1,2.3E1,4.69E2,4.69E2],"tree_param":{"num_deleted":"0","num_feature":"23","num_nodes":"117","size_leaf_vector":"1"}},{"base_weights":[-1.843534E-3,-9.2536026E-1,8.417394E-1,-1.6004217E0,-5.893652E-1,4.4984543E-1,1.3448443E0,-2.849839E0,-1.4465342E0,-8.398462E-1,-3.2055417E-1,2.0913212E-1,6.6927254E-1,1.1532354E0,1.8095791E0,-4.0843906E0,-2.4455318E0,-1.7214191E0,-1.2541201E0,-9.622973E-1,-7.165678E-1,-4.553895E-1,-1.8737444E-1,7.080802E-2,2.9828626E-1,5.583713E-1,7.637437E-1,1.0439621E0,1.342044E0,1.6630771E0,2.0526712E0,-4.74581E0,-9.07438E-2,-8.828639E-2,-2.257022E0,-1.9541582E0,-1.6295505E0,-1.3882966E0,-1.1873314E0,-9.773649E-1,-5.2474314E-1,-7.225793E-1,1.2599352E-2,-4.687614E-1,-0E0,-8.196548E-2,-2.5208163E-1,4.0414866E-2,2.4917722E-1,2.1101148E-1,4.0044123E-1,4.736016E-1,6.3127965E-1,7.6974213E-1,-1.6009184E-2,-1.38162505E-2,1.0493861E0,3.6997113E-1,1.3582437E0,-2.4731904E-3,1.6800146E0,5.587677E-2,6.701355E-2,-8.388184E-2,-1.5211682E-1,-6.557812E-2,-9.783207E-2,-5.944476E-2,-9.038447E-3,-4.9271338E-2,-2.5532603E-2,-4.1979086E-2,-1.7914401E-2,-3.6062423E-2,-1.8988462E-2,-2.6647067E-2,-3.081298E-2,-2.039058E-2,-0E0,-1.750584E-2,-2.2961931E-2,-9.968183E-3,-1.5347444E-2,-5.1915683E-3,2.781878E-2,-3.926453E-3,3.9462103E-3,-7.7580106E-3,1.878795E-2,7.6517602E-3,6.5018533E-4,2.9324573E-3,1.0329134E-2,-5.7153245E-3,6.649105E-3,1.5288026E-2,9.242028E-3,1.1877946E-3,1.479292E-2,2.1172922E-2,1.6808797E-2,2.4474163E-2,1.9262306E-2,2.8770318E-2,3.367136E-2,2.6034927E-2,-1.2118058E-2,3.8562067E-2,4.421098E-2,3.307431E-2,5.1415138E-2],"categories":[],"categories_nodes":[],"categories_segments":[],"categories_sizes":[],"default_left":[0,0,0,0,0,0,0,0,0,0,0,0,0,0,0,0,0,0,0,0,0,0,0,0,0,0,0,0,0,0,0,0,0,0,0,0,0,0,0,0,0,0,0,0,0,0,0,0,0,0,0,0,0,0,0,0,0,0,0,0,0,0,0,0,0,0,0,0,0,0,0,0,0,0,0,0,0,0,0,0,0,0,0,0,0,0,0,0,0,0,0,0,0,0,0,0,0,0,0,0,0,0,0,0,0,0,0,0,0,0,0],"id":4,"left_children":[1,3,5,7,9,11,13,15,17,19,21,23,25,27,29,31,33,35,37,39,41,43,45,47,49,51,53,55,57,59,61,63,-1,-1,65,67,69,71,73,75,77,79,-1,81,83,85,87,89,91,93,95,97,99,101,-1,-1,103,105,107,-1,109,-1,-1,-1,-1,-1,-1,-1,-1,-1,-1,-1,-1,-1,-1,-1,-1,-1,-1,-1,-1,-1,-1,-1,-1,-1,-1,-1,-1,-1,-1,-1,-1,-1,-1,-1,-1,-1,-1,-1,-1,-1,-1,-1,-1,-1,-1,-1,-1,-1,-1],"loss_changes":[1.3850977E4,1.9232588E3,1.8306812E3,5.35062E2,3.8110327E2,2.7562012E2,3.5847705E2,1.3719604E2,1.2910986E2,4.291284E1,4.8901672E1,3.0657082E1,2.7724365E1,5.693335E1,3.6320312E1,2.8424927E1,1.1076172E1,1.654004E1,1.0315674E1,8.598877E0,1.0549011E1,8.21814E0,9.318192E0,5.242465E0,1.3262482E1,7.139496E0,1.21073E1,1.581311E1,1.545874E1,2.2627197E1,8.038208E0,4.0705566E0,0E0,0E0,8.864136E-1,1.1456177E1,4.8791504E0,2.5575562E0,6.688965E0,4.5230713E0,4.253751E0,7.761902E0,0E0,7.2879944E0,6.6522884E0,5.5453005E0,5.0562744E0,3.3175747E0,1.8994131E0,3.5743408E0,6.6140366E0,4.869034E0,2.7146912E0,7.534851E0,0E0,0E0,1.0031372E1,8.13189E0,5.298462E0,0E0,1.1067627E1,0E0,0E0,0E0,0E0,0E0,0E0,0E0,0E0,0E0,0E0,0E0,0E0,0E0,0E0,0E0,0E0,0E0,0E0,0E0,0E0,0E0,0E0,0E0,0E0,0E0,0E0,0E0,0E0,0E0,0E0,0E0,0E0,0E0,0E0,0E0,0E0,0E0,0E0,0E0,0E0,0E0,0E0,0E0,0E0,0E0,0E0,0E0,0E0,0E0,0E0],"parents":[2147483647,0,0,1,1,2,2,3,3,4,4,5,5,6,6,7,7,8,8,9,9,10,10,11,11,12,12,13,13,14,14,15,15,16,16,17,17,18,18,19,19,20,20,21,21,22,22,23,23,24,24,25,25,26,26,27,27,28,28,29,29,30,30,31,31,34,34,35,35,36,36,37,37,38,38,39,39,40,40,41,41,43,43,44,44,45,45,46,46,47,47,48,48,49,49,50,50,51,51,52,52,53,53,56,56,57,57,58,58,60,60],"right_children":[2,4,6,8,10,12,14,16,18,20,22,24,26,28,30,32,34,36,38,40,42,44,46,48,50,52,54,56,58,60,62,64,-1,-1,66,68,70,72,74,76,78,80,-1,82,84,86,88,90,92,94,96,98,100,102,-1,-1,104,106,108,-1,110,-1,-1,-1,-1,-1,-1,-1,-1,-1,-1,-1,-1,-1,-1,-1,-1,-1,-1,-1,-1,-1,-1,-1,-1,-1,-1,-1,-1,-1,-1,-1,-1,-1,-1,-1,-1,-1,-1,-1,-1,-1,-1,-1,-1,-1,-1,-1,-1,-1,-1],"split_conditions":[7.4145727E0,6.200509E0,8.502282E0,4.890349E0,6.7912216E0,7.9738445E0,9.257701E0,3.6888795E0,5.7589016E0,6.499787E0,7.0925736E0,7.6381984E0,8.226574E0,8.912474E0,9.391859E0,2.944439E0,4.2028546E0,5.273E0,5.9322453E0,7.069154E0,7.681446E0,7.6450114E0,-1.8369701E-16,7.881182E0,7.759187E0,8.03236E0,1.1019701E0,5.31812E0,6.20658E0,1.172E1,9.739968E0,6.0550714E0,-9.07438E-2,-8.828639E-2,3.171E1,6.3261495E0,6.600973E0,7.3611445E0,6.805751E0,-1.8369701E-16,2.74E1,-5E-1,1.2599352E-2,-5E-1,8.451481E0,7.5873103E0,1.0019937E1,-8.660254E-1,7.3611445E0,6.833098E0,-1.8369701E-16,6.51033E0,6.123234E-17,8.660254E-1,-1.6009184E-2,-1.38162505E-2,8.564513E0,2.688E1,8.925027E0,-2.4731904E-3,6.800302E0,5.587677E-2,6.701355E-2,-8.388184E-2,-1.5211682E-1,-6.557812E-2,-9.783207E-2,-5.944476E-2,-9.038447E-3,-4.9271338E-2,-2.5532603E-2,-4.1979086E-2,-1.7914401E-2,-3.6062423E-2,-1.8988462E-2,-2.6647067E-2,-3.081298E-2,-2.039058E-2,-0E0,-1.750584E-2,-2.2961931E-2,-9.968183E-3,-1.5347444E-2,-5.1915683E-3,2.781878E-2,-3.926453E-3,3.9462103E-3,-7.7580106E-3,1.878795E-2,7.6517602E-3,6.5018533E-4,2.9324573E-3,1.0329134E-2,-5.7153245E-3,6.649105E-3,1.5288026E-2,9.242028E-3,1.1877946E-3,1.479292E-2,2.1172922E-2,1.6808797E-2,2.4474163E-2,1.9262306E-2,2.8770318E-2,3.367136E-2,2.6034927E-2,-1.2118058E-2,3.8562067E-2,4.421098E-2,3.307431E-2,5.1415138E-2],"split_indices":[0,0,0,0,0,0,0,2,0,0,0,0,0,0,15,3,5,0,0,5,15,6,9,3,3,3,7,3,15,20,0,16,0,0,22,2,5,16,5,9,22,9,0,9,3,3,2,9,16,5,9,16,9,9,0,0,15,18,15,0,15,0,0,0,0,0,0,0,0,0,0,0,0,0,0,0,0,0,0,0,0,0,0,0,0,0,0,0,0,0,0,0,0,0,0,0,0,0,0,0,0,0,0,0,0,0,0,0,0,0,0],"split_type":[0,0,0,0,0,0,0,0,0,0,0,0,0,0,0,0,0,0,0,0,0,0,0,0,0,0,0,0,0,0,0,0,0,0,0,0,0,0,0,0,0,0,0,0,0,0,0,0,0,0,0,0,0,0,0,0,0,0,0,0,0,0,0,0,0,0,0,0,0,0,0,0,0,0,0,0,0,0,0,0,0,0,0,0,0,0,0,0,0,0,0,0,0,0,0,0,0,0,0,0,0,0,0,0,0,0,0,0,0,0,0],"sum_hessian":[1.7776E4,8.486E3,9.29E3,2.818E3,5.668E3,5.224E3,4.066E3,3.06E2,2.512E3,2.932E3,2.736E3,2.493E3,2.731E3,2.883E3,1.183E3,7.2E1,2.34E2,1.029E3,1.483E3,1.465E3,1.467E3,1.357E3,1.379E3,9.79E2,1.514E3,1.262E3,1.469E3,1.833E3,1.05E3,7.46E2,4.37E2,4.1E1,3.1E1,5.8E1,1.76E2,2.82E2,7.47E2,4.82E2,1.001E3,1.414E3,5.1E1,1.46E3,7E0,1.318E3,3.9E1,5.27E2,8.52E2,8.39E2,1.4E2,8.2E2,6.94E2,5.9E2,6.72E2,1.463E3,6E0,6E0,1.827E3,1.8E1,1.032E3,7E0,7.39E2,2.22E2,2.15E2,8E0,3.3E1,1.69E2,7E0,2.77E2,5E0,7.33E2,1.4E1,4.74E2,8E0,9.73E2,2.8E1,5.18E2,8.96E2,3.9E1,1.2E1,3.5E2,1.11E3,3.19E2,9.99E2,3.4E1,5E0,4.3E2,9.7E1,8.47E2,5E0,6.5E1,7.74E2,5.6E1,8.4E1,2E1,8E2,3.14E2,3.8E2,2.6E1,5.64E2,3.2E2,3.52E2,1.068E3,3.95E2,8.27E2,1E3,1.1E1,7E0,6.45E2,3.87E2,4.4E1,6.95E2],"tree_param":{"num_deleted":"0","num_feature":"23","num_nodes":"111","size_leaf_vector":"1"}},{"base_weights":[4.038107E-3,-9.091712E-1,7.965104E-1,-1.5399197E0,-5.8931404E-1,4.094973E-1,1.2950464E0,-2.43111E0,-1.3700855E0,-8.4015226E-1,-3.5664904E-1,1.494639E-1,6.184079E-1,1.0791541E0,1.6665945E0,-3.3431978E0,-2.0591106E0,-1.6135775E0,-1.2143855E0,-9.6037906E-1,-7.3953044E-1,-4.8483297E-1,-2.244113E-1,8.8495426E-2,3.2030526E-1,4.7714746E-1,7.100471E-1,9.436151E-1,1.1876668E0,1.5431215E0,1.9977462E0,-3.685637E0,-2.5581193E0,-2.093151E0,1.1271959E-3,-1.6254593E0,-6.1940327E-3,-1.298685E0,-1.1188076E0,-9.6661973E-1,1.1434733E-2,-6.0078627E-1,-7.7776176E-1,-3.3290672E-1,-5.3202516E-1,-9.173946E-2,-2.6888055E-1,-3.6042673E-3,1.5475293E-1,2.6196197E-1,4.9659526E-1,3.6441898E-1,5.494222E-1,5.9644675E-1,7.655901E-1,9.8867804E-1,8.2065576E-1,3.6707816E-1,1.2107419E0,1.2849983E0,1.6360515E0,1.8292977E0,6.622468E-2,-1.2870796E-1,-9.3722194E-2,-8.8261575E-2,-3.265937E-2,-6.399982E-2,-4.1568734E-2,-5.2514922E-2,-4.518577E-2,-3.927488E-2,-1.50838345E-2,-3.0415582E-2,-3.50648E-2,-3.0338405E-2,-2.457397E-2,-1.876273E-2,-3.2325306E-3,-1.3275576E-3,-2.3462614E-2,-1.0475015E-2,1.3552125E-2,-1.6304621E-2,2.2349777E-3,-4.3695318E-3,3.5267065E-3,-9.507471E-3,-5.44919E-3,-5.943055E-4,1.5244114E-2,7.6034633E-3,3.1551875E-3,4.679855E-3,9.135198E-3,1.3521692E-2,2.8428502E-2,2.1829813E-4,1.1838726E-2,1.5355941E-2,2.1099584E-2,7.441712E-3,1.8665986E-2,2.1248147E-2,2.5841914E-2,1.5550951E-2,2.9961187E-2,1.7611356E-2,2.6460536E-2,1.4709079E-4,2.3508765E-2,3.4033716E-2,3.8757756E-2,4.0117916E-2,1.5887182E-2,4.6307407E-2,5.2648388E-2,5.6188144E-2,1.797668E-2],"categories":[],"categories_nodes":[],"categories_segments":[],"categories_sizes":[],"default_left":[0,0,0,0,0,0,0,0,0,0,0,0,0,0,0,0,0,0,0,0,0,0,0,0,0,0,0,0,0,0,0,0,0,0,0,0,0,0,0,0,0,0,0,0,0,0,0,0,0,0,0,0,0,0,0,0,0,0,0,0,0,0,0,0,0,0,0,0,0,0,0,0,0,0,0,0,0,0,0,0,0,0,0,0,0,0,0,0,0,0,0,0,0,0,0,0,0,0,0,0,0,0,0,0,0,0,0,0,0,0,0,0,0,0,0,0,0,0,0],"id":5,"left_children":[1,3,5,7,9,11,13,15,17,19,21,23,25,27,29,31,33,35,37,39,41,43,45,47,49,51,53,55,57,59,61,63,65,67,-1,69,-1,71,73,75,-1,77,79,81,83,85,87,89,91,93,95,97,99,101,103,105,107,109,111,113,115,117,-1,-1,-1,-1,-1,-1,-1,-1,-1,-1,-1,-1,-1,-1,-1,-1,-1,-1,-1,-1,-1,-1,-1,-1,-1,-1,-1,-1,-1,-1,-1,-1,-1,-1,-1,-1,-1,-1,-1,-1,-1,-1,-1,-1,-1,-1,-1,-1,-1,-1,-1,-1,-1,-1,-1,-1,-1],"loss_changes":[1.2951189E4,1.6756582E3,1.8475186E3,4.1750732E2,3.214364E2,2.9286572E2,3.325708E2,1.3975E2,8.568213E1,3.0707275E1,4.828427E1,2.4941673E1,3.797937E1,3.6904785E1,5.745117E1,1.861731E1,2.340393E1,1.4386475E1,8.951416E0,1.0745483E1,6.7279663E0,9.982574E0,8.236168E0,1.0871794E1,6.148346E0,9.151215E0,1.046637E1,5.0008545E0,2.6786377E1,2.326001E1,7.6741943E0,7.1033936E0,1.8931427E1,3.8305664E0,0E0,8.882568E0,0E0,4.9503174E0,1.3952026E0,6.2857666E0,0E0,3.657692E0,3.3759155E0,4.675247E0,7.8400574E0,4.076437E0,4.245529E0,6.083457E0,4.9504547E0,1.9938774E0,2.2761688E0,4.9585E0,3.3583221E0,5.0000763E0,5.412903E0,2.9784546E0,3.638504E0,6.2482133E0,6.144287E0,1.0626343E1,4.308838E0,1.057135E1,0E0,0E0,0E0,0E0,0E0,0E0,0E0,0E0,0E0,0E0,0E0,0E0,0E0,0E0,0E0,0E0,0E0,0E0,0E0,0E0,0E0,0E0,0E0,0E0,0E0,0E0,0E0,0E0,0E0,0E0,0E0,0E0,0E0,0E0,0E0,0E0,0E0,0E0,0E0,0E0,0E0,0E0,0E0,0E0,0E0,0E0,0E0,0E0,0E0,0E0,0E0,0E0,0E0,0E0,0E0,0E0,0E0],"parents":[2147483647,0,0,1,1,2,2,3,3,4,4,5,5,6,6,7,7,8,8,9,9,10,10,11,11,12,12,13,13,14,14,15,15,16,16,17,17,18,18,19,19,20,20,21,21,22,22,23,23,24,24,25,25,26,26,27,27,28,28,29,29,30,30,31,31,32,32,33,33,35,35,37,37,38,38,39,39,41,41,42,42,43,43,44,44,45,45,46,46,47,47,48,48,49,49,50,50,51,51,52,52,53,53,54,54,55,55,56,56,57,57,58,58,59,59,60,60,61,61],"right_children":[2,4,6,8,10,12,14,16,18,20,22,24,26,28,30,32,34,36,38,40,42,44,46,48,50,52,54,56,58,60,62,64,66,68,-1,70,-1,72,74,76,-1,78,80,82,84,86,88,90,92,94,96,98,100,102,104,106,108,110,112,114,116,118,-1,-1,-1,-1,-1,-1,-1,-1,-1,-1,-1,-1,-1,-1,-1,-1,-1,-1,-1,-1,-1,-1,-1,-1,-1,-1,-1,-1,-1,-1,-1,-1,-1,-1,-1,-1,-1,-1,-1,-1,-1,-1,-1,-1,-1,-1,-1,-1,-1,-1,-1,-1,-1,-1,-1,-1,-1],"split_conditions":[7.3689704E0,6.200509E0,8.487352E0,5.1119876E0,6.7322106E0,7.8976684E0,9.117786E0,4.2028546E0,5.7589016E0,6.4457197E0,7.0535855E0,7.858092E0,8.146709E0,8.730852E0,9.625142E0,4.23E0,6.8823466E0,6.7753663E0,6.016157E0,7.486014E0,-5E-1,-5E-1,-5E-1,7.5616417E0,2.72E0,7.974764E0,8.158414E0,8.660254E-1,6.936657E0,8.860468E0,9.887713E0,2.944439E0,5.179964E0,6.0402546E0,1.1271959E-3,5.6777763E0,-6.1940327E-3,6.6770678E0,-1.8369701E-16,6.5806394E0,1.1434733E-2,7.213522E0,4.1108737E0,7.6302676E0,7.7816E0,7.5873103E0,7.2548847E0,1.108E1,-1.8369701E-16,7.669962E0,5.287782E-1,6.7652893E0,4.23E0,7.2584124E0,1.93E0,7.1899223E0,8.293851E0,6.665199E0,8.912474E0,9.736724E0,9.420844E0,1.354607E1,6.622468E-2,-1.2870796E-1,-9.3722194E-2,-8.8261575E-2,-3.265937E-2,-6.399982E-2,-4.1568734E-2,-5.2514922E-2,-4.518577E-2,-3.927488E-2,-1.50838345E-2,-3.0415582E-2,-3.50648E-2,-3.0338405E-2,-2.457397E-2,-1.876273E-2,-3.2325306E-3,-1.3275576E-3,-2.3462614E-2,-1.0475015E-2,1.3552125E-2,-1.6304621E-2,2.2349777E-3,-4.3695318E-3,3.5267065E-3,-9.507471E-3,-5.44919E-3,-5.943055E-4,1.5244114E-2,7.6034633E-3,3.1551875E-3,4.679855E-3,9.135198E-3,1.3521692E-2,2.8428502E-2,2.1829813E-4,1.1838726E-2,1.5355941E-2,2.1099584E-2,7.441712E-3,1.8665986E-2,2.1248147E-2,2.5841914E-2,1.5550951E-2,2.9961187E-2,1.7611356E-2,2.6460536E-2,1.4709079E-4,2.3508765E-2,3.4033716E-2,3.8757756E-2,4.0117916E-2,1.5887182E-2,4.6307407E-2,5.2648388E-2,5.6188144E-2,1.797668E-2],"split_indices":[0,0,0,0,0,0,0,5,0,0,0,15,0,0,4,17,15,1,0,4,9,9,9,0,17,15,15,9,15,15,0,3,15,3,0,15,0,4,9,3,0,6,3,6,6,3,0,17,9,0,7,15,17,2,17,3,15,16,0,1,0,14,0,0,0,0,0,0,0,0,0,0,0,0,0,0,0,0,0,0,0,0,0,0,0,0,0,0,0,0,0,0,0,0,0,0,0,0,0,0,0,0,0,0,0,0,0,0,0,0,0,0,0,0,0,0,0,0,0],"split_type":[0,0,0,0,0,0,0,0,0,0,0,0,0,0,0,0,0,0,0,0,0,0,0,0,0,0,0,0,0,0,0,0,0,0,0,0,0,0,0,0,0,0,0,0,0,0,0,0,0,0,0,0,0,0,0,0,0,0,0,0,0,0,0,0,0,0,0,0,0,0,0,0,0,0,0,0,0,0,0,0,0,0,0,0,0,0,0,0,0,0,0,0,0,0,0,0,0,0,0,0,0,0,0,0,0,0,0,0,0,0,0,0,0,0,0,0,0,0,0],"sum_hessian":[1.7893E4,8.313E3,9.58E3,2.795E3,5.518E3,5.395E3,4.185E3,4.44E2,2.351E3,2.653E3,2.865E3,2.405E3,2.99E3,2.651E3,1.534E3,1.25E2,3.19E2,9.11E2,1.44E3,1.202E3,1.451E3,1.452E3,1.413E3,1.775E3,6.3E2,1.181E3,1.809E3,1.186E3,1.465E3,1.124E3,4.1E2,8.3E1,4.2E1,3.14E2,5E0,9.03E2,8E0,7.54E2,6.86E2,1.197E3,5E0,3.2E2,1.131E3,3.48E2,1.104E3,3.57E2,1.056E3,7.42E2,1.033E3,4.77E2,1.53E2,4.66E2,7.15E2,6.01E2,1.208E3,8.59E2,3.27E2,4.1E1,1.424E3,3.04E2,8.2E2,2.36E2,1.74E2,3.5E1,4.8E1,3.2E1,1E1,2.94E2,2E1,4.3E2,4.73E2,7.43E2,1.1E1,2.33E2,4.53E2,9.11E2,2.86E2,3.04E2,1.6E1,7E0,1.124E3,3.42E2,6E0,1.084E3,2E1,2.85E2,7.2E1,6.77E2,3.79E2,7.21E2,2.1E1,3.42E2,6.91E2,1.4E2,3.37E2,1.42E2,1.1E1,3.7E1,4.29E2,5.81E2,1.34E2,4.3E1,5.58E2,7.65E2,4.43E2,2E1,8.39E2,7.2E1,2.55E2,2.3E1,1.8E1,7.47E2,6.77E2,2.83E2,2.1E1,4.74E2,3.46E2,2.27E2,9E0],"tree_param":{"num_deleted":"0","num_feature":"23","num_nodes":"119","size_leaf_vector":"1"}},{"base_weights":[1.3058285E-3,-8.635138E-1,7.5075805E-1,-1.469529E0,-5.663015E-1,3.7270644E-1,1.2190506E0,-3.1383464E0,-1.3640585E0,-7.6464283E-1,-2.9431808E-1,1.280404E-1,5.920882E-1,1.0214341E0,1.6509392E0,-1.5440221E-1,-2.8103776E0,-1.688035E0,-1.1910442E0,-6.080361E-1,-8.966275E-1,-1.0986953E-1,-4.346276E-1,1.9533284E-2,2.5456613E-1,7.538701E-1,4.9382725E-1,1.2600405E0,9.460993E-1,1.5067536E0,1.8414682E0,-3.0741513E0,-2.0652015E0,-1.7193017E0,-6.897471E-1,-1.2131422E0,-4.4435143E-1,-7.283421E-1,-4.5037714E-1,-9.0697664E-1,2.4687661E-1,-1.4983909E-1,5.6474537E-1,-4.4787875E-1,1.1170338E0,8.726386E-2,-2.2503816E-1,1.3432601E-1,4.1861516E-1,5.2232283E-1,8.2644E-1,2.683098E-1,5.628792E-1,1.2697669E0,2.693456E-3,8.165841E-1,1.0682638E0,1.379445E0,1.5840913E0,1.4532775E0,1.8787019E0,-9.5291056E-2,-4.151198E-2,-7.68684E-2,-4.0762775E-2,-5.2945033E-2,-3.5176974E-2,-0E0,-2.4729816E-2,-4.0132742E-2,-3.3657443E-2,-8.307772E-6,-5.7987478E-2,-2.3402216E-2,-1.5674261E-2,-1.6636696E-2,-8.610907E-3,-3.1128848E-2,-2.434697E-2,-7.4687977E-3,2.3430293E-2,-6.392698E-3,6.7103854E-3,-1.4567083E-2,3.0078206E-2,1.5959969E-2,-1.3914403E-2,4.6481684E-2,1.1883955E-2,1.3186986E-3,1.1054532E-2,-3.7240176E-3,-2.7499206E-2,-2.9805605E-4,6.7577437E-3,9.976137E-3,1.685337E-2,-1.1129079E-2,1.7212627E-2,2.6899463E-2,2.149235E-2,-3.0862528E-3,9.1869645E-3,1.4733394E-2,1.970235E-2,3.4483176E-2,4.239193E-2,2.2395123E-2,2.7126824E-2,2.929855E-2,3.528629E-2,3.7024535E-2,4.377734E-2,2.2202676E-2,4.771272E-2,4.8696913E-2,-5.9362897E-3,5.4256976E-2,6.316778E-2],"categories":[],"categories_nodes":[],"categories_segments":[],"categories_sizes":[],"default_left":[0,0,0,0,0,0,0,0,0,0,0,0,0,0,0,0,0,0,0,0,0,0,0,0,0,0,0,0,0,0,0,0,0,0,0,0,0,0,0,0,0,0,0,0,0,0,0,0,0,0,0,0,0,0,0,0,0,0,0,0,0,0,0,0,0,0,0,0,0,0,0,0,0,0,0,0,0,0,0,0,0,0,0,0,0,0,0,0,0,0,0,0,0,0,0,0,0,0,0,0,0,0,0,0,0,0,0,0,0,0,0,0,0,0,0,0,0,0,0],"id":6,"left_children":[1,3,5,7,9,11,13,15,17,19,21,23,25,27,29,-1,31,33,35,37,39,41,43,45,47,49,51,53,55,57,59,61,63,65,67,69,71,73,75,77,79,81,83,85,87,89,91,93,95,97,99,101,103,105,-1,107,109,111,113,115,117,-1,-1,-1,-1,-1,-1,-1,-1,-1,-1,-1,-1,-1,-1,-1,-1,-1,-1,-1,-1,-1,-1,-1,-1,-1,-1,-1,-1,-1,-1,-1,-1,-1,-1,-1,-1,-1,-1,-1,-1,-1,-1,-1,-1,-1,-1,-1,-1,-1,-1,-1,-1,-1,-1,-1,-1,-1,-1],"loss_changes":[1.1479203E4,1.4793418E3,1.678832E3,4.687002E2,2.9720312E2,2.816717E2,3.585996E2,8.177344E1,1.39146E2,6.482788E1,6.0132523E1,3.4061005E1,4.3202454E1,5.01062E1,3.1636963E1,0E0,1.7065308E1,2.5285156E1,2.6341553E1,2.7049866E1,2.0911621E1,2.7264164E1,2.7809006E1,2.2207237E1,2.2420097E1,1.660022E1,2.6508606E1,7.4506836E0,3.3431885E1,3.6564941E0,3.397461E0,9.860535E0,8.566528E0,1.7580566E1,2.613471E0,1.5633789E1,3.2994755E1,7.9408875E0,1.0458511E1,1.9714355E1,4.767976E0,2.2619791E1,2.6817585E1,2.0849884E1,2.274642E0,1.2699315E1,1.9893875E1,8.763318E0,5.499153E0,1.2006447E1,4.8204346E0,5.8380566E0,8.182037E0,8.905518E0,0E0,5.3182983E0,9.089478E0,2.5561523E-1,2.5109863E-1,1.6621819E1,1.612793E0,0E0,0E0,0E0,0E0,0E0,0E0,0E0,0E0,0E0,0E0,0E0,0E0,0E0,0E0,0E0,0E0,0E0,0E0,0E0,0E0,0E0,0E0,0E0,0E0,0E0,0E0,0E0,0E0,0E0,0E0,0E0,0E0,0E0,0E0,0E0,0E0,0E0,0E0,0E0,0E0,0E0,0E0,0E0,0E0,0E0,0E0,0E0,0E0,0E0,0E0,0E0,0E0,0E0,0E0,0E0,0E0,0E0,0E0],"parents":[2147483647,0,0,1,1,2,2,3,3,4,4,5,5,6,6,7,7,8,8,9,9,10,10,11,11,12,12,13,13,14,14,16,16,17,17,18,18,19,19,20,20,21,21,22,22,23,23,24,24,25,25,26,26,27,27,28,28,29,29,30,30,31,31,32,32,33,33,34,34,35,35,36,36,37,37,38,38,39,39,40,40,41,41,42,42,43,43,44,44,45,45,46,46,47,47,48,48,49,49,50,50,51,51,52,52,53,53,55,55,56,56,57,57,58,58,59,59,60,60],"right_children":[2,4,6,8,10,12,14,16,18,20,22,24,26,28,30,-1,32,34,36,38,40,42,44,46,48,50,52,54,56,58,60,62,64,66,68,70,72,74,76,78,80,82,84,86,88,90,92,94,96,98,100,102,104,106,-1,108,110,112,114,116,118,-1,-1,-1,-1,-1,-1,-1,-1,-1,-1,-1,-1,-1,-1,-1,-1,-1,-1,-1,-1,-1,-1,-1,-1,-1,-1,-1,-1,-1,-1,-1,-1,-1,-1,-1,-1,-1,-1,-1,-1,-1,-1,-1,-1,-1,-1,-1,-1,-1,-1,-1,-1,-1,-1,-1,-1,-1,-1],"split_conditions":[7.3735037E0,6.1904073E0,8.417857E0,4.2028546E0,6.833098E0,7.8876114E0,9.128018E0,7.6248837E-3,5.6416755E0,6.123234E-17,6.123234E-17,7.6145325E0,-2.4492937E-16,-5E-1,9.422927E0,-1.5440221E-1,4.68E0,6.375025E0,6.4761513E-1,6.55128E0,1.1019701E0,7.289118E-1,2.3563334E1,3.4E1,1.92E0,8.046357E0,8.066046E0,9.195255E0,8.734912E0,4E0,8.165824E0,4.7791233E0,5.835986E0,7.289118E-1,2.522E1,5.9238076E0,6.001415E0,2.8943744E-1,1.986563E-1,6.4704456E0,1.5E-1,7.6764736E0,6.160141E0,6.1485543E0,1.348E1,7.836339E0,4.9708122E-1,7.772013E0,2.3275219E-1,6.160141E0,-5E-1,7.704276E0,8.342597E0,8.735669E0,2.693456E-3,4.868E1,8.838675E0,9.296397E0,7.4048877E0,3.075E1,9.891863E0,-9.5291056E-2,-4.151198E-2,-7.68684E-2,-4.0762775E-2,-5.2945033E-2,-3.5176974E-2,-0E0,-2.4729816E-2,-4.0132742E-2,-3.3657443E-2,-8.307772E-6,-5.7987478E-2,-2.3402216E-2,-1.5674261E-2,-1.6636696E-2,-8.610907E-3,-3.1128848E-2,-2.434697E-2,-7.4687977E-3,2.3430293E-2,-6.392698E-3,6.7103854E-3,-1.4567083E-2,3.0078206E-2,1.5959969E-2,-1.3914403E-2,4.6481684E-2,1.1883955E-2,1.3186986E-3,1.1054532E-2,-3.7240176E-3,-2.7499206E-2,-2.9805605E-4,6.7577437E-3,9.976137E-3,1.685337E-2,-1.1129079E-2,1.7212627E-2,2.6899463E-2,2.149235E-2,-3.0862528E-3,9.1869645E-3,1.4733394E-2,1.970235E-2,3.4483176E-2,4.239193E-2,2.2395123E-2,2.7126824E-2,2.929855E-2,3.528629E-2,3.7024535E-2,4.377734E-2,2.2202676E-2,4.771272E-2,4.8696913E-2,-5.9362897E-3,5.4256976E-2,6.316778E-2],"split_indices":[5,5,6,5,5,6,5,7,5,9,9,6,8,8,6,0,21,3,7,5,7,7,20,13,21,6,5,6,5,12,16,2,16,7,22,5,2,7,7,5,21,3,16,6,19,5,7,5,7,16,8,5,5,6,0,19,6,5,3,18,5,0,0,0,0,0,0,0,0,0,0,0,0,0,0,0,0,0,0,0,0,0,0,0,0,0,0,0,0,0,0,0,0,0,0,0,0,0,0,0,0,0,0,0,0,0,0,0,0,0,0,0,0,0,0,0,0,0,0],"split_type":[0,0,0,0,0,0,0,0,0,0,0,0,0,0,0,0,0,0,0,0,0,0,0,0,0,0,0,0,0,0,0,0,0,0,0,0,0,0,0,0,0,0,0,0,0,0,0,0,0,0,0,0,0,0,0,0,0,0,0,0,0,0,0,0,0,0,0,0,0,0,0,0,0,0,0,0,0,0,0,0,0,0,0,0,0,0,0,0,0,0,0,0,0,0,0,0,0,0,0,0,0,0,0,0,0,0,0,0,0,0,0,0,0,0,0,0,0,0,0],"sum_hessian":[1.7708E4,8.221E3,9.487E3,2.703E3,5.518E3,5.251E3,4.236E3,1.58E2,2.545E3,3.189E3,2.329E3,2.484E3,2.767E3,2.91E3,1.326E3,1.9E1,1.39E2,8.81E2,1.664E3,1.463E3,1.726E3,1.008E3,1.321E3,1.339E3,1.145E3,1.041E3,1.726E3,6.92E2,2.218E3,7.63E2,5.63E2,9.9E1,4E1,8.53E2,2.8E1,1.615E3,4.9E1,8.26E2,6.37E2,1.711E3,1.5E1,9.53E2,5.5E1,1.311E3,1E1,1.05E3,2.89E2,6.63E2,4.82E2,2.52E2,7.89E2,4.07E2,1.319E3,6.86E2,6E0,1.083E3,1.135E3,3E2,4.63E2,5.5E1,5.08E2,9.2E1,7E0,2.1E1,1.9E1,7.84E2,6.9E1,5E0,2.3E1,6.73E2,9.42E2,3.9E1,1E1,6.56E2,1.7E2,3.86E2,2.51E2,7.15E2,9.96E2,8E0,7E0,8.16E2,1.37E2,1.6E1,3.9E1,2E1,1.291E3,5E0,5E0,9.12E2,1.38E2,2.54E2,3.5E1,2.56E2,4.07E2,3.05E2,1.77E2,1.3E1,2.39E2,4.74E2,3.15E2,3.7E1,3.7E2,7.54E2,5.65E2,3.81E2,3.05E2,6.11E2,4.72E2,6.23E2,5.12E2,1.16E2,1.84E2,5E0,4.58E2,5E1,5E0,3.99E2,1.09E2],"tree_param":{"num_deleted":"0","num_feature":"23","num_nodes":"119","size_leaf_vector":"1"}},{"base_weights":[1.8134011E-3,-8.62245E-1,7.503406E-1,-1.5582683E0,-5.9282035E-1,3.897251E-1,1.2264096E0,-2.5990608E0,-1.3921084E0,-8.405055E-1,-3.4476987E-1,1.289427E-1,5.7069784E-1,1.0410373E0,1.6190658E0,-3.7945952E0,-2.2277937E0,-1.572561E0,-1.1941708E0,-9.864765E-1,-7.446318E-1,-4.6808264E-1,-2.0529538E-1,2.3696236E-2,2.0025179E-1,4.3040854E-1,6.636389E-1,9.483277E-1,1.213076E0,1.4412204E0,1.808538E0,-1.5301684E-1,-9.759339E-2,-2.27666E0,-6.0486095E-3,-5.511155E-2,-1.4878391E0,-1.2092049E0,-5.4006785E-1,-9.9333864E-1,-1.4435448E-1,-6.502842E-1,-7.957622E-1,-4.7522435E-1,2.8608552E-1,-7.77193E-2,-2.483919E-1,6.912252E-3,4.966558E-1,2.89805E-1,1.4389537E-1,3.486738E-1,5.0969744E-1,1.1661662E-1,6.718102E-1,-6.3383725E-4,9.532585E-1,8.001905E-2,1.2292749E0,5.4581517E-1,1.4610679E0,1.091223E0,1.8388251E0,-8.0675334E-2,-6.2828496E-2,-4.4999834E-2,-1.5971053E-2,-3.1523455E-2,-3.7475053E-2,7.6680556E-3,-2.4889747E-2,-2.7242187E-2,-3.1114317E-2,-1.0982806E-2,2.3978378E-3,-1.9998956E-2,9.573347E-3,-2.7412532E-2,-2.2335723E-2,-1.1699106E-2,-1.5828675E-2,-6.120078E-3,2.6289402E-2,-6.6901445E-3,-6.183969E-5,-9.20952E-3,-5.403351E-3,-1.5115102E-3,2.4877137E-3,3.6477648E-2,7.137047E-3,6.1135157E-3,1.0813924E-2,2.2388087E-3,5.8493265E-3,2.1900681E-3,1.1148251E-2,1.4785699E-2,2.6047928E-2,1.8971525E-2,-5.1447963E-3,1.8006966E-2,2.2263447E-2,2.6747797E-2,3.1094458E-2,1.408477E-2,-1.2079528E-2,3.8319957E-2,3.291135E-2,3.636751E-2,3.5331317E-3,4.124791E-2,4.6094447E-2,1.1370878E-2,5.324916E-2,5.2304845E-2,6.5056875E-2],"categories":[],"categories_nodes":[],"categories_segments":[],"categories_sizes":[],"default_left":[0,0,0,0,0,0,0,0,0,0,0,0,0,0,0,0,0,0,0,0,0,0,0,0,0,0,0,0,0,0,0,0,0,0,0,0,0,0,0,0,0,0,0,0,0,0,0,0,0,0,0,0,0,0,0,0,0,0,0,0,0,0,0,0,0,0,0,0,0,0,0,0,0,0,0,0,0,0,0,0,0,0,0,0,0,0,0,0,0,0,0,0,0,0,0,0,0,0,0,0,0,0,0,0,0,0,0,0,0,0,0,0,0,0,0,0,0],"id":7,"left_children":[1,3,5,7,9,11,13,15,17,19,21,23,25,27,29,31,33,35,37,39,41,43,45,47,49,51,53,55,57,59,61,-1,-1,63,-1,-1,65,67,69,71,73,75,77,79,81,83,85,87,89,91,93,95,97,99,101,-1,103,105,107,109,111,113,115,-1,-1,-1,-1,-1,-1,-1,-1,-1,-1,-1,-1,-1,-1,-1,-1,-1,-1,-1,-1,-1,-1,-1,-1,-1,-1,-1,-1,-1,-1,-1,-1,-1,-1,-1,-1,-1,-1,-1,-1,-1,-1,-1,-1,-1,-1,-1,-1,-1,-1,-1,-1,-1,-1],"loss_changes":[1.1517032E4,1.5481792E3,1.6370239E3,3.924834E2,3.6559326E2,2.5608673E2,2.9620605E2,1.2615405E2,6.7762695E1,4.0277344E1,5.1E1,1.6665546E1,4.114807E1,4.2460938E1,3.976831E1,2.4709106E1,2.302417E1,1.8461426E1,8.076538E0,6.356079E0,7.64917E0,8.754364E0,7.6168823E0,7.0583134E0,6.545414E0,7.873184E0,8.327148E0,8.942749E0,1.7458496E1,1.0602661E1,1.0102051E1,0E0,0E0,8.538574E0,0E0,0E0,7.6115723E0,3.4812012E0,6.0781517E0,2.5551758E0,6.7304474E-1,1.0602264E1,5.681885E0,6.5056763E0,4.8862042E0,3.8839395E0,4.0063553E0,3.8170004E0,4.951779E0,2.8737984E0,2.8204193E0,3.9009247E0,2.9898071E0,4.787082E0,8.601929E0,0E0,7.550537E0,3.2107298E0,3.5203857E0,4.5119567E0,6.043701E-1,1.2925423E1,1.2485352E1,0E0,0E0,0E0,0E0,0E0,0E0,0E0,0E0,0E0,0E0,0E0,0E0,0E0,0E0,0E0,0E0,0E0,0E0,0E0,0E0,0E0,0E0,0E0,0E0,0E0,0E0,0E0,0E0,0E0,0E0,0E0,0E0,0E0,0E0,0E0,0E0,0E0,0E0,0E0,0E0,0E0,0E0,0E0,0E0,0E0,0E0,0E0,0E0,0E0,0E0,0E0,0E0,0E0,0E0],"parents":[2147483647,0,0,1,1,2,2,3,3,4,4,5,5,6,6,7,7,8,8,9,9,10,10,11,11,12,12,13,13,14,14,15,15,16,16,17,17,18,18,19,19,20,20,21,21,22,22,23,23,24,24,25,25,26,26,27,27,28,28,29,29,30,30,33,33,36,36,37,37,38,38,39,39,40,40,41,41,42,42,43,43,44,44,45,45,46,46,47,47,48,48,49,49,50,50,51,51,52,52,53,53,54,54,56,56,57,57,58,58,59,59,60,60,61,61,62,62],"right_children":[2,4,6,8,10,12,14,16,18,20,22,24,26,28,30,32,34,36,38,40,42,44,46,48,50,52,54,56,58,60,62,-1,-1,64,-1,-1,66,68,70,72,74,76,78,80,82,84,86,88,90,92,94,96,98,100,102,-1,104,106,108,110,112,114,116,-1,-1,-1,-1,-1,-1,-1,-1,-1,-1,-1,-1,-1,-1,-1,-1,-1,-1,-1,-1,-1,-1,-1,-1,-1,-1,-1,-1,-1,-1,-1,-1,-1,-1,-1,-1,-1,-1,-1,-1,-1,-1,-1,-1,-1,-1,-1,-1,-1,-1,-1,-1,-1,-1],"split_conditions":[7.3689704E0,6.0684257E0,8.502282E0,4.890349E0,6.705639E0,7.868254E0,9.199381E0,3.6888795E0,5.7589016E0,6.3438807E0,7.0535855E0,7.574045E0,8.135933E0,8.889722E0,9.539068E0,7.6248837E-3,6.946014E0,5.2204432E0,6.7499084E0,7.3336763E0,-1.8369701E-16,8.348775E0,-5E-1,1.108E1,-1.8369701E-16,8.046357E0,7.3702307E0,7.037028E0,6.160141E0,6.665199E0,1.293E1,-1.5301684E-1,-9.759339E-2,4.356709E0,-6.0486095E-3,-5.511155E-2,6.7753663E0,-5E-1,2.3E1,-1.8369701E-16,6.7475867E0,7.2764487E0,6.481577E0,-1.8369701E-16,7.991366E0,1.8E1,7.2174435E0,7.525896E0,6.665199E0,7.696181E0,7.7021046E0,6.665199E0,8.655424E0,7.9E1,8.314588E0,-6.3383725E-4,8.716536E0,2.6843334E1,8.660254E-1,7.3435845E0,9.347229E0,7.65E0,1.0024333E1,-8.0675334E-2,-6.2828496E-2,-4.4999834E-2,-1.5971053E-2,-3.1523455E-2,-3.7475053E-2,7.6680556E-3,-2.4889747E-2,-2.7242187E-2,-3.1114317E-2,-1.0982806E-2,2.3978378E-3,-1.9998956E-2,9.573347E-3,-2.7412532E-2,-2.2335723E-2,-1.1699106E-2,-1.5828675E-2,-6.120078E-3,2.6289402E-2,-6.6901445E-3,-6.183969E-5,-9.20952E-3,-5.403351E-3,-1.5115102E-3,2.4877137E-3,3.6477648E-2,7.137047E-3,6.1135157E-3,1.0813924E-2,2.2388087E-3,5.8493265E-3,2.1900681E-3,1.1148251E-2,1.4785699E-2,2.6047928E-2,1.8971525E-2,-5.1447963E-3,1.8006966E-2,2.2263447E-2,2.6747797E-2,3.1094458E-2,1.408477E-2,-1.2079528E-2,3.8319957E-2,3.291135E-2,3.636751E-2,3.5331317E-3,4.124791E-2,4.6094447E-2,1.1370878E-2,5.324916E-2,5.2304845E-2,6.5056875E-2],"split_indices":[0,0,0,0,0,0,0,2,0,0,0,0,0,0,0,7,2,5,5,1,9,2,9,17,9,6,1,1,16,16,20,0,0,1,0,0,1,9,13,9,2,5,2,9,5,13,0,6,16,6,0,16,5,19,0,0,0,22,9,5,0,21,0,0,0,0,0,0,0,0,0,0,0,0,0,0,0,0,0,0,0,0,0,0,0,0,0,0,0,0,0,0,0,0,0,0,0,0,0,0,0,0,0,0,0,0,0,0,0,0,0,0,0,0,0,0,0],"split_type":[0,0,0,0,0,0,0,0,0,0,0,0,0,0,0,0,0,0,0,0,0,0,0,0,0,0,0,0,0,0,0,0,0,0,0,0,0,0,0,0,0,0,0,0,0,0,0,0,0,0,0,0,0,0,0,0,0,0,0,0,0,0,0,0,0,0,0,0,0,0,0,0,0,0,0,0,0,0,0,0,0,0,0,0,0,0,0,0,0,0,0,0,0,0,0,0,0,0,0,0,0,0,0,0,0,0,0,0,0,0,0,0,0,0,0,0,0],"sum_hessian":[1.7804E4,8.264E3,9.54E3,2.304E3,5.96E3,5.43E3,4.11E3,3.14E2,1.99E3,2.98E3,2.98E3,2.226E3,3.204E3,2.796E3,1.314E3,7.1E1,2.43E2,1.035E3,9.55E2,1.175E3,1.805E3,1.579E3,1.401E3,9.01E2,1.325E3,1.281E3,1.923E3,1.824E3,9.72E2,6.85E2,6.29E2,1.7E1,5.4E1,2.37E2,6E0,2.43E2,7.92E2,9.32E2,2.3E1,1.165E3,1E1,6.43E2,1.162E3,1.565E3,1.4E1,3.56E2,1.045E3,8.72E2,2.9E1,5.08E2,8.17E2,6.36E2,6.45E2,2.9E1,1.894E3,9E0,1.815E3,1.4E1,9.58E2,1.6E1,6.69E2,2.8E1,6.01E2,6.6E1,1.71E2,7.81E2,1.1E1,1.97E2,7.35E2,6E0,1.7E1,4.08E2,7.57E2,5E0,5E0,6.33E2,1E1,3.43E2,8.19E2,6.02E2,9.63E2,8E0,6E0,1.2E2,2.36E2,5.58E2,4.87E2,4.96E2,3.76E2,6E0,2.3E1,2.33E2,2.75E2,3.5E2,4.67E2,5E1,5.86E2,6.2E2,2.5E1,1E1,1.9E1,9.47E2,9.47E2,1.054E3,7.61E2,8E0,6E0,6.92E2,2.66E2,5E0,1.1E1,3.27E2,3.42E2,1.5E1,1.3E1,4.74E2,1.27E2],"tree_param":{"num_deleted":"0","num_feature":"23","num_nodes":"117","size_leaf_vector":"1"}},{"base_weights":[1.2436043E-3,-8.225168E-1,7.49051E-1,-1.4275453E0,-5.205247E-1,3.931728E-1,1.1861801E0,-2.5478587E0,-1.2855943E0,-7.4641085E-1,-2.8062358E-1,1.9911726E-1,6.062921E-1,9.752828E-1,1.5213841E0,-3.7044742E0,-2.150307E0,-1.5219934E0,-1.115144E0,-8.6701196E-1,-6.462729E-1,-3.7787557E-1,-1.327752E-1,1.2462178E-1,3.609973E-1,5.1044625E-1,6.767669E-1,8.6077636E-1,1.071491E0,1.3661839E0,1.7575494E0,-4.2134027E0,-2.4597797E0,-2.1935527E0,-2.0937156E-3,-1.6882032E0,-1.4000324E0,-1.146066E0,-8.5050184E-1,-8.7278366E-1,1.2958876E-3,-5.103044E-1,-6.8690234E-1,-3.8436294E-1,3.818357E-1,-2.194585E-2,-1.9772497E-1,3.582358E-2,2.0113072E-1,3.0901203E-1,5.016772E-1,1.6296576E-1,5.220304E-1,7.1832937E-1,5.582847E-1,7.0812625E-1,8.939016E-1,-6.9365494E-2,1.085812E0,1.174632E0,1.4484308E0,1.0911525E0,1.7992973E0,-1.0828728E-1,-1.5681522E-1,-8.4229946E-2,-2.1320153E-2,-7.5998165E-2,-6.1422464E-2,-5.493501E-2,-4.6984155E-2,-4.2483572E-2,-1.0716607E-2,-3.7188075E-2,-3.244322E-2,-1.5897248E-2,-2.9267864E-2,-2.3422083E-2,-2.7720014E-2,-1.5653037E-2,6.8503157E-3,-2.2211561E-2,-1.8316485E-2,-1.2506196E-2,-7.511639E-3,-3.961495E-3,3.2266572E-2,-2.4358497E-3,7.497904E-3,-6.1170906E-3,1.397491E-2,3.6524036E-3,-4.9167214E-4,-1.0855107E-2,6.2808227E-3,6.76515E-3,1.19872615E-2,1.4210468E-2,2.9645687E-2,1.1125177E-2,-1.0958089E-3,1.7843304E-2,1.381769E-2,-1.2300843E-2,2.1737853E-2,7.51613E-3,1.81221E-2,9.509407E-3,2.231859E-2,2.9756896E-2,2.5469277E-2,-1.9695628E-2,1.0688259E-2,3.378535E-2,2.9294092E-2,9.849648E-3,3.6122747E-2,4.058523E-2,4.5283657E-2,4.7283728E-2,6.0282466E-3,5.0296172E-2,6.0862333E-2],"categories":[],"categories_nodes":[],"categories_segments":[],"categories_sizes":[],"default_left":[0,0,0,0,0,0,0,0,0,0,0,0,0,0,0,0,0,0,0,0,0,0,0,0,0,0,0,0,0,0,0,0,0,0,0,0,0,0,0,0,0,0,0,0,0,0,0,0,0,0,0,0,0,0,0,0,0,0,0,0,0,0,0,0,0,0,0,0,0,0,0,0,0,0,0,0,0,0,0,0,0,0,0,0,0,0,0,0,0,0,0,0,0,0,0,0,0,0,0,0,0,0,0,0,0,0,0,0,0,0,0,0,0,0,0,0,0,0,0,0,0,0,0],"id":8,"left_children":[1,3,5,7,9,11,13,15,17,19,21,23,25,27,29,31,33,35,37,39,41,43,45,47,49,51,53,55,57,59,61,63,65,67,-1,69,71,73,75,77,-1,79,81,83,85,87,89,91,93,95,97,99,101,103,105,107,109,111,113,115,117,119,121,-1,-1,-1,-1,-1,-1,-1,-1,-1,-1,-1,-1,-1,-1,-1,-1,-1,-1,-1,-1,-1,-1,-1,-1,-1,-1,-1,-1,-1,-1,-1,-1,-1,-1,-1,-1,-1,-1,-1,-1,-1,-1,-1,-1,-1,-1,-1,-1,-1,-1,-1,-1,-1,-1,-1,-1,-1,-1,-1,-1],"loss_changes":[1.0971197E4,1.5469043E3,1.4512593E3,4.4286328E2,3.0595386E2,2.1258423E2,2.93375E2,1.319519E2,9.792432E1,3.401831E1,3.929892E1,3.2365433E1,1.5810425E1,2.6603027E1,5.4949707E1,3.2845947E1,2.077649E1,1.7030273E1,1.0106445E1,7.133362E0,8.0598755E0,8.374893E0,7.8137436E0,1.2513828E1,5.810646E0,3.947815E0,6.0742188E0,4.7196045E0,2.306726E1,1.2386353E1,1.4129272E1,2.68042E0,1.2428299E1,2.895996E0,0E0,2.6010742E0,9.161621E0,5.4105225E0,5.320053E0,4.740967E0,0E0,3.4084702E0,4.052124E0,6.859619E0,5.57086E0,6.544765E0,2.9084816E0,3.8800206E0,4.681637E0,4.462719E0,2.0767708E0,1.6008081E0,3.8989868E0,7.829529E0,4.8647842E0,2.5100632E0,2.6237183E0,5.034373E0,4.0010986E0,6.6673584E0,3.28125E-1,1.7086208E1,1.0901978E1,0E0,0E0,0E0,0E0,0E0,0E0,0E0,0E0,0E0,0E0,0E0,0E0,0E0,0E0,0E0,0E0,0E0,0E0,0E0,0E0,0E0,0E0,0E0,0E0,0E0,0E0,0E0,0E0,0E0,0E0,0E0,0E0,0E0,0E0,0E0,0E0,0E0,0E0,0E0,0E0,0E0,0E0,0E0,0E0,0E0,0E0,0E0,0E0,0E0,0E0,0E0,0E0,0E0,0E0,0E0,0E0,0E0,0E0,0E0,0E0],"parents":[2147483647,0,0,1,1,2,2,3,3,4,4,5,5,6,6,7,7,8,8,9,9,10,10,11,11,12,12,13,13,14,14,15,15,16,16,17,17,18,18,19,19,20,20,21,21,22,22,23,23,24,24,25,25,26,26,27,27,28,28,29,29,30,30,31,31,32,32,33,33,35,35,36,36,37,37,38,38,39,39,41,41,42,42,43,43,44,44,45,45,46,46,47,47,48,48,49,49,50,50,51,51,52,52,53,53,54,54,55,55,56,56,57,57,58,58,59,59,60,60,61,61,62,62],"right_children":[2,4,6,8,10,12,14,16,18,20,22,24,26,28,30,32,34,36,38,40,42,44,46,48,50,52,54,56,58,60,62,64,66,68,-1,70,72,74,76,78,-1,80,82,84,86,88,90,92,94,96,98,100,102,104,106,108,110,112,114,116,118,120,122,-1,-1,-1,-1,-1,-1,-1,-1,-1,-1,-1,-1,-1,-1,-1,-1,-1,-1,-1,-1,-1,-1,-1,-1,-1,-1,-1,-1,-1,-1,-1,-1,-1,-1,-1,-1,-1,-1,-1,-1,-1,-1,-1,-1,-1,-1,-1,-1,-1,-1,-1,-1,-1,-1,-1,-1,-1,-1,-1,-1],"split_conditions":[7.4145727E0,6.200509E0,8.487352E0,4.890349E0,6.7912216E0,8.020599E0,9.091782E0,3.636369E0,5.7589016E0,6.4723463E0,7.1553965E0,7.899614E0,8.226574E0,8.730852E0,9.539068E0,4.19E0,6.946014E0,5.4664297E0,6.5759006E0,7.486014E0,-5E-1,8.320691E0,-1.8369701E-16,7.6381984E0,2.57E0,6.841118E0,8.660254E-1,8.263117E0,6.20658E0,8.8761215E0,7.138285E0,2.167E1,5.179964E0,4.305506E0,-2.0937156E-3,5.1005874E0,6.7753663E0,5.9532433E0,1.782E1,-1.8369701E-16,1.2958876E-3,7.3336763E0,6.6515718E0,7.21198E0,7.991366E0,8.37E0,9.891972E0,-1.8369701E-16,6.6826005E0,7.868254E0,8.294459E0,3.6739403E-16,6.123234E-17,6.8141637E0,7.9171376E0,6.665199E0,1.997E1,8.087872E0,8.660254E-1,1.277E1,9.288042E0,3.1E1,9.887713E0,-1.0828728E-1,-1.5681522E-1,-8.4229946E-2,-2.1320153E-2,-7.5998165E-2,-6.1422464E-2,-5.493501E-2,-4.6984155E-2,-4.2483572E-2,-1.0716607E-2,-3.7188075E-2,-3.244322E-2,-1.5897248E-2,-2.9267864E-2,-2.3422083E-2,-2.7720014E-2,-1.5653037E-2,6.8503157E-3,-2.2211561E-2,-1.8316485E-2,-1.2506196E-2,-7.511639E-3,-3.961495E-3,3.2266572E-2,-2.4358497E-3,7.497904E-3,-6.1170906E-3,1.397491E-2,3.6524036E-3,-4.9167214E-4,-1.0855107E-2,6.2808227E-3,6.76515E-3,1.19872615E-2,1.4210468E-2,2.9645687E-2,1.1125177E-2,-1.0958089E-3,1.7843304E-2,1.381769E-2,-1.2300843E-2,2.1737853E-2,7.51613E-3,1.81221E-2,9.509407E-3,2.231859E-2,2.9756896E-2,2.5469277E-2,-1.9695628E-2,1.0688259E-2,3.378535E-2,2.9294092E-2,9.849648E-3,3.6122747E-2,4.058523E-2,4.5283657E-2,4.7283728E-2,6.0282466E-3,5.0296172E-2,6.0862333E-2],"split_indices":[0,0,0,0,0,0,0,4,0,0,0,15,0,0,0,17,2,4,15,4,9,2,9,0,17,15,9,15,15,15,15,20,15,4,0,6,1,0,20,9,0,1,0,15,5,17,2,9,5,0,5,10,9,6,6,16,20,4,9,20,0,13,0,0,0,0,0,0,0,0,0,0,0,0,0,0,0,0,0,0,0,0,0,0,0,0,0,0,0,0,0,0,0,0,0,0,0,0,0,0,0,0,0,0,0,0,0,0,0,0,0,0,0,0,0,0,0,0,0,0,0,0,0],"split_type":[0,0,0,0,0,0,0,0,0,0,0,0,0,0,0,0,0,0,0,0,0,0,0,0,0,0,0,0,0,0,0,0,0,0,0,0,0,0,0,0,0,0,0,0,0,0,0,0,0,0,0,0,0,0,0,0,0,0,0,0,0,0,0,0,0,0,0,0,0,0,0,0,0,0,0,0,0,0,0,0,0,0,0,0,0,0,0,0,0,0,0,0,0,0,0,0,0,0,0,0,0,0,0,0,0,0,0,0,0,0,0,0,0,0,0,0,0,0,0,0,0,0,0],"sum_hessian":[1.7807E4,8.473E3,9.334E3,2.819E3,5.654E3,5.147E3,4.187E3,3.14E2,2.505E3,2.91E3,2.744E3,2.696E3,2.451E3,2.574E3,1.613E3,7.7E1,2.37E2,1.044E3,1.461E3,1.314E3,1.596E3,1.653E3,1.091E3,1.849E3,8.47E2,1.045E3,1.406E3,1.183E3,1.391E3,9.8E2,6.33E2,5.2E1,2.5E1,2.32E2,5E0,4.33E2,6.11E2,1.303E3,1.58E2,1.306E3,8E0,3.73E2,1.223E3,1.64E3,1.3E1,4.05E2,6.86E2,8.58E2,9.91E2,6.23E2,2.24E2,3.5E1,1.01E3,1.034E3,3.72E2,2.18E2,9.65E2,1.7E1,1.374E3,3.02E2,6.78E2,4E1,5.93E2,3.7E1,1.5E1,2E1,5E0,6.2E1,1.7E2,1.89E2,2.44E2,6.01E2,1E1,5.2E2,7.83E2,4.7E1,1.11E2,4.77E2,8.29E2,3.68E2,5E0,7.1E2,5.13E2,1.316E3,3.24E2,8E0,5E0,3.34E2,7.1E1,6.81E2,5E0,3.25E2,5.33E2,1.3E1,9.78E2,3.28E2,2.95E2,2.15E2,9E0,1.7E1,1.8E1,4.55E2,5.55E2,5E0,1.029E3,5E1,3.22E2,2E1,1.98E2,2.92E2,6.73E2,7E0,1E1,9.92E2,3.82E2,1.1E1,2.91E2,2.79E2,3.99E2,2.5E1,1.5E1,3.95E2,1.98E2],"tree_param":{"num_deleted":"0","num_feature":"23","num_nodes":"123","size_leaf_vector":"1"}},{"base_weights":[3.2601596E-4,-8.103006E-1,7.0576507E-1,-1.3987821E0,-5.297658E-1,3.655621E-1,1.1458952E0,-2.2242174E0,-1.2304252E0,-7.7162045E-1,-3.2848155E-1,1.2264338E-1,5.354024E-1,9.499254E-1,1.4856422E0,-3.5868092E0,-1.9624591E0,-1.388581E0,-1.0642877E0,-8.6176044E-1,-6.768481E-1,-4.3850526E-1,-1.9385146E-1,4.3731067E-2,2.0986049E-1,4.3124637E-1,6.4502436E-1,8.396026E-1,1.0472487E0,1.3267387E0,1.7051535E0,-1.5572618E-1,-8.7834895E-2,-1.9878527E0,-3.553998E-4,-1.4913516E0,-1.2669066E0,-1.0918684E0,-7.617191E-1,-8.841106E-1,-5.838069E-1,-6.8129975E-1,-0E0,-4.4824228E-1,1.0373828E-1,-2.21804E-1,-4.8565462E-2,6.761956E-1,2.7608689E-2,1.563647E-1,3.0629396E-1,3.6217472E-1,5.1637626E-1,2.4249926E-1,6.56552E-1,-1.8340133E-2,8.4637856E-1,9.7192967E-1,3.4853626E-2,5.6011575E-1,1.349691E0,1.0834879E0,1.7465596E0,-7.183157E-2,-5.6367513E-2,-4.5582887E-2,-3.3567913E-2,-3.8360108E-2,-5.019843E-3,-5.575563E-3,-3.2879002E-2,-2.596208E-2,-3.6971085E-3,-5.13782E-2,-2.6285924E-2,3.7225548E-3,-1.9455146E-2,-7.0624393E-3,-2.060049E-2,-1.3569023E-2,1.5155432E-2,-3.508437E-3,2.4916966E-2,-7.7910107E-3,-4.3223607E-3,-5.126771E-3,2.0527241E-3,-4.793526E-4,4.7402877E-2,-2.7511056E-4,5.2311798E-3,-1.2451424E-2,4.880861E-3,7.5549376E-3,1.544783E-2,3.434618E-3,1.1419758E-2,1.3175991E-2,1.743142E-2,-5.094553E-3,1.5867464E-2,1.807192E-2,2.1931909E-2,2.7875246E-2,2.2606168E-2,3.168759E-2,2.7871488E-2,7.608513E-3,3.639011E-2,3.502887E-2,4.2390686E-2,5.4166593E-2,1.6728591E-2,4.9523048E-2,6.1457362E-2],"categories":[],"categories_nodes":[],"categories_segments":[],"categories_sizes":[],"default_left":[0,0,0,0,0,0,0,0,0,0,0,0,0,0,0,0,0,0,0,0,0,0,0,0,0,0,0,0,0,0,0,0,0,0,0,0,0,0,0,0,0,0,0,0,0,0,0,0,0,0,0,0,0,0,0,0,0,0,0,0,0,0,0,0,0,0,0,0,0,0,0,0,0,0,0,0,0,0,0,0,0,0,0,0,0,0,0,0,0,0,0,0,0,0,0,0,0,0,0,0,0,0,0,0,0,0,0,0,0,0,0,0,0,0,0],"id":9,"left_children":[1,3,5,7,9,11,13,15,17,19,21,23,25,27,29,31,33,35,37,39,41,43,45,47,49,51,53,55,57,59,61,-1,-1,63,-1,65,67,69,71,73,75,77,-1,79,81,83,85,87,89,91,93,95,97,99,101,-1,103,105,-1,107,109,111,113,-1,-1,-1,-1,-1,-1,-1,-1,-1,-1,-1,-1,-1,-1,-1,-1,-1,-1,-1,-1,-1,-1,-1,-1,-1,-1,-1,-1,-1,-1,-1,-1,-1,-1,-1,-1,-1,-1,-1,-1,-1,-1,-1,-1,-1,-1,-1,-1,-1,-1,-1,-1],"loss_changes":[1.0151991E4,1.3622246E3,1.420415E3,3.6562256E2,2.7184595E2,2.2076514E2,2.7287158E2,1.4865454E2,5.5558838E1,2.0520386E1,4.503528E1,1.51217575E1,3.5350647E1,2.6526123E1,4.868799E1,5.010089E1,1.8412231E1,1.0750732E1,7.465332E0,6.9802246E0,3.822998E0,9.011383E0,5.5280075E0,1.1674857E1,5.2342987E0,9.078308E0,6.687744E0,1.3019165E1,9.866577E0,1.4029907E1,1.277356E1,0E0,0E0,9.026123E0,0E0,3.2329102E0,6.226013E0,3.1271973E0,6.030609E0,5.069153E0,4.8742104E0,2.5458984E0,0E0,6.7226257E0,5.1806445E0,3.2637062E0,3.2651582E0,1.8181896E1,6.1592865E0,2.5016193E0,3.8620377E0,3.9628677E0,3.0142212E0,5.5798473E0,5.075012E0,0E0,8.1102295E0,1.1989746E0,0E0,4.9483337E0,6.8848877E0,1.453458E1,1.1155273E1,0E0,0E0,0E0,0E0,0E0,0E0,0E0,0E0,0E0,0E0,0E0,0E0,0E0,0E0,0E0,0E0,0E0,0E0,0E0,0E0,0E0,0E0,0E0,0E0,0E0,0E0,0E0,0E0,0E0,0E0,0E0,0E0,0E0,0E0,0E0,0E0,0E0,0E0,0E0,0E0,0E0,0E0,0E0,0E0,0E0,0E0,0E0,0E0,0E0,0E0,0E0,0E0],"parents":[2147483647,0,0,1,1,2,2,3,3,4,4,5,5,6,6,7,7,8,8,9,9,10,10,11,11,12,12,13,13,14,14,15,15,16,16,17,17,18,18,19,19,20,20,21,21,22,22,23,23,24,24,25,25,26,26,27,27,28,28,29,29,30,30,33,33,35,35,36,36,37,37,38,38,39,39,40,40,41,41,43,43,44,44,45,45,46,46,47,47,48,48,49,49,50,50,51,51,52,52,53,53,54,54,56,56,57,57,59,59,60,60,61,61,62,62],"right_children":[2,4,6,8,10,12,14,16,18,20,22,24,26,28,30,32,34,36,38,40,42,44,46,48,50,52,54,56,58,60,62,-1,-1,64,-1,66,68,70,72,74,76,78,-1,80,82,84,86,88,90,92,94,96,98,100,102,-1,104,106,-1,108,110,112,114,-1,-1,-1,-1,-1,-1,-1,-1,-1,-1,-1,-1,-1,-1,-1,-1,-1,-1,-1,-1,-1,-1,-1,-1,-1,-1,-1,-1,-1,-1,-1,-1,-1,-1,-1,-1,-1,-1,-1,-1,-1,-1,-1,-1,-1,-1,-1,-1,-1,-1,-1,-1],"split_conditions":[7.3689704E0,6.1654177E0,8.487352E0,5.1119876E0,6.689599E0,7.868254E0,9.117786E0,3.234477E0,5.8435445E0,6.4457197E0,7.0535855E0,7.6381984E0,8.200837E0,8.610303E0,9.539068E0,1.15827675E1,6.973543E0,5.6797633E0,6.6468625E0,6.63561E0,7.494463E0,7.7816E0,7.5224004E0,6.652796E0,7.858092E0,8.04783E0,7.6568103E0,5.179964E0,8.889722E0,6.7652893E0,7.2564507E0,-1.5572618E-1,-8.7834895E-2,4.305506E0,-3.553998E-4,6.2025356E0,3.214E1,4.356709E0,5.14E0,1.742E1,4.3307333E0,5.558388E0,-0E0,2.439E1,8.425735E0,7.2548847E0,2.9E0,1E0,7.759187E0,6.6826005E0,3.55E0,6.9272604E0,5.654E1,1.8423334E1,8.335671E0,-1.8340133E-2,5E-1,2.015E1,3.4853626E-2,1E0,8.8761215E0,7.418618E0,1.0024333E1,-7.183157E-2,-5.6367513E-2,-4.5582887E-2,-3.3567913E-2,-3.8360108E-2,-5.019843E-3,-5.575563E-3,-3.2879002E-2,-2.596208E-2,-3.6971085E-3,-5.13782E-2,-2.6285924E-2,3.7225548E-3,-1.9455146E-2,-7.0624393E-3,-2.060049E-2,-1.3569023E-2,1.5155432E-2,-3.508437E-3,2.4916966E-2,-7.7910107E-3,-4.3223607E-3,-5.126771E-3,2.0527241E-3,-4.793526E-4,4.7402877E-2,-2.7511056E-4,5.2311798E-3,-1.2451424E-2,4.880861E-3,7.5549376E-3,1.544783E-2,3.434618E-3,1.1419758E-2,1.3175991E-2,1.743142E-2,-5.094553E-3,1.5867464E-2,1.807192E-2,2.1931909E-2,2.7875246E-2,2.2606168E-2,3.168759E-2,2.7871488E-2,7.608513E-3,3.639011E-2,3.502887E-2,4.2390686E-2,5.4166593E-2,1.6728591E-2,4.9523048E-2,6.1457362E-2],"split_indices":[0,0,0,0,0,0,0,6,0,0,0,0,0,15,0,14,3,4,15,4,15,6,3,5,15,3,1,15,0,15,15,0,0,4,0,3,18,1,17,19,3,6,0,20,3,0,17,11,3,5,17,15,19,20,3,0,11,20,0,11,15,5,0,0,0,0,0,0,0,0,0,0,0,0,0,0,0,0,0,0,0,0,0,0,0,0,0,0,0,0,0,0,0,0,0,0,0,0,0,0,0,0,0,0,0,0,0,0,0,0,0,0,0,0,0],"split_type":[0,0,0,0,0,0,0,0,0,0,0,0,0,0,0,0,0,0,0,0,0,0,0,0,0,0,0,0,0,0,0,0,0,0,0,0,0,0,0,0,0,0,0,0,0,0,0,0,0,0,0,0,0,0,0,0,0,0,0,0,0,0,0,0,0,0,0,0,0,0,0,0,0,0,0,0,0,0,0,0,0,0,0,0,0,0,0,0,0,0,0,0,0,0,0,0,0,0,0,0,0,0,0,0,0,0,0,0,0,0,0,0,0,0,0],"sum_hessian":[1.775E4,8.259E3,9.491E3,2.664E3,5.595E3,5.355E3,4.136E3,4.48E2,2.216E3,2.539E3,3.056E3,2.205E3,3.15E3,2.627E3,1.509E3,6.9E1,3.79E2,1.129E3,1.087E3,1.294E3,1.245E3,1.679E3,1.377E3,1.16E3,1.045E3,1.62E3,1.53E3,1.239E3,1.388E3,8.82E2,6.27E2,1.7E1,5.2E1,3.74E2,5E0,6.02E2,5.27E2,9.92E2,9.5E1,1.194E3,1E2,1.237E3,8E0,1.65E3,2.9E1,1.153E3,2.24E2,2.7E1,1.133E3,6.76E2,3.69E2,9E2,7.2E2,4.4E1,1.486E3,5E0,1.234E3,8.47E2,5.41E2,2.7E1,8.55E2,4.2E1,5.85E2,7.2E1,3.02E2,5.55E2,4.7E1,5.21E2,6E0,5E0,9.87E2,8.1E1,1.4E1,8E0,1.186E3,8E0,9.2E1,1.6E1,1.221E3,1.644E3,6E0,2.3E1,6E0,7.71E2,3.82E2,1.1E2,1.14E2,1.6E1,1.1E1,9.06E2,2.27E2,6E0,6.7E2,2.96E2,7.3E1,6.4E1,8.36E2,3.35E2,3.85E2,1.8E1,2.6E1,8.7E2,6.16E2,6.44E2,5.9E2,2.72E2,5.75E2,2E1,7E0,2.29E2,6.26E2,1.6E1,2.6E1,4.52E2,1.33E2],"tree_param":{"num_deleted":"0","num_feature":"23","num_nodes":"115","size_leaf_vector":"1"}},{"base_weights":[1.1151125E-4,-7.528835E-1,6.9625217E-1,-1.2704712E0,-4.6041214E-1,3.7413642E-1,1.0842893E0,-1.9806817E0,-1.1037164E0,-6.6919583E-1,-2.5749922E-1,1.7294025E-1,5.517274E-1,9.0841043E-1,1.4431152E0,-3.103375E0,-1.7737607E0,-1.2483913E0,-9.547291E-1,-5.2625245E-1,-7.551996E-1,-1.0673481E-1,-3.5061657E-1,2.876419E-1,7.266088E-2,6.571271E-1,4.5854622E-1,7.809952E-1,1.0267547E0,1.3386894E0,1.6970423E0,-3.6578264E0,-2.0233278E0,-1.8332088E0,-8.65855E-1,-1.3764267E0,-1.1516497E0,-9.6656114E-1,1.6341345E-2,-5.9945214E-1,-3.9569825E-1,-8.6242634E-1,-6.616304E-1,-2.0983793E-1,3.3316435E-3,-4.4772854E-1,-2.4432372E-1,1.9322751E-1,3.9558843E-1,1.2617522E0,5.863705E-2,1.4336681E0,6.464339E-1,3.6788666E-1,5.416302E-1,3.3961825E-2,8.005461E-1,1.1539646E0,9.4051415E-1,1.1463436E0,1.4037395E0,1.7222626E0,1.0705924E0,-1.19410224E-1,-6.520451E-2,-7.591312E-2,-9.648413E-3,-6.5276615E-2,-5.1225074E-2,-3.473847E-2,-1.342561E-2,-1.3732494E-2,-4.1930042E-2,-9.697594E-3,-3.483219E-2,-2.3625398E-2,-3.1018542E-2,-1.9833067E-2,-9.543497E-3,-5.1147986E-4,-1.2891261E-2,-9.672361E-3,-2.6254078E-2,1.4879686E-2,-2.0113815E-2,-8.1423875E-3,1.3234963E-3,6.925616E-3,-1.286676E-3,-1.3808828E-2,1.2119325E-2,-7.6030754E-3,1.2347026E-2,9.0340115E-3,3.2855817E-3,2.496755E-2,1.06641585E-2,1.7054318E-2,5.30534E-2,-9.6812524E-4,4.709201E-3,5.1686663E-2,1.8145498E-2,2.687278E-3,1.9842753E-2,1.3258668E-2,7.910785E-3,1.0954518E-2,1.7041724E-2,2.2903591E-2,-8.3095515E-3,2.9168447E-2,2.1929204E-2,3.167821E-2,3.9618906E-2,2.6707258E-2,3.2320157E-2,3.4707744E-2,1.829782E-2,3.9670903E-2,4.4871513E-2,4.5156278E-2,5.3858556E-2,4.664294E-2,-6.7732395E-3],"categories":[],"categories_nodes":[],"categories_segments":[],"categories_sizes":[],"default_left":[0,0,0,0,0,0,0,0,0,0,0,0,0,0,0,0,0,0,0,0,0,0,0,0,0,0,0,0,0,0,0,0,0,0,0,0,0,0,0,0,0,0,0,0,0,0,0,0,0,0,0,0,0,0,0,0,0,0,0,0,0,0,0,0,0,0,0,0,0,0,0,0,0,0,0,0,0,0,0,0,0,0,0,0,0,0,0,0,0,0,0,0,0,0,0,0,0,0,0,0,0,0,0,0,0,0,0,0,0,0,0,0,0,0,0,0,0,0,0,0,0,0,0,0,0],"id":10,"left_children":[1,3,5,7,9,11,13,15,17,19,21,23,25,27,29,31,33,35,37,39,41,43,45,47,49,51,53,55,57,59,61,63,65,67,69,71,73,75,-1,77,79,81,83,85,87,89,91,93,95,97,99,101,103,105,107,109,111,113,115,117,119,121,123,-1,-1,-1,-1,-1,-1,-1,-1,-1,-1,-1,-1,-1,-1,-1,-1,-1,-1,-1,-1,-1,-1,-1,-1,-1,-1,-1,-1,-1,-1,-1,-1,-1,-1,-1,-1,-1,-1,-1,-1,-1,-1,-1,-1,-1,-1,-1,-1,-1,-1,-1,-1,-1,-1,-1,-1,-1,-1,-1,-1,-1,-1],"loss_changes":[9.295457E3,1.2883032E3,1.1508472E3,3.602202E2,2.3025415E2,1.7970502E2,2.6126807E2,1.2608765E2,5.1518066E1,3.2125366E1,3.8662613E1,2.709356E1,2.5591797E1,4.0784424E1,3.235254E1,4.0759033E1,2.382312E1,1.2717407E1,2.2793823E1,9.130707E0,1.5599609E1,1.2054414E1,1.7322845E1,1.0993752E1,2.0711252E1,8.577576E0,1.0256592E1,1.9648071E1,1.3866089E1,9.331909E0,2.8925781E0,1.284021E1,2.7117859E1,1.3616333E1,2.9950638E0,9.080017E0,4.819275E0,1.3213379E1,0E0,1.0684479E1,4.6580887E0,4.639221E0,9.7282715E0,8.624811E0,5.442033E0,9.809891E0,5.022629E0,5.211197E0,8.2788315E0,3.1181736E0,1.1220381E1,1.6868439E0,1.0083191E1,4.989853E0,2.9511566E0,8.693897E0,1.4418518E1,6.884094E0,4.1762085E0,4.4036865E-2,1.892334E0,1.2380371E0,1.3031805E1,0E0,0E0,0E0,0E0,0E0,0E0,0E0,0E0,0E0,0E0,0E0,0E0,0E0,0E0,0E0,0E0,0E0,0E0,0E0,0E0,0E0,0E0,0E0,0E0,0E0,0E0,0E0,0E0,0E0,0E0,0E0,0E0,0E0,0E0,0E0,0E0,0E0,0E0,0E0,0E0,0E0,0E0,0E0,0E0,0E0,0E0,0E0,0E0,0E0,0E0,0E0,0E0,0E0,0E0,0E0,0E0,0E0,0E0,0E0,0E0,0E0,0E0],"parents":[2147483647,0,0,1,1,2,2,3,3,4,4,5,5,6,6,7,7,8,8,9,9,10,10,11,11,12,12,13,13,14,14,15,15,16,16,17,17,18,18,19,19,20,20,21,21,22,22,23,23,24,24,25,25,26,26,27,27,28,28,29,29,30,30,31,31,32,32,33,33,34,34,35,35,36,36,37,37,39,39,40,40,41,41,42,42,43,43,44,44,45,45,46,46,47,47,48,48,49,49,50,50,51,51,52,52,53,53,54,54,55,55,56,56,57,57,58,58,59,59,60,60,61,61,62,62],"right_children":[2,4,6,8,10,12,14,16,18,20,22,24,26,28,30,32,34,36,38,40,42,44,46,48,50,52,54,56,58,60,62,64,66,68,70,72,74,76,-1,78,80,82,84,86,88,90,92,94,96,98,100,102,104,106,108,110,112,114,116,118,120,122,124,-1,-1,-1,-1,-1,-1,-1,-1,-1,-1,-1,-1,-1,-1,-1,-1,-1,-1,-1,-1,-1,-1,-1,-1,-1,-1,-1,-1,-1,-1,-1,-1,-1,-1,-1,-1,-1,-1,-1,-1,-1,-1,-1,-1,-1,-1,-1,-1,-1,-1,-1,-1,-1,-1,-1,-1,-1,-1,-1,-1,-1,-1],"split_conditions":[7.4332757E0,6.264535E0,8.483222E0,5.2693853E0,6.8109627E0,7.9710197E0,9.101053E0,3.636369E0,6.0356045E0,-1.8369701E-16,-1.8369701E-16,6.123234E-17,6.123234E-17,8.610303E0,9.625142E0,4.19E0,1.1019701E0,5.710332E0,6.833098E0,6.598815E0,6.52347E0,7.127147E0,7.127147E0,7.72369E0,6.9007306E0,7.156956E0,8.243739E0,7.1791835E0,-2.4492937E-16,9.186251E0,3.15E1,1.9109257E0,5.179964E0,4.640666E0,5.03E0,4.7791233E0,5.0369525E0,-5E-1,1.6341345E-2,3.1721646E-1,6.297109E0,5.8037696E0,5.826E0,7.88E0,7.024649E0,7.7816E0,2.402E1,7.508239E0,7.422374E0,1.2261845E1,7.72369E0,7.9370174E0,6.5213294E0,8.660254E-1,7.986719E0,9.5E-1,-5E-1,8.860468E0,8.931024E0,9.54431E0,4.4E-1,9.391859E0,1E0,-1.19410224E-1,-6.520451E-2,-7.591312E-2,-9.648413E-3,-6.5276615E-2,-5.1225074E-2,-3.473847E-2,-1.342561E-2,-1.3732494E-2,-4.1930042E-2,-9.697594E-3,-3.483219E-2,-2.3625398E-2,-3.1018542E-2,-1.9833067E-2,-9.543497E-3,-5.1147986E-4,-1.2891261E-2,-9.672361E-3,-2.6254078E-2,1.4879686E-2,-2.0113815E-2,-8.1423875E-3,1.3234963E-3,6.925616E-3,-1.286676E-3,-1.3808828E-2,1.2119325E-2,-7.6030754E-3,1.2347026E-2,9.0340115E-3,3.2855817E-3,2.496755E-2,1.06641585E-2,1.7054318E-2,5.30534E-2,-9.6812524E-4,4.709201E-3,5.1686663E-2,1.8145498E-2,2.687278E-3,1.9842753E-2,1.3258668E-2,7.910785E-3,1.0954518E-2,1.7041724E-2,2.2903591E-2,-8.3095515E-3,2.9168447E-2,2.1929204E-2,3.167821E-2,3.9618906E-2,2.6707258E-2,3.2320157E-2,3.4707744E-2,1.829782E-2,3.9670903E-2,4.4871513E-2,4.5156278E-2,5.3858556E-2,4.664294E-2,-6.7732395E-3],"split_indices":[4,4,4,4,4,4,5,4,15,9,9,9,9,15,4,17,7,4,5,4,4,4,4,4,2,2,4,6,8,4,18,7,15,4,17,2,2,9,0,7,2,6,2,17,2,6,20,2,2,14,4,1,15,9,6,17,8,15,1,2,17,15,8,0,0,0,0,0,0,0,0,0,0,0,0,0,0,0,0,0,0,0,0,0,0,0,0,0,0,0,0,0,0,0,0,0,0,0,0,0,0,0,0,0,0,0,0,0,0,0,0,0,0,0,0,0,0,0,0,0,0,0,0,0,0],"split_type":[0,0,0,0,0,0,0,0,0,0,0,0,0,0,0,0,0,0,0,0,0,0,0,0,0,0,0,0,0,0,0,0,0,0,0,0,0,0,0,0,0,0,0,0,0,0,0,0,0,0,0,0,0,0,0,0,0,0,0,0,0,0,0,0,0,0,0,0,0,0,0,0,0,0,0,0,0,0,0,0,0,0,0,0,0,0,0,0,0,0,0,0,0,0,0,0,0,0,0,0,0,0,0,0,0,0,0,0,0,0,0,0,0,0,0,0,0,0,0,0,0,0,0,0,0],"sum_hessian":[1.773E4,8.517E3,9.213E3,3.073E3,5.444E3,5.036E3,4.177E3,5.81E2,2.492E3,2.681E3,2.763E3,2.363E3,2.673E3,2.807E3,1.37E3,8.7E1,4.94E2,1.258E3,1.234E3,1.012E3,1.669E3,1.057E3,1.706E3,1.1E3,1.263E3,1.249E3,1.424E3,1.358E3,1.449E3,9.78E2,3.92E2,5.5E1,3.2E1,4.62E2,3.2E1,5.32E2,7.26E2,1.225E3,9E0,6.44E2,3.68E2,7.71E2,8.98E2,5.46E2,5.11E2,8.88E2,8.18E2,5.9E2,5.1E2,1.3E1,1.25E3,1.4E1,1.235E3,6.86E2,7.38E2,3.5E1,1.323E3,5.77E2,8.72E2,2.55E2,7.23E2,3.74E2,1.8E1,4.3E1,1.2E1,2.4E1,8E0,1.17E2,3.45E2,1.7E1,1.5E1,1.3E1,5.19E2,9E0,7.17E2,3.41E2,8.84E2,5.26E2,1.18E2,3.1E1,3.37E2,1.9E1,7.52E2,6E0,8.92E2,4.4E2,1.06E2,8.6E1,4.25E2,8.76E2,1.2E1,8.08E2,1E1,2.55E2,3.35E2,4E1,4.7E2,7E0,6E0,6.49E2,6.01E2,9E0,5E0,3.3E1,1.202E3,3.97E2,2.89E2,1E2,6.38E2,1E1,2.5E1,3.75E2,9.48E2,3.71E2,2.06E2,6.47E2,2.25E2,2.48E2,7E0,3.97E2,3.26E2,1.03E2,2.71E2,1.3E1,5E0],"tree_param":{"num_deleted":"0","num_feature":"23","num_nodes":"125","size_leaf_vector":"1"}},{"base_weights":[3.1102163E-4,-7.519159E-1,6.831393E-1,-1.2350159E0,-4.3574005E-1,3.6715168E-1,1.0936158E0,-2.1414144E0,-1.0925457E0,-6.231245E-1,-2.4743026E-1,1.3991337E-1,5.253249E-1,9.0602165E-1,1.4006836E0,-3.0071833E0,-1.7480457E0,-1.2929113E0,-9.4043654E-1,-6.885559E-1,-5.004018E-1,-3.2770914E-1,-1.1156075E-1,9.365259E-2,2.7879396E-1,4.2210189E-1,6.2379915E-1,8.075716E-1,1.002996E0,1.296086E0,1.6733896E0,-2.624848E0,-3.8607006E0,-1.7817398E0,-0E0,-1.419014E0,-1.1864289E0,-9.5357066E-1,-5.633815E-1,-6.9758147E-1,-1.8281108E-1,-5.0791574E-1,1.8342117E-2,-3.9748138E-1,-2.7121508E-1,-1.3701163E-1,1.2951016E-1,1.267277E-3,1.4336534E-1,4.7614866E-1,2.3425734E-1,3.578547E-1,5.0361407E-1,5.463688E-1,6.808795E-1,6.232653E-1,8.412767E-1,7.090568E-2,1.0201274E0,1.1326764E0,1.3912326E0,1.5302147E0,5.547973E-2,-8.397269E-2,-5.190935E-2,-1.3521516E-1,-7.231895E-2,-5.6261998E-2,-4.616244E-2,-4.2973764E-2,-2.1067766E-2,-3.5988398E-2,-1.601643E-2,-3.0839885E-2,-2.6736734E-2,1.557453E-3,-2.3310874E-2,-4.8269898E-2,-2.0778008E-2,2.3145206E-2,-1.696323E-2,-1.539554E-2,8.840787E-3,-1.2297019E-2,2.0266477E-2,-8.7165935E-3,-1.3437684E-3,-5.759769E-3,-2.569876E-3,2.9063288E-2,-4.42475E-4,-3.2907634E-4,1.0724976E-2,2.3198167E-2,4.1169883E-3,5.1752357E-3,1.5792135E-2,8.399757E-4,7.461189E-3,1.8211516E-3,1.1374621E-2,1.3860042E-2,1.8472498E-2,-1.0774902E-2,1.6625647E-2,1.8866735E-2,2.4086406E-2,2.0045808E-2,-2.5232958E-2,2.341969E-2,2.6853535E-2,-1.8313827E-2,1.4066487E-2,3.1462166E-2,2.6396273E-2,1.2191364E-3,3.443895E-2,3.926415E-2,4.445248E-2,4.717259E-2,1.09818885E-2],"categories":[],"categories_nodes":[],"categories_segments":[],"categories_sizes":[],"default_left":[0,0,0,0,0,0,0,0,0,0,0,0,0,0,0,0,0,0,0,0,0,0,0,0,0,0,0,0,0,0,0,0,0,0,0,0,0,0,0,0,0,0,0,0,0,0,0,0,0,0,0,0,0,0,0,0,0,0,0,0,0,0,0,0,0,0,0,0,0,0,0,0,0,0,0,0,0,0,0,0,0,0,0,0,0,0,0,0,0,0,0,0,0,0,0,0,0,0,0,0,0,0,0,0,0,0,0,0,0,0,0,0,0,0,0,0,0,0,0,0,0],"id":11,"left_children":[1,3,5,7,9,11,13,15,17,19,21,23,25,27,29,31,33,35,37,39,41,43,45,47,49,51,53,55,57,59,61,63,65,67,-1,69,71,73,75,77,79,81,-1,83,85,87,89,91,93,95,97,99,101,103,105,107,109,111,113,115,117,119,-1,-1,-1,-1,-1,-1,-1,-1,-1,-1,-1,-1,-1,-1,-1,-1,-1,-1,-1,-1,-1,-1,-1,-1,-1,-1,-1,-1,-1,-1,-1,-1,-1,-1,-1,-1,-1,-1,-1,-1,-1,-1,-1,-1,-1,-1,-1,-1,-1,-1,-1,-1,-1,-1,-1,-1,-1,-1,-1],"loss_changes":[9.088879E3,1.2848911E3,1.202188E3,4.2579785E2,1.7925494E2,1.8822388E2,2.2998145E2,1.4458911E2,8.551953E1,1.9725708E1,2.7589493E1,1.3728413E1,3.0810303E1,2.237207E1,3.9695312E1,2.8698975E1,1.8237976E1,1.3583984E1,7.029907E0,7.203064E0,7.9094543E0,5.997528E0,5.8414707E0,7.408725E0,4.4061775E0,7.488678E0,6.16864E0,6.7073975E0,1.9737183E1,1.4397461E1,5.5959473E0,7.4937134E0,1.9347229E1,1.9866943E0,0E0,3.446167E0,4.555908E0,5.598877E0,8.0272045E0,5.2613525E0,1.2115395E1,4.027878E0,0E0,9.817207E0,3.803772E0,2.343525E0,1.1169252E1,2.5576549E0,3.720501E0,1.1965675E0,1.2499771E0,5.279373E0,2.4491425E0,5.141876E0,4.6677856E0,1.3999596E1,2.0584717E0,7.0446615E0,3.1799316E0,6.662781E0,1.7145996E0,1.0516357E1,0E0,0E0,0E0,0E0,0E0,0E0,0E0,0E0,0E0,0E0,0E0,0E0,0E0,0E0,0E0,0E0,0E0,0E0,0E0,0E0,0E0,0E0,0E0,0E0,0E0,0E0,0E0,0E0,0E0,0E0,0E0,0E0,0E0,0E0,0E0,0E0,0E0,0E0,0E0,0E0,0E0,0E0,0E0,0E0,0E0,0E0,0E0,0E0,0E0,0E0,0E0,0E0,0E0,0E0,0E0,0E0,0E0,0E0,0E0],"parents":[2147483647,0,0,1,1,2,2,3,3,4,4,5,5,6,6,7,7,8,8,9,9,10,10,11,11,12,12,13,13,14,14,15,15,16,16,17,17,18,18,19,19,20,20,21,21,22,22,23,23,24,24,25,25,26,26,27,27,28,28,29,29,30,30,31,31,32,32,33,33,35,35,36,36,37,37,38,38,39,39,40,40,41,41,43,43,44,44,45,45,46,46,47,47,48,48,49,49,50,50,51,51,52,52,53,53,54,54,55,55,56,56,57,57,58,58,59,59,60,60,61,61],"right_children":[2,4,6,8,10,12,14,16,18,20,22,24,26,28,30,32,34,36,38,40,42,44,46,48,50,52,54,56,58,60,62,64,66,68,-1,70,72,74,76,78,80,82,-1,84,86,88,90,92,94,96,98,100,102,104,106,108,110,112,114,116,118,120,-1,-1,-1,-1,-1,-1,-1,-1,-1,-1,-1,-1,-1,-1,-1,-1,-1,-1,-1,-1,-1,-1,-1,-1,-1,-1,-1,-1,-1,-1,-1,-1,-1,-1,-1,-1,-1,-1,-1,-1,-1,-1,-1,-1,-1,-1,-1,-1,-1,-1,-1,-1,-1,-1,-1,-1,-1,-1,-1],"split_conditions":[7.4145727E0,6.317165E0,8.518991E0,5.1119876E0,6.8362594E0,7.8976684E0,9.117786E0,4.2028546E0,5.891644E0,6.6515718E0,7.1831117E0,7.899614E0,8.212026E0,8.77925E0,9.625142E0,6.717409E0,6.973543E0,5.6748147E0,6.833098E0,7.3735037E0,2.424E1,6.913873E0,8.37E0,7.5616417E0,-2.4492937E-16,8.077137E0,8.283431E0,8.263117E0,6.7003307E0,8.96636E0,9.887713E0,2.779E1,3.4965076E0,4.32E0,-0E0,6.375025E0,6.7911124E0,6.19813E0,1.676E1,3.4965076E0,3E1,8.025278E0,1.8342117E-2,8.111897E0,7.6930256E0,1.18E0,6.805751E0,1.072E1,6.482185E0,2.525E1,7.6028028E0,6.9272604E0,4.94E0,5.1202583E0,2.48E0,3.223E1,1.9666667E-1,8.087872E0,1.1E1,1.172E1,9.420844E0,1.354607E1,5.547973E-2,-8.397269E-2,-5.190935E-2,-1.3521516E-1,-7.231895E-2,-5.6261998E-2,-4.616244E-2,-4.2973764E-2,-2.1067766E-2,-3.5988398E-2,-1.601643E-2,-3.0839885E-2,-2.6736734E-2,1.557453E-3,-2.3310874E-2,-4.8269898E-2,-2.0778008E-2,2.3145206E-2,-1.696323E-2,-1.539554E-2,8.840787E-3,-1.2297019E-2,2.0266477E-2,-8.7165935E-3,-1.3437684E-3,-5.759769E-3,-2.569876E-3,2.9063288E-2,-4.42475E-4,-3.2907634E-4,1.0724976E-2,2.3198167E-2,4.1169883E-3,5.1752357E-3,1.5792135E-2,8.399757E-4,7.461189E-3,1.8211516E-3,1.1374621E-2,1.3860042E-2,1.8472498E-2,-1.0774902E-2,1.6625647E-2,1.8866735E-2,2.4086406E-2,2.0045808E-2,-2.5232958E-2,2.341969E-2,2.6853535E-2,-1.8313827E-2,1.4066487E-2,3.1462166E-2,2.6396273E-2,1.2191364E-3,3.443895E-2,3.926415E-2,4.445248E-2,4.717259E-2,1.09818885E-2],"split_indices":[0,0,0,0,0,0,0,5,0,0,0,15,0,0,4,16,3,5,5,5,20,15,17,0,8,3,15,15,16,15,0,22,3,17,0,3,15,15,20,3,13,5,0,5,3,21,5,17,5,18,4,15,17,15,17,22,17,4,12,20,0,14,0,0,0,0,0,0,0,0,0,0,0,0,0,0,0,0,0,0,0,0,0,0,0,0,0,0,0,0,0,0,0,0,0,0,0,0,0,0,0,0,0,0,0,0,0,0,0,0,0,0,0,0,0,0,0,0,0,0,0],"split_type":[0,0,0,0,0,0,0,0,0,0,0,0,0,0,0,0,0,0,0,0,0,0,0,0,0,0,0,0,0,0,0,0,0,0,0,0,0,0,0,0,0,0,0,0,0,0,0,0,0,0,0,0,0,0,0,0,0,0,0,0,0,0,0,0,0,0,0,0,0,0,0,0,0,0,0,0,0,0,0,0,0,0,0,0,0,0,0,0,0,0,0,0,0,0,0,0,0,0,0,0,0,0,0,0,0,0,0,0,0,0,0,0,0,0,0,0,0,0,0,0,0],"sum_hessian":[1.7692E4,8.418E3,9.274E3,3.328E3,5.09E3,5.242E3,4.032E3,4.49E2,2.879E3,2.549E3,2.541E3,2.153E3,3.089E3,2.507E3,1.525E3,1.37E2,3.12E2,1.237E3,1.642E3,1.657E3,8.92E2,1.595E3,9.46E2,1.618E3,5.35E2,1.513E3,1.576E3,1.252E3,1.255E3,1.109E3,4.16E2,9.9E1,3.8E1,3.06E2,6E0,5.57E2,6.8E2,1.584E3,5.8E1,1.627E3,3E1,8.87E2,5E0,7.08E2,8.87E2,8.57E2,8.9E1,5.68E2,1.05E3,9.5E1,4.4E2,8.52E2,6.61E2,6.77E2,8.99E2,1.99E2,1.053E3,2.3E1,1.232E3,4.16E2,6.93E2,2.38E2,1.78E2,8E1,1.9E1,2.4E1,1.4E1,2.13E2,9.3E1,5.45E2,1.2E1,6.65E2,1.5E1,7.1E2,8.74E2,1.5E1,4.3E1,6E0,1.621E3,8E0,2.2E1,8.82E2,5E0,7.01E2,7E0,8.16E2,7.1E1,4.1E2,4.47E2,1.2E1,7.7E1,5.5E2,1.8E1,8E0,1.042E3,1.5E1,8E1,3E1,4.1E2,5.8E1,7.94E2,4.89E2,1.72E2,5E0,6.72E2,6.38E2,2.61E2,1.94E2,5E0,5.08E2,5.45E2,8E0,1.5E1,1.014E3,2.18E2,6E0,4.1E2,3.76E2,3.17E2,2.29E2,9E0],"tree_param":{"num_deleted":"0","num_feature":"23","num_nodes":"121","size_leaf_vector":"1"}},{"base_weights":[-1.5317348E-3,-7.2489655E-1,6.601643E-1,-1.1918875E0,-4.1942632E-1,3.5426852E-1,1.0572877E0,-2.052275E0,-1.0578918E0,-6.102916E-1,-2.3963849E-1,1.8433659E-1,5.524016E-1,9.014531E-1,1.3844312E0,-3.156651E0,-1.8149784E0,-1.2501099E0,-9.110654E-1,-6.757472E-1,-4.9201432E-1,-3.2082054E-1,-1.24899864E-1,9.98472E-2,3.058597E-1,4.792305E-1,6.194548E-1,8.2191074E-1,1.0411243E0,1.276272E0,1.5927029E0,-1.3391797E-1,-2.675334E0,-1.8427781E0,4.6021147E-3,-1.3685917E0,-1.1696619E0,-8.083145E-1,-9.662432E-1,-5.914329E-1,-7.2020876E-1,-4.9937785E-1,1.7918838E-2,-2.3614575E-1,-3.769163E-1,2.8230462E-2,-1.7019667E-1,5.222165E-2,2.1619299E-1,2.2449702E-1,3.84157E-1,5.258922E-1,3.7056804E-1,5.300885E-1,6.76239E-1,2.067893E-1,8.3051234E-1,-0E0,1.0551672E0,-3.516252E-3,1.2880995E0,1.4829471E0,5.5132862E-2,-8.285264E-2,-3.8678367E-2,-6.703416E-2,-5.208129E-2,-4.284537E-2,-3.481517E-2,-3.5514943E-2,-1.9935338E-2,-2.532376E-2,-1.432822E-2,-2.9109636E-2,-1.3767541E-3,-1.807152E-2,6.114079E-3,-5.4291077E-3,-2.1813724E-2,-1.1568484E-2,-1.7094592E-2,-8.133496E-3,-2.6085596E-3,-1.1456088E-2,1.146855E-2,1.1125847E-2,-1.5059799E-3,-1.2400635E-2,-4.706042E-3,2.5270283E-3,-1.0497408E-3,-1.0051881E-2,6.7377347E-3,7.963375E-3,2.1233645E-3,9.919149E-3,1.7960923E-2,-1.39520485E-2,1.5994733E-2,1.16443895E-2,2.1378692E-4,1.94359E-2,1.4794108E-2,1.887766E-2,2.374429E-2,-3.203245E-3,1.9413132E-2,2.2390023E-2,2.6595639E-2,-1.2534956E-2,1.3605317E-2,3.3059593E-2,2.7908247E-2,3.514163E-2,4.119765E-2,4.5253795E-2,1.5584047E-2],"categories":[],"categories_nodes":[],"categories_segments":[],"categories_sizes":[],"default_left":[0,0,0,0,0,0,0,0,0,0,0,0,0,0,0,0,0,0,0,0,0,0,0,0,0,0,0,0,0,0,0,0,0,0,0,0,0,0,0,0,0,0,0,0,0,0,0,0,0,0,0,0,0,0,0,0,0,0,0,0,0,0,0,0,0,0,0,0,0,0,0,0,0,0,0,0,0,0,0,0,0,0,0,0,0,0,0,0,0,0,0,0,0,0,0,0,0,0,0,0,0,0,0,0,0,0,0,0,0,0,0,0,0,0,0,0,0],"id":12,"left_children":[1,3,5,7,9,11,13,15,17,19,21,23,25,27,29,31,33,35,37,39,41,43,45,47,49,51,53,55,57,59,61,-1,63,65,-1,67,69,71,73,75,77,79,-1,81,83,85,87,89,91,93,95,97,99,101,103,105,107,109,111,-1,113,115,-1,-1,-1,-1,-1,-1,-1,-1,-1,-1,-1,-1,-1,-1,-1,-1,-1,-1,-1,-1,-1,-1,-1,-1,-1,-1,-1,-1,-1,-1,-1,-1,-1,-1,-1,-1,-1,-1,-1,-1,-1,-1,-1,-1,-1,-1,-1,-1,-1,-1,-1,-1,-1,-1,-1],"loss_changes":[8.506538E3,1.2101133E3,1.1266572E3,3.8308594E2,1.7583667E2,1.763114E2,2.035039E2,1.084718E2,7.991675E1,1.854126E1,2.4511475E1,2.8893898E1,1.1210815E1,2.8779053E1,2.565039E1,2.9422668E1,2.125476E1,9.048584E0,7.853882E0,5.0873413E0,7.5947113E0,7.0990906E0,7.669016E0,9.185677E0,7.122734E0,5.4379272E0,5.597229E0,8.812744E0,1.4596313E1,1.4692261E1,7.0151367E0,0E0,1.0957336E0,8.835083E0,0E0,3.164795E0,3.8795166E0,6.1004333E0,3.7364502E0,5.1537933E0,3.4899292E0,6.5993958E0,0E0,3.140873E0,3.7068024E0,6.8504877E0,2.5451221E0,3.3324647E0,2.3291683E0,3.5082207E0,6.251358E0,6.221054E0,2.1943588E0,1.4533081E0,3.0917969E0,3.870484E0,6.8304443E0,3.0264988E0,3.7540283E0,0E0,5.5906982E0,6.0514526E0,0E0,0E0,0E0,0E0,0E0,0E0,0E0,0E0,0E0,0E0,0E0,0E0,0E0,0E0,0E0,0E0,0E0,0E0,0E0,0E0,0E0,0E0,0E0,0E0,0E0,0E0,0E0,0E0,0E0,0E0,0E0,0E0,0E0,0E0,0E0,0E0,0E0,0E0,0E0,0E0,0E0,0E0,0E0,0E0,0E0,0E0,0E0,0E0,0E0,0E0,0E0,0E0,0E0,0E0,0E0],"parents":[2147483647,0,0,1,1,2,2,3,3,4,4,5,5,6,6,7,7,8,8,9,9,10,10,11,11,12,12,13,13,14,14,15,15,16,16,17,17,18,18,19,19,20,20,21,21,22,22,23,23,24,24,25,25,26,26,27,27,28,28,29,29,30,30,32,32,33,33,35,35,36,36,37,37,38,38,39,39,40,40,41,41,43,43,44,44,45,45,46,46,47,47,48,48,49,49,50,50,51,51,52,52,53,53,54,54,55,55,56,56,57,57,58,58,60,60,61,61],"right_children":[2,4,6,8,10,12,14,16,18,20,22,24,26,28,30,32,34,36,38,40,42,44,46,48,50,52,54,56,58,60,62,-1,64,66,-1,68,70,72,74,76,78,80,-1,82,84,86,88,90,92,94,96,98,100,102,104,106,108,110,112,-1,114,116,-1,-1,-1,-1,-1,-1,-1,-1,-1,-1,-1,-1,-1,-1,-1,-1,-1,-1,-1,-1,-1,-1,-1,-1,-1,-1,-1,-1,-1,-1,-1,-1,-1,-1,-1,-1,-1,-1,-1,-1,-1,-1,-1,-1,-1,-1,-1,-1,-1,-1,-1,-1,-1,-1,-1],"split_conditions":[7.4145727E0,6.317165E0,8.518991E0,5.1119876E0,6.8211074E0,8.05166E0,9.199381E0,3.6888795E0,5.891644E0,6.6359468E0,7.1553965E0,7.759187E0,8.263117E0,8.889722E0,9.391859E0,1.15827675E1,6.999251E0,5.6777763E0,-1.8369701E-16,-1.8369701E-16,2.424E1,-1.8369701E-16,-5E-1,7.7968802E0,7.955592E0,8.660254E-1,8.289037E0,6.7652893E0,6.20658E0,1.172E1,9.887713E0,-1.3391797E-1,5.622589E0,4.356709E0,4.6021147E-3,5.7525725E0,6.668228E0,6.7348056E0,7.629976E0,7.556428E0,4.3307333E0,-1.8369701E-16,1.7918838E-2,7.320527E0,8.978156E0,6.7753663E0,6.20658E0,8.660254E-1,6.531606E0,8.660254E-1,4.94E0,5.1202583E0,2.64E0,1.965E1,2.35E0,6.665199E0,8.656085E0,5.049856E0,8.660254E-1,-3.516252E-3,9.38278E0,1.354607E1,5.5132862E-2,-8.285264E-2,-3.8678367E-2,-6.703416E-2,-5.208129E-2,-4.284537E-2,-3.481517E-2,-3.5514943E-2,-1.9935338E-2,-2.532376E-2,-1.432822E-2,-2.9109636E-2,-1.3767541E-3,-1.807152E-2,6.114079E-3,-5.4291077E-3,-2.1813724E-2,-1.1568484E-2,-1.7094592E-2,-8.133496E-3,-2.6085596E-3,-1.1456088E-2,1.146855E-2,1.1125847E-2,-1.5059799E-3,-1.2400635E-2,-4.706042E-3,2.5270283E-3,-1.0497408E-3,-1.0051881E-2,6.7377347E-3,7.963375E-3,2.1233645E-3,9.919149E-3,1.7960923E-2,-1.39520485E-2,1.5994733E-2,1.16443895E-2,2.1378692E-4,1.94359E-2,1.4794108E-2,1.887766E-2,2.374429E-2,-3.203245E-3,1.9413132E-2,2.2390023E-2,2.6595639E-2,-1.2534956E-2,1.3605317E-2,3.3059593E-2,2.7908247E-2,3.514163E-2,4.119765E-2,4.5253795E-2,1.5584047E-2],"split_indices":[0,0,0,0,0,0,0,2,0,0,0,3,15,0,15,14,15,15,9,9,20,9,9,0,15,9,0,15,15,20,0,0,15,1,0,1,3,15,3,3,3,9,0,3,3,3,15,9,2,9,17,15,17,20,17,16,0,3,9,0,0,14,0,0,0,0,0,0,0,0,0,0,0,0,0,0,0,0,0,0,0,0,0,0,0,0,0,0,0,0,0,0,0,0,0,0,0,0,0,0,0,0,0,0,0,0,0,0,0,0,0,0,0,0,0,0,0],"split_type":[0,0,0,0,0,0,0,0,0,0,0,0,0,0,0,0,0,0,0,0,0,0,0,0,0,0,0,0,0,0,0,0,0,0,0,0,0,0,0,0,0,0,0,0,0,0,0,0,0,0,0,0,0,0,0,0,0,0,0,0,0,0,0,0,0,0,0,0,0,0,0,0,0,0,0,0,0,0,0,0,0,0,0,0,0,0,0,0,0,0,0,0,0,0,0,0,0,0,0,0,0,0,0,0,0,0,0,0,0,0,0,0,0,0,0,0,0],"sum_hessian":[1.7769E4,8.489E3,9.28E3,3.355E3,5.134E3,5.244E3,4.036E3,4.49E2,2.906E3,2.488E3,2.646E3,2.825E3,2.419E3,2.738E3,1.298E3,7.6E1,3.73E2,1.253E3,1.653E3,1.596E3,8.92E2,1.547E3,1.099E3,1.669E3,1.156E3,1.164E3,1.255E3,1.752E3,9.86E2,8.62E2,4.36E2,1.7E1,5.9E1,3.68E2,5E0,4.96E2,7.57E2,5.87E2,1.066E3,5.6E2,1.036E3,8.87E2,5E0,6.21E2,9.26E2,2.5E2,8.49E2,1.187E3,4.82E2,5.71E2,5.85E2,8.09E2,3.55E2,4.95E2,7.6E2,2.5E1,1.727E3,1.3E1,9.73E2,7E0,8.55E2,3.09E2,1.27E2,5.4E1,5E0,7.2E1,2.96E2,3.78E2,1.18E2,7.34E2,2.3E1,5.27E2,6E1,1.061E3,5E0,5.53E2,7E0,1.4E1,1.022E3,3.44E2,5.43E2,5.01E2,1.2E2,9.21E2,5E0,4.6E1,2.04E2,4.1E1,8.08E2,8.7E2,3.17E2,6E0,4.76E2,4.49E2,1.22E2,4.72E2,1.13E2,5E0,8.04E2,3.38E2,1.7E1,1.11E2,3.84E2,5.48E2,2.12E2,1.5E1,1E1,7E2,1.027E3,7E0,6E0,6.98E2,2.75E2,3.71E2,4.84E2,3E2,9E0],"tree_param":{"num_deleted":"0","num_feature":"23","num_nodes":"117","size_leaf_vector":"1"}},{"base_weights":[1.692779E-3,-7.185168E-1,6.317123E-1,-1.2940674E0,-4.8581782E-1,3.2781732E-1,1.020847E0,-2.3399932E0,-1.1719831E0,-7.014429E-1,-2.938131E-1,1.149561E-1,4.7665086E-1,8.948935E-1,1.4277123E0,-1.3413836E-1,-2.1334515E0,-1.4222507E0,-1.0530871E0,-8.105084E-1,-6.2948734E-1,-3.9304373E-1,-1.671113E-1,7.135119E-2,2.5198498E-1,3.5778326E-1,5.555052E-1,7.9372835E-1,1.0486497E0,1.3528051E0,1.6902379E0,-2.470879E0,-1.7413186E0,-1.5395621E0,-1.297099E0,-1.1499772E0,-9.447879E-1,-8.173768E-1,-3.4900274E-2,-4.6927758E-2,-6.246404E-1,-3.9992905E-1,3.5769904E-1,-8.4057465E-2,-2.2418337E-1,3.514818E-1,4.9424727E-2,4.4561458E-1,2.0431867E-1,1.3831715E-1,3.871134E-1,4.883148E-1,6.178924E-1,-1.4550137E-2,7.9819936E-1,5.2765226E-1,1.067582E0,7.5249934E-1,1.3777969E0,1.5728649E0,5.8046974E-2,-9.4197914E-2,-6.575271E-2,-6.1518144E-2,-2.0323968E-2,-4.673147E-2,-1.1497022E-2,-3.962645E-2,-2.0850245E-2,-3.6460336E-2,-3.0925956E-2,-2.8707506E-2,-6.2196027E-3,-2.469451E-2,-4.497113E-3,5.3075203E-3,-8.082996E-3,-1.94585E-2,-1.383596E-2,-8.255284E-3,-1.31912045E-2,-1.4848372E-3,2.3196114E-2,-3.753029E-3,3.471467E-3,-6.914051E-3,1.419559E-2,3.0861994E-2,4.401078E-3,-7.4917986E-4,3.2283976E-3,7.1160696E-3,1.4682053E-2,5.6148157E-3,1.5670693E-2,-9.7828405E-3,5.1745353E-3,1.1119498E-2,2.009065E-2,1.572302E-2,1.1976194E-2,1.6401026E-2,2.0440863E-2,2.1994866E-2,2.6208108E-2,2.0589095E-2,-3.3119712E-3,2.9625526E-2,3.4699585E-2,3.9245836E-2,2.673647E-3,4.28408E-2,3.7213195E-2,2.625353E-2,4.803667E-2],"categories":[],"categories_nodes":[],"categories_segments":[],"categories_sizes":[],"default_left":[0,0,0,0,0,0,0,0,0,0,0,0,0,0,0,0,0,0,0,0,0,0,0,0,0,0,0,0,0,0,0,0,0,0,0,0,0,0,0,0,0,0,0,0,0,0,0,0,0,0,0,0,0,0,0,0,0,0,0,0,0,0,0,0,0,0,0,0,0,0,0,0,0,0,0,0,0,0,0,0,0,0,0,0,0,0,0,0,0,0,0,0,0,0,0,0,0,0,0,0,0,0,0,0,0,0,0,0,0,0,0,0,0,0,0],"id":13,"left_children":[1,3,5,7,9,11,13,15,17,19,21,23,25,27,29,-1,31,33,35,37,39,41,43,45,47,49,51,53,55,57,59,61,63,65,67,69,71,73,75,-1,77,79,81,83,85,87,89,91,93,95,97,99,101,-1,103,105,107,109,111,113,-1,-1,-1,-1,-1,-1,-1,-1,-1,-1,-1,-1,-1,-1,-1,-1,-1,-1,-1,-1,-1,-1,-1,-1,-1,-1,-1,-1,-1,-1,-1,-1,-1,-1,-1,-1,-1,-1,-1,-1,-1,-1,-1,-1,-1,-1,-1,-1,-1,-1,-1,-1,-1,-1,-1],"loss_changes":[8.088461E3,1.1126641E3,1.123666E3,3.008125E2,2.448136E2,1.6902301E2,2.1123828E2,9.3759766E1,6.112915E1,2.0838257E1,3.9236267E1,1.3056639E1,2.8974548E1,4.7963867E1,1.5282349E1,0E0,2.307019E1,6.5162354E0,1.3286987E1,5.659973E0,5.746887E0,9.307739E0,6.4584694E0,1.0166716E1,4.6205215E0,7.915512E0,7.2297974E0,1.1674561E1,1.1259277E1,9.608398E0,8.0700684E-1,1.0927063E1,3.4058014E1,5.968872E0,3.1241455E0,3.61615E0,5.7263794E0,3.8304443E0,6.6130364E-1,0E0,5.9225464E0,8.32251E0,2.9937956E0,4.6685433E0,3.6937332E0,1.6250317E1,6.745778E0,6.159401E-1,2.0497437E0,2.457608E0,4.576523E0,2.424057E0,3.580841E0,0E0,8.150879E0,5.037135E0,6.511841E0,1.2263592E1,1.911377E0,4.0045166E-1,0E0,0E0,0E0,0E0,0E0,0E0,0E0,0E0,0E0,0E0,0E0,0E0,0E0,0E0,0E0,0E0,0E0,0E0,0E0,0E0,0E0,0E0,0E0,0E0,0E0,0E0,0E0,0E0,0E0,0E0,0E0,0E0,0E0,0E0,0E0,0E0,0E0,0E0,0E0,0E0,0E0,0E0,0E0,0E0,0E0,0E0,0E0,0E0,0E0,0E0,0E0,0E0,0E0,0E0,0E0],"parents":[2147483647,0,0,1,1,2,2,3,3,4,4,5,5,6,6,7,7,8,8,9,9,10,10,11,11,12,12,13,13,14,14,16,16,17,17,18,18,19,19,20,20,21,21,22,22,23,23,24,24,25,25,26,26,27,27,28,28,29,29,30,30,31,31,32,32,33,33,34,34,35,35,36,36,37,37,38,38,40,40,41,41,42,42,43,43,44,44,45,45,46,46,47,47,48,48,49,49,50,50,51,51,52,52,54,54,55,55,56,56,57,57,58,58,59,59],"right_children":[2,4,6,8,10,12,14,16,18,20,22,24,26,28,30,-1,32,34,36,38,40,42,44,46,48,50,52,54,56,58,60,62,64,66,68,70,72,74,76,-1,78,80,82,84,86,88,90,92,94,96,98,100,102,-1,104,106,108,110,112,114,-1,-1,-1,-1,-1,-1,-1,-1,-1,-1,-1,-1,-1,-1,-1,-1,-1,-1,-1,-1,-1,-1,-1,-1,-1,-1,-1,-1,-1,-1,-1,-1,-1,-1,-1,-1,-1,-1,-1,-1,-1,-1,-1,-1,-1,-1,-1,-1,-1,-1,-1,-1,-1,-1,-1],"split_conditions":[7.3689704E0,6.09131E0,8.487352E0,4.7095304E0,6.675823E0,7.868254E0,9.347229E0,7.6248837E-3,5.5529594E0,6.3438807E0,7.0535855E0,7.858092E0,8.135933E0,8.912474E0,9.826629E0,-1.3413836E-1,1.78E0,5.273E0,6.0194397E0,7.3336763E0,3.4965076E0,8.320691E0,-1.8369701E-16,-8.660254E-1,-2.4492937E-16,7.4031553E0,8.215817E0,5.31812E0,6.936657E0,6.7911124E0,1.0197574E1,3.636369E0,5.622589E0,6.550112E0,6.196444E0,5.866468E0,7.097135E0,7.629976E0,5E-1,-4.6927758E-2,3.348213E-1,-5E-1,7.4838066E0,7.5873103E0,9.891972E0,7.008548E0,7.5616417E0,7.5683846E0,8.296047E0,6.976348E0,4.4263887E-1,8.660254E-1,8.32579E0,-1.4550137E-2,8.700681E0,8.756667E0,8.892462E0,8.415257E0,8.660254E-1,8.296796E0,5.8046974E-2,-9.4197914E-2,-6.575271E-2,-6.1518144E-2,-2.0323968E-2,-4.673147E-2,-1.1497022E-2,-3.962645E-2,-2.0850245E-2,-3.6460336E-2,-3.0925956E-2,-2.8707506E-2,-6.2196027E-3,-2.469451E-2,-4.497113E-3,5.3075203E-3,-8.082996E-3,-1.94585E-2,-1.383596E-2,-8.255284E-3,-1.31912045E-2,-1.4848372E-3,2.3196114E-2,-3.753029E-3,3.471467E-3,-6.914051E-3,1.419559E-2,3.0861994E-2,4.401078E-3,-7.4917986E-4,3.2283976E-3,7.1160696E-3,1.4682053E-2,5.6148157E-3,1.5670693E-2,-9.7828405E-3,5.1745353E-3,1.1119498E-2,2.009065E-2,1.572302E-2,1.1976194E-2,1.6401026E-2,2.0440863E-2,2.1994866E-2,2.6208108E-2,2.0589095E-2,-3.3119712E-3,2.9625526E-2,3.4699585E-2,3.9245836E-2,2.673647E-3,4.28408E-2,3.7213195E-2,2.625353E-2,4.803667E-2],"split_indices":[0,0,0,0,0,0,0,7,0,0,0,15,0,0,4,0,17,0,15,1,3,2,9,9,8,15,3,3,15,15,0,4,15,15,1,0,2,3,11,0,7,9,1,3,2,15,0,4,1,1,7,9,0,0,0,17,15,4,9,3,0,0,0,0,0,0,0,0,0,0,0,0,0,0,0,0,0,0,0,0,0,0,0,0,0,0,0,0,0,0,0,0,0,0,0,0,0,0,0,0,0,0,0,0,0,0,0,0,0,0,0,0,0,0,0],"split_type":[0,0,0,0,0,0,0,0,0,0,0,0,0,0,0,0,0,0,0,0,0,0,0,0,0,0,0,0,0,0,0,0,0,0,0,0,0,0,0,0,0,0,0,0,0,0,0,0,0,0,0,0,0,0,0,0,0,0,0,0,0,0,0,0,0,0,0,0,0,0,0,0,0,0,0,0,0,0,0,0,0,0,0,0,0,0,0,0,0,0,0,0,0,0,0,0,0,0,0,0,0,0,0,0,0,0,0,0,0,0,0,0,0,0,0],"sum_hessian":[1.7823E4,8.316E3,9.507E3,2.392E3,5.924E3,5.34E3,4.167E3,2.47E2,2.145E3,2.788E3,3.136E3,2.199E3,3.141E3,3.186E3,9.81E2,1.9E1,2.28E2,6.85E2,1.46E3,1.101E3,1.687E3,1.756E3,1.38E3,1.671E3,5.28E2,1.257E3,1.884E3,1.928E3,1.258E3,7.71E2,2.1E2,1.18E2,1.1E2,3.44E2,3.41E2,7.62E2,6.98E2,1.091E3,1E1,6E0,1.681E3,1.741E3,1.5E1,5.65E2,8.15E2,1.19E2,1.552E3,1.01E2,4.27E2,1.5E2,1.107E3,9.15E2,9.69E2,6E0,1.922E3,4.6E1,1.212E3,3.3E1,7.38E2,1.5E2,6E1,3E1,8.8E1,8.4E1,2.6E1,3.38E2,6E0,3.26E2,1.5E1,4.82E2,2.8E2,6.86E2,1.2E1,1.081E3,1E1,5E0,5E0,1.461E3,2.2E2,4.25E2,1.316E3,8E0,7E0,4.7E2,9.5E1,8.09E2,6E0,2.6E1,9.3E1,6.8E2,8.72E2,2E1,8.1E1,4.08E2,1.9E1,9E0,1.41E2,1.05E3,5.7E1,6.46E2,2.69E2,4.65E2,5.04E2,1.042E3,8.8E2,3.7E1,9E0,6.49E2,5.63E2,1.7E1,1.6E1,5.29E2,2.09E2,8E0,1.42E2],"tree_param":{"num_deleted":"0","num_feature":"23","num_nodes":"115","size_leaf_vector":"1"}},{"base_weights":[-4.8639667E-3,-6.9056815E-1,6.0352546E-1,-1.1924593E0,-4.518795E-1,3.0764315E-1,9.5523727E-1,-2.5890996E0,-1.1089721E0,-6.2213784E-1,-2.540841E-1,1.3664888E-1,