{"learner":{"attributes":{"scikit_learn":"{\"_estimator_type\": \"regressor\"}"},"feature_names":["lag1","lag2","lag3","lag12","roll3","roll6","roll12","roll3_std","mom_sin","mom_cos","mom_sin2","mom_cos2","month","trend","log_pop","lga_level","state_level","rainfall_mm_day","temperature_mean_c","humidity_pct","solar_kwh_m2_day","rain_lag1","temp_lag1"],"feature_types":["float","float","float","float","float","float","float","float","float","float","float","float","int","int","float","float","float","float","float","float","float","float","float"],"gradient_booster":{"model":{"cats":{"enc":[],"feature_segments":[],"sorted_idx":[]},"gbtree_model_param":{"num_parallel_tree":"1","num_trees":"700"},"iteration_indptr":[0,1,2,3,4,5,6,7,8,9,10,11,12,13,14,15,16,17,18,19,20,21,22,23,24,25,26,27,28,29,30,31,32,33,34,35,36,37,38,39,40,41,42,43,44,45,46,47,48,49,50,51,52,53,54,55,56,57,58,59,60,61,62,63,64,65,66,67,68,69,70,71,72,73,74,75,76,77,78,79,80,81,82,83,84,85,86,87,88,89,90,91,92,93,94,95,96,97,98,99,100,101,102,103,104,105,106,107,108,109,110,111,112,113,114,115,116,117,118,119,120,121,122,123,124,125,126,127,128,129,130,131,132,133,134,135,136,137,138,139,140,141,142,143,144,145,146,147,148,149,150,151,152,153,154,155,156,157,158,159,160,161,162,163,164,165,166,167,168,169,170,171,172,173,174,175,176,177,178,179,180,181,182,183,184,185,186,187,188,189,190,191,192,193,194,195,196,197,198,199,200,201,202,203,204,205,206,207,208,209,210,211,212,213,214,215,216,217,218,219,220,221,222,223,224,225,226,227,228,229,230,231,232,233,234,235,236,237,238,239,240,241,242,243,244,245,246,247,248,249,250,251,252,253,254,255,256,257,258,259,260,261,262,263,264,265,266,267,268,269,270,271,272,273,274,275,276,277,278,279,280,281,282,283,284,285,286,287,288,289,290,291,292,293,294,295,296,297,298,299,300,301,302,303,304,305,306,307,308,309,310,311,312,313,314,315,316,317,318,319,320,321,322,323,324,325,326,327,328,329,330,331,332,333,334,335,336,337,338,339,340,341,342,343,344,345,346,347,348,349,350,351,352,353,354,355,356,357,358,359,360,361,362,363,364,365,366,367,368,369,370,371,372,373,374,375,376,377,378,379,380,381,382,383,384,385,386,387,388,389,390,391,392,393,394,395,396,397,398,399,400,401,402,403,404,405,406,407,408,409,410,411,412,413,414,415,416,417,418,419,420,421,422,423,424,425,426,427,428,429,430,431,432,433,434,435,436,437,438,439,440,441,442,443,444,445,446,447,448,449,450,451,452,453,454,455,456,457,458,459,460,461,462,463,464,465,466,467,468,469,470,471,472,473,474,475,476,477,478,479,480,481,482,483,484,485,486,487,488,489,490,491,492,493,494,495,496,497,498,499,500,501,502,503,504,505,506,507,508,509,510,511,512,513,514,515,516,517,518,519,520,521,522,523,524,525,526,527,528,529,530,531,532,533,534,535,536,537,538,539,540,541,542,543,544,545,546,547,548,549,550,551,552,553,554,555,556,557,558,559,560,561,562,563,564,565,566,567,568,569,570,571,572,573,574,575,576,577,578,579,580,581,582,583,584,585,586,587,588,589,590,591,592,593,594,595,596,597,598,599,600,601,602,603,604,605,606,607,608,609,610,611,612,613,614,615,616,617,618,619,620,621,622,623,624,625,626,627,628,629,630,631,632,633,634,635,636,637,638,639,640,641,642,643,644,645,646,647,648,649,650,651,652,653,654,655,656,657,658,659,660,661,662,663,664,665,666,667,668,669,670,671,672,673,674,675,676,677,678,679,680,681,682,683,684,685,686,687,688,689,690,691,692,693,694,695,696,697,698,699,700],"tree_info":[0,0,0,0,0,0,0,0,0,0,0,0,0,0,0,0,0,0,0,0,0,0,0,0,0,0,0,0,0,0,0,0,0,0,0,0,0,0,0,0,0,0,0,0,0,0,0,0,0,0,0,0,0,0,0,0,0,0,0,0,0,0,0,0,0,0,0,0,0,0,0,0,0,0,0,0,0,0,0,0,0,0,0,0,0,0,0,0,0,0,0,0,0,0,0,0,0,0,0,0,0,0,0,0,0,0,0,0,0,0,0,0,0,0,0,0,0,0,0,0,0,0,0,0,0,0,0,0,0,0,0,0,0,0,0,0,0,0,0,0,0,0,0,0,0,0,0,0,0,0,0,0,0,0,0,0,0,0,0,0,0,0,0,0,0,0,0,0,0,0,0,0,0,0,0,0,0,0,0,0,0,0,0,0,0,0,0,0,0,0,0,0,0,0,0,0,0,0,0,0,0,0,0,0,0,0,0,0,0,0,0,0,0,0,0,0,0,0,0,0,0,0,0,0,0,0,0,0,0,0,0,0,0,0,0,0,0,0,0,0,0,0,0,0,0,0,0,0,0,0,0,0,0,0,0,0,0,0,0,0,0,0,0,0,0,0,0,0,0,0,0,0,0,0,0,0,0,0,0,0,0,0,0,0,0,0,0,0,0,0,0,0,0,0,0,0,0,0,0,0,0,0,0,0,0,0,0,0,0,0,0,0,0,0,0,0,0,0,0,0,0,0,0,0,0,0,0,0,0,0,0,0,0,0,0,0,0,0,0,0,0,0,0,0,0,0,0,0,0,0,0,0,0,0,0,0,0,0,0,0,0,0,0,0,0,0,0,0,0,0,0,0,0,0,0,0,0,0,0,0,0,0,0,0,0,0,0,0,0,0,0,0,0,0,0,0,0,0,0,0,0,0,0,0,0,0,0,0,0,0,0,0,0,0,0,0,0,0,0,0,0,0,0,0,0,0,0,0,0,0,0,0,0,0,0,0,0,0,0,0,0,0,0,0,0,0,0,0,0,0,0,0,0,0,0,0,0,0,0,0,0,0,0,0,0,0,0,0,0,0,0,0,0,0,0,0,0,0,0,0,0,0,0,0,0,0,0,0,0,0,0,0,0,0,0,0,0,0,0,0,0,0,0,0,0,0,0,0,0,0,0,0,0,0,0,0,0,0,0,0,0,0,0,0,0,0,0,0,0,0,0,0,0,0,0,0,0,0,0,0,0,0,0,0,0,0,0,0,0,0,0,0,0,0,0,0,0,0,0,0,0,0,0,0,0,0,0,0,0,0,0,0,0,0,0,0,0,0,0,0,0,0,0,0,0,0,0,0,0,0,0,0,0,0,0,0,0,0,0,0,0,0,0,0,0,0,0,0,0,0,0,0,0,0,0,0,0,0,0,0,0,0,0,0,0,0,0,0,0,0,0,0,0,0,0,0,0,0,0,0,0,0,0,0,0,0,0,0,0,0,0,0,0,0,0,0,0,0,0,0,0,0,0,0,0,0,0,0,0,0,0,0,0,0,0,0,0,0,0,0,0,0,0,0,0,0,0,0,0,0,0,0,0,0,0,0,0,0,0,0],"trees":[{"base_weights":[3.625454E-3,-9.7573495E-1,9.488304E-1,-1.5694886E0,-5.347912E-1,5.017852E-1,1.5057173E0,-2.1908877E0,-1.209452E0,-6.2128437E-1,9.235553E-1,2.351016E-1,7.6136714E-1,1.2913872E0,2.0100393E0,-4.3083196E0,-2.0655591E0,-1.3414459E0,-6.9968224E-1,-8.754927E-1,-3.5299227E-1,6.093322E-1,1.4583623E0,1.4102884E-1,4.1970602E-1,6.405117E-1,8.6723524E-1,1.1696337E0,1.5056908E0,1.8655357E0,2.3700104E0,-4.703162E0,-4.5432683E-2,-2.4287987E0,-1.8212543E0,-1.4949594E0,-1.1976547E0,-8.4773237E-1,-3.5838982E-1,-9.412988E-1,-5.234182E-1,-4.9695942E-1,-2.0419444E-1,1.8937738E-1,7.589426E-1,3.7577152E-2,5.278889E-2,4.5673467E-2,2.4334244E-1,3.5512736E-1,5.7589084E-1,2.2114784E-1,6.5574974E-1,2.1391565E-1,8.827315E-1,9.306369E-1,1.2123705E0,7.630403E-1,1.5339165E0,1.0041244E0,1.9143254E0,6.715421E-2,7.800872E-2,-1.8978658E-1,-1.21840134E-1,-8.125358E-2,-6.457727E-2,-5.7818513E-2,-4.641759E-2,-4.5355376E-2,-3.0884169E-2,-3.8370777E-2,-3.3471156E-2,-2.5852975E-2,-8.810188E-4,-1.19185345E-2,1.3079748E-2,-3.3239245E-2,-2.4683606E-2,-1.951652E-2,-2.3100963E-3,-1.5263476E-2,1.0006982E-3,-7.139937E-3,2.2903553E-3,-7.010793E-3,7.478552E-3,1.1548224E-2,2.4120647E-2,-5.6010694E-4,3.1078847E-3,5.1606838E-3,8.819581E-3,8.518607E-3,1.3633562E-2,1.3235798E-2,2.0540735E-2,-0E0,1.6644886E-2,1.8073564E-2,2.2139536E-2,-1.30707575E-2,2.1722151E-2,2.4353353E-2,2.8991926E-2,2.9039226E-2,-1.8010497E-2,3.4032892E-2,3.900381E-2,3.8835872E-2,7.2797523E-3,4.3862104E-2,4.948212E-2,5.055325E-2,1.2199179E-2,5.333843E-2,6.2271386E-2],"categories":[],"categories_nodes":[],"categories_segments":[],"categories_sizes":[],"default_left":[0,0,0,0,0,0,0,0,0,0,0,0,0,0,0,0,0,0,0,0,0,0,0,0,0,0,0,0,0,0,0,0,0,0,0,0,0,0,0,0,0,0,0,0,0,0,0,0,0,0,0,0,0,0,0,0,0,0,0,0,0,0,0,0,0,0,0,0,0,0,0,0,0,0,0,0,0,0,0,0,0,0,0,0,0,0,0,0,0,0,0,0,0,0,0,0,0,0,0,0,0,0,0,0,0,0,0,0,0,0,0,0,0,0,0,0,0],"id":0,"left_children":[1,3,5,7,9,11,13,15,17,19,21,23,25,27,29,31,33,35,37,39,41,43,45,47,49,51,53,55,57,59,61,63,-1,65,67,69,71,73,75,77,79,81,83,85,87,-1,-1,89,91,93,95,97,99,101,103,105,107,109,111,113,115,-1,-1,-1,-1,-1,-1,-1,-1,-1,-1,-1,-1,-1,-1,-1,-1,-1,-1,-1,-1,-1,-1,-1,-1,-1,-1,-1,-1,-1,-1,-1,-1,-1,-1,-1,-1,-1,-1,-1,-1,-1,-1,-1,-1,-1,-1,-1,-1,-1,-1,-1,-1,-1,-1,-1,-1],"loss_changes":[1.6419998E4,2.2790957E3,2.2456445E3,8.257051E2,6.3167456E2,3.4632117E2,4.2981152E2,3.4615283E2,1.5654248E2,3.2137512E2,4.539119E1,4.275447E1,3.133191E1,7.052051E1,5.470752E1,7.0257324E1,1.06680664E2,3.7999023E1,2.3935654E1,5.511731E1,4.898886E1,1.0872665E1,2.4462433E0,1.594025E1,7.9138794E0,7.2210693E0,1.3139587E1,1.6351074E1,1.9113525E1,3.2697998E1,4.937744E-1,2.6573975E1,0E0,2.9871582E1,1.736206E1,4.2039795E0,3.8653564E0,3.6713104E0,4.9021034E0,3.8532837E1,2.1657944E1,7.440796E0,1.0818287E1,1.3450888E0,1.5149994E0,0E0,0E0,3.1971197E0,2.6861343E0,3.8614655E0,2.8462677E0,3.2107942E0,4.098816E0,1.1632826E1,6.2768555E0,1.7036636E1,7.755371E0,1.0422745E1,3.8793945E0,1.8694256E1,1.1576416E1,0E0,0E0,0E0,0E0,0E0,0E0,0E0,0E0,0E0,0E0,0E0,0E0,0E0,0E0,0E0,0E0,0E0,0E0,0E0,0E0,0E0,0E0,0E0,0E0,0E0,0E0,0E0,0E0,0E0,0E0,0E0,0E0,0E0,0E0,0E0,0E0,0E0,0E0,0E0,0E0,0E0,0E0,0E0,0E0,0E0,0E0,0E0,0E0,0E0,0E0,0E0,0E0,0E0,0E0,0E0,0E0],"parents":[2147483647,0,0,1,1,2,2,3,3,4,4,5,5,6,6,7,7,8,8,9,9,10,10,11,11,12,12,13,13,14,14,15,15,16,16,17,17,18,18,19,19,20,20,21,21,22,22,23,23,24,24,25,25,26,26,27,27,28,28,29,29,30,30,31,31,33,33,34,34,35,35,36,36,37,37,38,38,39,39,40,40,41,41,42,42,43,43,44,44,47,47,48,48,49,49,50,50,51,51,52,52,53,53,54,54,55,55,56,56,57,57,58,58,59,59,60,60],"right_children":[2,4,6,8,10,12,14,16,18,20,22,24,26,28,30,32,34,36,38,40,42,44,46,48,50,52,54,56,58,60,62,64,-1,66,68,70,72,74,76,78,80,82,84,86,88,-1,-1,90,92,94,96,98,100,102,104,106,108,110,112,114,116,-1,-1,-1,-1,-1,-1,-1,-1,-1,-1,-1,-1,-1,-1,-1,-1,-1,-1,-1,-1,-1,-1,-1,-1,-1,-1,-1,-1,-1,-1,-1,-1,-1,-1,-1,-1,-1,-1,-1,-1,-1,-1,-1,-1,-1,-1,-1,-1,-1,-1,-1,-1,-1,-1,-1,-1],"split_conditions":[7.4048877E0,6.364751E0,8.493924E0,5.7365723E0,4.542522E0,7.979339E0,9.236008E0,2.9801977E0,6.452049E0,6.828712E0,8.4203205E0,7.601762E0,8.229511E0,8.899594E0,9.662406E0,4.75359E0,5.26269E0,6.079933E0,6.828712E0,6.8209E0,7.116394E0,7.8128095E0,8.950463E0,7.6463537E0,2.53E0,6.4759207E0,6.31811E0,8.043833E0,6.752346E0,6.4759207E0,1.0027252E1,1.15827675E1,-4.5432683E-2,4.9416423E0,5.8594165E0,6.4702287E0,6.2383246E0,2.2333334E1,1.1E1,6.464588E0,4.0980625E0,7.749044E0,8.37E0,6.7120037E0,7.2650094E0,3.7577152E-2,5.278889E-2,2.622E1,2.15E0,7.8446326E0,7.758465E0,7.6878724E0,2.35E0,7.896212E0,8.119128E0,3.328E1,8.708309E0,1.2246469E-16,8.642978E0,7.661527E0,9.465525E0,6.715421E-2,7.800872E-2,-1.8978658E-1,-1.21840134E-1,-8.125358E-2,-6.457727E-2,-5.7818513E-2,-4.641759E-2,-4.5355376E-2,-3.0884169E-2,-3.8370777E-2,-3.3471156E-2,-2.5852975E-2,-8.810188E-4,-1.19185345E-2,1.3079748E-2,-3.3239245E-2,-2.4683606E-2,-1.951652E-2,-2.3100963E-3,-1.5263476E-2,1.0006982E-3,-7.139937E-3,2.2903553E-3,-7.010793E-3,7.478552E-3,1.1548224E-2,2.4120647E-2,-5.6010694E-4,3.1078847E-3,5.1606838E-3,8.819581E-3,8.518607E-3,1.3633562E-2,1.3235798E-2,2.0540735E-2,-0E0,1.6644886E-2,1.8073564E-2,2.2139536E-2,-1.30707575E-2,2.1722151E-2,2.4353353E-2,2.8991926E-2,2.9039226E-2,-1.8010497E-2,3.4032892E-2,3.900381E-2,3.8835872E-2,7.2797523E-3,4.3862104E-2,4.948212E-2,5.055325E-2,1.2199179E-2,5.333843E-2,6.2271386E-2],"split_indices":[0,1,0,0,7,0,0,6,0,0,15,15,0,0,4,0,1,0,0,15,0,15,15,0,17,16,15,15,15,16,0,14,0,0,15,15,0,20,12,0,7,6,17,6,6,0,0,22,21,0,15,6,17,4,15,22,0,10,15,1,0,0,0,0,0,0,0,0,0,0,0,0,0,0,0,0,0,0,0,0,0,0,0,0,0,0,0,0,0,0,0,0,0,0,0,0,0,0,0,0,0,0,0,0,0,0,0,0,0,0,0,0,0,0,0,0,0],"split_type":[0,0,0,0,0,0,0,0,0,0,0,0,0,0,0,0,0,0,0,0,0,0,0,0,0,0,0,0,0,0,0,0,0,0,0,0,0,0,0,0,0,0,0,0,0,0,0,0,0,0,0,0,0,0,0,0,0,0,0,0,0,0,0,0,0,0,0,0,0,0,0,0,0,0,0,0,0,0,0,0,0,0,0,0,0,0,0,0,0,0,0,0,0,0,0,0,0,0,0,0,0,0,0,0,0,0,0,0,0,0,0,0,0,0,0,0,0],"sum_hessian":[1.7735E4,8.71E3,9.025E3,3.71E3,5E3,5.008E3,4.017E3,1.358E3,2.352E3,4.721E3,2.79E2,2.472E3,2.536E3,2.823E3,1.194E3,7.3E1,1.285E3,1.866E3,4.86E2,2.422E3,2.299E3,1.78E2,1.01E2,1.64E3,8.32E2,1.19E3,1.346E3,1.807E3,1.016E3,8.59E2,3.35E2,6.3E1,1E1,5.11E2,7.74E2,8.95E2,9.71E2,3.37E2,1.49E2,2.038E3,3.84E2,1.166E3,1.133E3,4.8E1,1.3E2,6.5E1,3.6E1,8.51E2,7.89E2,5.93E2,2.39E2,4.3E1,1.147E3,3.2E1,1.314E3,2.8E2,1.527E3,3.9E1,9.77E2,4.8E1,8.11E2,2.24E2,1.11E2,1.4E1,4.9E1,2.47E2,2.64E2,5.51E2,2.23E2,8.6E2,3.5E1,4.75E2,4.96E2,3.31E2,6E0,1.43E2,6E0,8.41E2,1.197E3,2.98E2,8.6E1,1.141E3,2.5E1,1.012E3,1.21E2,5E0,4.3E1,1.6E1,1.14E2,4.02E2,4.49E2,3.32E2,4.57E2,3.5E2,2.43E2,1.11E2,1.28E2,2.7E1,1.6E1,7.05E2,4.42E2,1.4E1,1.8E1,7.21E2,5.93E2,2.74E2,6E0,8.21E2,7.06E2,1.8E1,2.1E1,6.16E2,3.61E2,2.1E1,2.7E1,4.5E2,3.61E2],"tree_param":{"num_deleted":"0","num_feature":"23","num_nodes":"117","size_leaf_vector":"1"}},{"base_weights":[1.4780156E-3,-9.4379395E-1,9.217544E-1,-1.5172325E0,-5.157709E-1,4.865414E-1,1.4655526E0,-2.1203802E0,-1.1663736E0,-5.977274E-1,8.922568E-1,1.8036985E-1,6.9834363E-1,1.2323478E0,1.9238836E0,-3.7908828E0,-1.9374174E0,-1.3310019E0,-7.463475E-1,-8.5135764E-1,-3.5823762E-1,5.488082E-1,1.3795023E0,1.051892E-1,3.5760668E-1,5.664236E-1,8.281876E-1,1.1363173E0,1.4280679E0,1.692383E0,2.1053114E0,-4.6576853E0,-8.9889705E-2,-2.2292624E0,-1.7715319E0,-1.451306E0,-1.1925198E0,-8.792374E-1,-4.06405E-1,-9.126109E-1,-3.0499104E-1,-5.0595963E-1,-2.0600146E-1,1.8320288E-1,7.365013E-1,3.530684E-2,5.0151974E-2,3.4033826E-3,1.6914088E-1,5.8730704E-1,3.0830798E-1,4.4413063E-1,6.3621974E-1,6.881274E-1,8.889281E-1,-1.8684886E-2,1.1418631E0,4.6293208E-1,1.4590821E0,5.81389E-1,1.7151033E0,1.3439481E0,2.149592E0,-1.9011106E-1,-1.1394101E-1,-7.087203E-2,-5.838552E-2,-5.5924606E-2,-4.278153E-2,-4.5320105E-2,-4.0041205E-2,-3.6689326E-2,-2.9231066E-2,-2.708213E-2,-2.127984E-3,-1.3066876E-2,1.1197789E-2,-3.0902434E-2,-2.2990288E-2,-4.2715888E-3,-2.6774462E-2,-1.5392666E-2,2.2318313E-2,-1.0564477E-3,-7.905013E-3,-1.3515191E-2,9.028027E-3,1.3043686E-2,2.2854006E-2,-2.5522996E-2,4.1247046E-4,7.886373E-3,3.531129E-3,8.828661E-3,1.8753907E-2,8.703627E-3,1.9652441E-2,1.5068155E-2,8.321786E-3,1.7702805E-2,2.425854E-2,7.2725955E-3,2.1743124E-2,2.3228377E-2,2.7941784E-2,2.952265E-2,3.5985705E-2,3.3767782E-2,-4.4810865E-3,4.542144E-2,3.875449E-2,2.749763E-2,4.784939E-3,4.432613E-2,5.368307E-2,5.1752444E-2,7.0209065E-3,6.176253E-2,7.655383E-2],"categories":[],"categories_nodes":[],"categories_segments":[],"categories_sizes":[],"default_left":[0,0,0,0,0,0,0,0,0,0,0,0,0,0,0,0,0,0,0,0,0,0,0,0,0,0,0,0,0,0,0,0,0,0,0,0,0,0,0,0,0,0,0,0,0,0,0,0,0,0,0,0,0,0,0,0,0,0,0,0,0,0,0,0,0,0,0,0,0,0,0,0,0,0,0,0,0,0,0,0,0,0,0,0,0,0,0,0,0,0,0,0,0,0,0,0,0,0,0,0,0,0,0,0,0,0,0,0,0,0,0,0,0,0,0,0,0,0,0],"id":1,"left_children":[1,3,5,7,9,11,13,15,17,19,21,23,25,27,29,31,33,35,37,39,41,43,45,47,49,51,53,55,57,59,61,63,-1,65,67,69,71,73,75,77,79,81,83,85,87,-1,-1,89,91,93,95,97,99,101,103,-1,105,107,109,111,113,115,117,-1,-1,-1,-1,-1,-1,-1,-1,-1,-1,-1,-1,-1,-1,-1,-1,-1,-1,-1,-1,-1,-1,-1,-1,-1,-1,-1,-1,-1,-1,-1,-1,-1,-1,-1,-1,-1,-1,-1,-1,-1,-1,-1,-1,-1,-1,-1,-1,-1,-1,-1,-1,-1,-1,-1,-1],"loss_changes":[1.5503559E4,2.1562485E3,2.1357715E3,7.9058203E2,5.8193835E2,3.250741E2,4.2479492E2,4.0946826E2,1.6256323E2,2.8846216E2,4.4916626E1,2.7226776E1,4.9813477E1,4.713257E1,5.0618164E1,7.016919E1,5.362256E1,2.5305664E1,2.9632202E1,7.666394E1,5.4832153E1,1.0970539E1,3.1992035E0,9.373929E0,6.462532E0,1.196283E1,1.1447144E1,1.8687744E1,2.4659058E1,1.3228149E1,2.0269775E1,5.0655273E1,0E0,9.032227E0,2.1033447E1,2.6739502E0,3.1051025E0,8.874481E0,4.632448E0,3.4135254E1,2.209945E1,1.1598175E1,1.1813515E1,4.5379806E0,9.202576E-2,0E0,0E0,4.803241E0,4.1517944E0,7.094116E-1,2.7202682E0,4.894249E0,6.4437256E0,7.0313416E0,3.6087646E0,0E0,1.4081299E1,1.241701E1,4.2507324E0,1.6160431E0,5.772705E0,1.8250313E1,1.7010254E1,0E0,0E0,0E0,0E0,0E0,0E0,0E0,0E0,0E0,0E0,0E0,0E0,0E0,0E0,0E0,0E0,0E0,0E0,0E0,0E0,0E0,0E0,0E0,0E0,0E0,0E0,0E0,0E0,0E0,0E0,0E0,0E0,0E0,0E0,0E0,0E0,0E0,0E0,0E0,0E0,0E0,0E0,0E0,0E0,0E0,0E0,0E0,0E0,0E0,0E0,0E0,0E0,0E0,0E0,0E0,0E0],"parents":[2147483647,0,0,1,1,2,2,3,3,4,4,5,5,6,6,7,7,8,8,9,9,10,10,11,11,12,12,13,13,14,14,15,15,16,16,17,17,18,18,19,19,20,20,21,21,22,22,23,23,24,24,25,25,26,26,27,27,28,28,29,29,30,30,31,31,33,33,34,34,35,35,36,36,37,37,38,38,39,39,40,40,41,41,42,42,43,43,44,44,47,47,48,48,49,49,50,50,51,51,52,52,53,53,54,54,56,56,57,57,58,58,59,59,60,60,61,61,62,62],"right_children":[2,4,6,8,10,12,14,16,18,20,22,24,26,28,30,32,34,36,38,40,42,44,46,48,50,52,54,56,58,60,62,64,-1,66,68,70,72,74,76,78,80,82,84,86,88,-1,-1,90,92,94,96,98,100,102,104,-1,106,108,110,112,114,116,118,-1,-1,-1,-1,-1,-1,-1,-1,-1,-1,-1,-1,-1,-1,-1,-1,-1,-1,-1,-1,-1,-1,-1,-1,-1,-1,-1,-1,-1,-1,-1,-1,-1,-1,-1,-1,-1,-1,-1,-1,-1,-1,-1,-1,-1,-1,-1,-1,-1,-1,-1,-1,-1,-1,-1,-1],"split_conditions":[7.4048877E0,6.364751E0,8.493924E0,5.7365723E0,7.7504053E0,7.886081E0,9.180706E0,3.647118E0,6.35437E0,6.783325E0,8.3910055E0,7.601762E0,8.203304E0,8.899594E0,9.465525E0,2.9801977E0,5.3082676E0,6.079933E0,6.767343E0,7.1762547E0,7.104144E0,8.144098E0,8.87778E0,7.565275E0,-2.4492937E-16,7.7392178E0,7.935389E0,5.3488946E0,6.752346E0,6.4759207E0,7.0502324E0,1.15827675E1,-8.9889705E-2,5.220356E0,5.9599032E0,6.0279393E0,6.598509E0,6.884863E0,1.1E1,6.5453496E0,8E0,8.452121E0,-5E-1,-4.8985874E-16,7.2650094E0,3.530684E-2,5.0151974E-2,5.1227517E0,-1.8369701E-16,7.0813503E0,8.299535E0,8.660254E-1,4.42E0,7.488853E0,8.293049E0,-1.8684886E-2,8.161646E0,1.2246469E-16,8.660254E-1,9.266532E0,8.620572E0,9.688189E0,1.0027252E1,-1.9011106E-1,-1.1394101E-1,-7.087203E-2,-5.838552E-2,-5.5924606E-2,-4.278153E-2,-4.5320105E-2,-4.0041205E-2,-3.6689326E-2,-2.9231066E-2,-2.708213E-2,-2.127984E-3,-1.3066876E-2,1.1197789E-2,-3.0902434E-2,-2.2990288E-2,-4.2715888E-3,-2.6774462E-2,-1.5392666E-2,2.2318313E-2,-1.0564477E-3,-7.905013E-3,-1.3515191E-2,9.028027E-3,1.3043686E-2,2.2854006E-2,-2.5522996E-2,4.1247046E-4,7.886373E-3,3.531129E-3,8.828661E-3,1.8753907E-2,8.703627E-3,1.9652441E-2,1.5068155E-2,8.321786E-3,1.7702805E-2,2.425854E-2,7.2725955E-3,2.1743124E-2,2.3228377E-2,2.7941784E-2,2.952265E-2,3.5985705E-2,3.3767782E-2,-4.4810865E-3,4.542144E-2,3.875449E-2,2.749763E-2,4.784939E-3,4.432613E-2,5.368307E-2,5.1752444E-2,7.0209065E-3,6.176253E-2,7.655383E-2],"split_indices":[0,1,0,0,15,0,0,5,0,0,15,15,0,0,0,6,2,0,0,1,0,1,15,0,8,15,15,15,15,16,15,14,0,0,15,15,3,5,12,0,12,3,9,10,6,0,0,6,9,6,1,9,17,1,0,0,15,10,9,0,15,1,0,0,0,0,0,0,0,0,0,0,0,0,0,0,0,0,0,0,0,0,0,0,0,0,0,0,0,0,0,0,0,0,0,0,0,0,0,0,0,0,0,0,0,0,0,0,0,0,0,0,0,0,0,0,0,0,0],"split_type":[0,0,0,0,0,0,0,0,0,0,0,0,0,0,0,0,0,0,0,0,0,0,0,0,0,0,0,0,0,0,0,0,0,0,0,0,0,0,0,0,0,0,0,0,0,0,0,0,0,0,0,0,0,0,0,0,0,0,0,0,0,0,0,0,0,0,0,0,0,0,0,0,0,0,0,0,0,0,0,0,0,0,0,0,0,0,0,0,0,0,0,0,0,0,0,0,0,0,0,0,0,0,0,0,0,0,0,0,0,0,0,0,0,0,0,0,0,0,0],"sum_hessian":[1.7819E4,8.79E3,9.029E3,3.755E3,5.035E3,5.017E3,4.012E3,1.378E3,2.377E3,4.759E3,2.76E2,2.053E3,2.964E3,2.663E3,1.349E3,1.33E2,1.245E3,1.705E3,6.72E2,2.309E3,2.45E3,1.64E2,1.12E2,1.444E3,6.09E2,1.475E3,1.489E3,1.794E3,8.69E2,6E2,7.49E2,6E1,7.3E1,4.44E2,8.01E2,9.04E2,8.01E2,4.81E2,1.91E2,2.075E3,2.34E2,1.241E3,1.209E3,5.7E1,1.07E2,7.1E1,4.1E1,5.59E2,8.85E2,1.04E2,5.05E2,5.41E2,9.34E2,4.57E2,1.032E3,5E0,1.789E3,2.8E1,8.41E2,1.3E1,5.87E2,4.4E1,7.05E2,1.7E1,4.3E1,2.94E2,1.5E2,6.26E2,1.75E2,5.86E2,3.18E2,6.96E2,1.05E2,4.67E2,1.4E1,1.85E2,6E0,1.145E3,9.3E2,1.85E2,4.9E1,1.235E3,6E0,3.06E2,9.03E2,8E0,4.9E1,1.1E1,9.6E1,5E0,5.54E2,3.1E2,5.75E2,1.4E1,9E1,4.83E2,2.2E1,3.98E2,1.43E2,7.43E2,1.91E2,3.6E1,4.21E2,2.88E2,7.44E2,4.87E2,1.302E3,1.3E1,1.5E1,6.23E2,2.18E2,6E0,7E0,1.48E2,4.39E2,3.2E1,1.2E1,5.83E2,1.22E2],"tree_param":{"num_deleted":"0","num_feature":"23","num_nodes":"119","size_leaf_vector":"1"}},{"base_weights":[5.6609293E-3,-8.415777E-1,9.285426E-1,-1.3197689E0,-2.8729784E-1,5.8179116E-1,1.4846324E0,-2.108961E0,-1.1196567E0,-4.898616E-1,1.12025745E-1,2.86869E-1,8.1769466E-1,1.2655352E0,1.9012051E0,-3.656778E0,-1.855307E0,-1.2905988E0,-8.947701E-1,-3.0100793E-1,-6.049121E-1,5.041346E-2,1.3261217E0,1.2807326E-1,5.0060356E-1,7.371094E-1,1.0516474E0,1.1835207E0,1.5230296E0,1.7216756E0,2.1006253E0,-1.693268E-1,-3.2910132E0,-2.1535704E0,-1.5799612E0,-1.5117856E0,-1.1400442E0,-9.9491507E-1,-6.997725E-1,-4.1563207E-1,-4.7316443E-2,-7.3899734E-1,-4.2681897E-1,4.1142154E-1,-2.3194766E-2,9.787052E-1,5.3021558E-2,2.300513E-2,3.1398788E-1,4.2865545E-1,6.8177414E-1,6.323828E-1,8.788054E-1,1.187178E0,8.9096606E-1,1.0498428E0,1.2944113E0,1.436509E0,5.0599832E-2,1.3123188E0,5.287271E-2,1.9880006E0,7.026422E-2,-1.0157955E-1,-2.3957858E-2,-7.0875674E-2,-5.9071016E-2,-4.9469944E-2,-2.7457122E-2,-3.8500056E-2,-4.7757186E-2,-3.470632E-2,-3.3435938E-3,-4.3681066E-2,-2.9181367E-2,-2.2294803E-2,-3.7786919E-3,-4.664742E-3,-1.48305725E-2,-2.792806E-3,4.594988E-2,-2.2418186E-2,2.0199055E-2,-1.3018748E-2,1.4187253E-2,7.884808E-3,3.591434E-2,-5.372814E-3,2.1047199E-3,7.247422E-3,3.2534067E-2,-4.1468344E-3,4.0019173E-3,6.724515E-3,1.3919525E-2,1.0718115E-2,1.9166624E-2,1.418479E-2,2.365301E-2,1.7095752E-2,2.2517297E-2,2.247156E-2,2.901069E-2,2.024832E-2,3.700254E-2,2.1355791E-2,2.9110178E-2,2.8980888E-2,3.76866E-2,3.6135998E-2,4.2261712E-2,4.087376E-2,4.7841143E-2,2.280297E-3,4.404628E-2,5.510818E-2,6.370103E-2],"categories":[],"categories_nodes":[],"categories_segments":[],"categories_sizes":[],"default_left":[0,0,0,0,0,0,0,0,0,0,0,0,0,0,0,0,0,0,0,0,0,0,0,0,0,0,0,0,0,0,0,0,0,0,0,0,0,0,0,0,0,0,0,0,0,0,0,0,0,0,0,0,0,0,0,0,0,0,0,0,0,0,0,0,0,0,0,0,0,0,0,0,0,0,0,0,0,0,0,0,0,0,0,0,0,0,0,0,0,0,0,0,0,0,0,0,0,0,0,0,0,0,0,0,0,0,0,0,0,0,0,0,0,0,0,0,0],"id":2,"left_children":[1,3,5,7,9,11,13,15,17,19,21,23,25,27,29,31,33,35,37,39,41,43,45,47,49,51,53,55,57,59,61,-1,63,65,67,69,71,73,75,77,79,81,83,85,87,89,-1,91,93,95,97,99,101,103,105,107,109,111,-1,113,-1,115,-1,-1,-1,-1,-1,-1,-1,-1,-1,-1,-1,-1,-1,-1,-1,-1,-1,-1,-1,-1,-1,-1,-1,-1,-1,-1,-1,-1,-1,-1,-1,-1,-1,-1,-1,-1,-1,-1,-1,-1,-1,-1,-1,-1,-1,-1,-1,-1,-1,-1,-1,-1,-1,-1,-1],"loss_changes":[1.3873287E4,2.4509712E3,1.6358574E3,7.7999805E2,3.468864E2,3.6353857E2,2.9334326E2,3.823125E2,1.5023633E2,6.135016E1,1.0760287E2,7.880769E1,5.3276123E1,4.1979492E1,3.3926514E1,7.175806E1,6.514697E1,7.176099E1,3.2156128E1,3.1297943E1,4.1453247E1,3.6643345E1,7.5106583E0,2.6067625E1,1.2263657E1,3.102832E1,1.4123901E1,2.167749E1,2.982666E0,5.898926E0,6.38916E0,0E0,2.3867188E1,7.984497E0,1.8126465E1,1.2934326E1,2.2832031E1,8.963989E0,1.4337402E1,1.4980392E1,2.4393309E1,1.2509705E1,5.197891E0,2.6498154E1,1.6682564E1,2.6551552E0,0E0,1.5289203E1,6.208187E0,1.0181168E1,5.395294E0,8.350281E0,9.061035E0,7.7609863E0,3.539154E0,1.0682129E1,6.0195312E0,1.9683838E-1,0E0,1.1183861E1,0E0,8.720703E-1,0E0,0E0,0E0,0E0,0E0,0E0,0E0,0E0,0E0,0E0,0E0,0E0,0E0,0E0,0E0,0E0,0E0,0E0,0E0,0E0,0E0,0E0,0E0,0E0,0E0,0E0,0E0,0E0,0E0,0E0,0E0,0E0,0E0,0E0,0E0,0E0,0E0,0E0,0E0,0E0,0E0,0E0,0E0,0E0,0E0,0E0,0E0,0E0,0E0,0E0,0E0,0E0,0E0,0E0,0E0],"parents":[2147483647,0,0,1,1,2,2,3,3,4,4,5,5,6,6,7,7,8,8,9,9,10,10,11,11,12,12,13,13,14,14,15,15,16,16,17,17,18,18,19,19,20,20,21,21,22,22,23,23,24,24,25,25,26,26,27,27,28,28,29,29,30,30,32,32,33,33,34,34,35,35,36,36,37,37,38,38,39,39,40,40,41,41,42,42,43,43,44,44,45,45,47,47,48,48,49,49,50,50,51,51,52,52,53,53,54,54,55,55,56,56,57,57,59,59,61,61],"right_children":[2,4,6,8,10,12,14,16,18,20,22,24,26,28,30,32,34,36,38,40,42,44,46,48,50,52,54,56,58,60,62,-1,64,66,68,70,72,74,76,78,80,82,84,86,88,90,-1,92,94,96,98,100,102,104,106,108,110,112,-1,114,-1,116,-1,-1,-1,-1,-1,-1,-1,-1,-1,-1,-1,-1,-1,-1,-1,-1,-1,-1,-1,-1,-1,-1,-1,-1,-1,-1,-1,-1,-1,-1,-1,-1,-1,-1,-1,-1,-1,-1,-1,-1,-1,-1,-1,-1,-1,-1,-1,-1,-1,-1,-1,-1,-1,-1,-1],"split_conditions":[7.2645793E0,6.6280413E0,8.311163E0,5.5301185E0,7.338888E0,8.031711E0,9.207637E0,3.647118E0,6.2565317E0,-1.8369701E-16,8.560302E0,7.685493E0,8.59063E0,8.679623E0,9.54567E0,1.0373303E-2,5.24452E0,5.9532433E0,6.6821084E0,6.884863E0,6.9994226E0,-5E-1,6.8330083E0,2.4E0,1.98E0,8.256866E0,8.660254E-1,8.696009E0,6.35E1,8.591728E0,9.435333E0,-1.693268E-1,2.986234E0,4.8807087E0,6.234411E0,-5E-1,7.20849E0,4.9378424E0,4.0980625E0,-8.660254E-1,1.141646E0,2.374E1,2.402E1,8.9266926E-1,7.370073E0,6.598509E0,5.3021558E-2,7.469084E0,7.8961806E0,8.036633E0,3.6739403E-16,8.036633E0,1.77E0,1.9E1,8.043833E0,6.768E1,5.838E1,8.977224E0,5.0599832E-2,-5E-1,5.287271E-2,1.3E-1,7.026422E-2,-1.0157955E-1,-2.3957858E-2,-7.0875674E-2,-5.9071016E-2,-4.9469944E-2,-2.7457122E-2,-3.8500056E-2,-4.7757186E-2,-3.470632E-2,-3.3435938E-3,-4.3681066E-2,-2.9181367E-2,-2.2294803E-2,-3.7786919E-3,-4.664742E-3,-1.48305725E-2,-2.792806E-3,4.594988E-2,-2.2418186E-2,2.0199055E-2,-1.3018748E-2,1.4187253E-2,7.884808E-3,3.591434E-2,-5.372814E-3,2.1047199E-3,7.247422E-3,3.2534067E-2,-4.1468344E-3,4.0019173E-3,6.724515E-3,1.3919525E-2,1.0718115E-2,1.9166624E-2,1.418479E-2,2.365301E-2,1.7095752E-2,2.2517297E-2,2.247156E-2,2.901069E-2,2.024832E-2,3.700254E-2,2.1355791E-2,2.9110178E-2,2.8980888E-2,3.76866E-2,3.6135998E-2,4.2261712E-2,4.087376E-2,4.7841143E-2,2.280297E-3,4.404628E-2,5.510818E-2,6.370103E-2],"split_indices":[15,1,15,15,1,1,1,5,15,9,5,15,1,15,1,7,5,1,3,5,1,9,15,21,21,3,9,1,19,15,15,0,7,15,1,9,5,5,7,9,7,20,20,7,5,3,0,1,3,15,10,15,21,13,15,19,19,15,0,11,0,17,0,0,0,0,0,0,0,0,0,0,0,0,0,0,0,0,0,0,0,0,0,0,0,0,0,0,0,0,0,0,0,0,0,0,0,0,0,0,0,0,0,0,0,0,0,0,0,0,0,0,0,0,0,0,0],"split_type":[0,0,0,0,0,0,0,0,0,0,0,0,0,0,0,0,0,0,0,0,0,0,0,0,0,0,0,0,0,0,0,0,0,0,0,0,0,0,0,0,0,0,0,0,0,0,0,0,0,0,0,0,0,0,0,0,0,0,0,0,0,0,0,0,0,0,0,0,0,0,0,0,0,0,0,0,0,0,0,0,0,0,0,0,0,0,0,0,0,0,0,0,0,0,0,0,0,0,0,0,0,0,0,0,0,0,0,0,0,0,0,0,0,0,0,0,0],"sum_hessian":[1.774E4,9.249E3,8.491E3,4.964E3,4.285E3,5.232E3,3.259E3,1.001E3,3.963E3,2.843E3,1.442E3,2.327E3,2.905E3,2.14E3,1.119E3,1.38E2,8.63E2,2.247E3,1.716E3,1.079E3,1.764E3,1.374E3,6.8E1,1.337E3,9.9E2,2.166E3,7.39E2,1.63E3,5.1E2,5.97E2,5.22E2,1.8E1,1.2E2,4.09E2,4.54E2,9.04E2,1.343E3,1.129E3,5.87E2,7.42E2,3.37E2,1.003E3,7.61E2,2.32E2,1.142E3,4.1E1,2.7E1,8.56E2,4.81E2,7.13E2,2.77E2,1.251E3,9.15E2,3.95E2,3.44E2,7.47E2,8.83E2,3.44E2,1.66E2,5.9E1,5.38E2,3.66E2,1.56E2,1.15E2,5E0,1.83E2,2.26E2,4.09E2,4.5E1,2.42E2,6.62E2,1.321E3,2.2E1,4.7E1,1.082E3,5.45E2,4.2E1,1.74E2,5.68E2,3.29E2,8E0,9.98E2,5E0,7.56E2,5E0,1.97E2,3.5E1,4.28E2,7.14E2,6E0,3.5E1,3.47E2,5.09E2,3.04E2,1.77E2,5.36E2,1.77E2,9.7E1,1.8E2,8.25E2,4.26E2,3.77E2,5.38E2,3.5E1,3.6E2,1.11E2,2.33E2,5.38E2,2.09E2,5.05E2,3.78E2,2.45E2,9.9E1,7E0,5.2E1,1.84E2,1.82E2],"tree_param":{"num_deleted":"0","num_feature":"23","num_nodes":"117","size_leaf_vector":"1"}},{"base_weights":[-1.6068353E-3,-8.959275E-1,8.6778486E-1,-1.4380401E0,-4.8885864E-1,4.5651633E-1,1.3809701E0,-2.0239978E0,-1.0999207E0,-5.633363E-1,8.073705E-1,1.722267E-1,6.5683013E-1,1.1771772E0,1.8526336E0,-3.5924497E0,-1.8370297E0,-1.2252573E0,-6.090276E-1,-7.8742146E-1,-3.2026988E-1,4.2872703E-1,1.218976E0,1.08283356E-1,3.4693956E-1,5.344585E-1,7.7740204E-1,1.0406854E0,1.3297887E0,1.7325435E0,2.1449962E0,-3.098659E0,-5.026333E0,-2.0992124E0,-1.6539595E0,-1.401195E0,-1.108616E0,-7.258605E-1,-2.5329655E-1,-8.5867184E-1,-4.032226E-1,-4.596774E-1,-1.9077936E-1,5.8230096E-1,-1.4356835E-1,2.7874062E-2,1.4051706E0,9.041558E-3,1.6966486E-1,5.621891E-1,2.9600108E-1,4.230222E-1,5.969E-1,6.455714E-1,8.367797E-1,8.268853E-1,1.0802566E0,5.320088E-1,1.3539869E0,1.050123E0,1.7652719E0,2.0072029E0,7.2567426E-2,-9.733441E-2,-4.6152517E-2,-1.8834035E-1,-1.07109666E-1,-6.764954E-2,-5.631904E-2,-5.2711435E-2,-4.2301938E-2,-4.4203065E-2,-3.9410967E-2,-3.549723E-2,-3.034015E-2,-2.2353478E-2,5.7929126E-3,1.1914917E-2,-9.15719E-3,-2.8246092E-2,-2.0536346E-2,-1.766175E-2,-3.137371E-4,-1.4218866E-2,2.2715052E-4,-2.5195368E-3,-7.823068E-3,1.1940949E-2,1.9602E-2,1.2582962E-2,-1.1115329E-2,1.7899694E-2,4.340941E-2,7.4615143E-3,-3.8295516E-4,7.7717355E-3,3.6515803E-3,7.1734213E-3,1.8446425E-2,8.301308E-3,1.7824523E-2,1.6269617E-2,1.062694E-2,1.6152136E-2,2.0841721E-2,6.7843255E-3,2.0447774E-2,2.3585733E-2,2.8033467E-2,2.5850127E-2,-1.184456E-2,3.0766614E-2,3.4908343E-2,3.7149407E-2,6.2945364E-3,3.876054E-2,4.4308722E-2,6.255745E-2,1.3382032E-2,4.7086146E-2,5.5451304E-2,6.1555322E-2,2.177045E-2],"categories":[],"categories_nodes":[],"categories_segments":[],"categories_sizes":[],"default_left":[0,0,0,0,0,0,0,0,0,0,0,0,0,0,0,0,0,0,0,0,0,0,0,0,0,0,0,0,0,0,0,0,0,0,0,0,0,0,0,0,0,0,0,0,0,0,0,0,0,0,0,0,0,0,0,0,0,0,0,0,0,0,0,0,0,0,0,0,0,0,0,0,0,0,0,0,0,0,0,0,0,0,0,0,0,0,0,0,0,0,0,0,0,0,0,0,0,0,0,0,0,0,0,0,0,0,0,0,0,0,0,0,0,0,0,0,0,0,0,0,0,0,0],"id":3,"left_children":[1,3,5,7,9,11,13,15,17,19,21,23,25,27,29,31,33,35,37,39,41,43,45,47,49,51,53,55,57,59,61,63,65,67,69,71,73,75,77,79,81,83,85,87,89,-1,91,93,95,97,99,101,103,105,107,109,111,113,115,117,119,121,-1,-1,-1,-1,-1,-1,-1,-1,-1,-1,-1,-1,-1,-1,-1,-1,-1,-1,-1,-1,-1,-1,-1,-1,-1,-1,-1,-1,-1,-1,-1,-1,-1,-1,-1,-1,-1,-1,-1,-1,-1,-1,-1,-1,-1,-1,-1,-1,-1,-1,-1,-1,-1,-1,-1,-1,-1,-1,-1,-1,-1],"loss_changes":[1.3819557E4,1.932023E3,1.9008374E3,7.402871E2,4.8396167E2,2.8471338E2,3.8142627E2,3.9150098E2,1.4528613E2,2.5733154E2,4.1356155E1,2.2994835E1,4.2426514E1,5.5847656E1,3.6009766E1,7.732422E1,5.3054688E1,3.6128174E1,1.9830978E1,6.663757E1,4.0797546E1,1.2913195E1,4.563431E0,9.218161E0,5.6475983E0,9.593689E0,1.0435242E1,1.0863403E1,2.3976318E1,1.5942139E1,4.834717E0,1.6924438E1,2.7283325E1,1.0090088E1,1.4042114E1,1.2828369E0,6.110718E0,6.811432E0,4.336148E0,2.8655273E1,2.8176575E1,7.3973083E0,8.73682E0,8.997154E-1,4.2480392E0,0E0,8.4843445E-1,3.1016395E0,3.8946648E0,1.3705864E0,2.1760368E0,3.8943558E0,4.52829E0,6.6201477E0,3.546753E0,1.0781906E1,3.4694824E0,8.764591E0,6.3188477E0,2.5297867E1,8.327881E0,1.0855225E1,0E0,0E0,0E0,0E0,0E0,0E0,0E0,0E0,0E0,0E0,0E0,0E0,0E0,0E0,0E0,0E0,0E0,0E0,0E0,0E0,0E0,0E0,0E0,0E0,0E0,0E0,0E0,0E0,0E0,0E0,0E0,0E0,0E0,0E0,0E0,0E0,0E0,0E0,0E0,0E0,0E0,0E0,0E0,0E0,0E0,0E0,0E0,0E0,0E0,0E0,0E0,0E0,0E0,0E0,0E0,0E0,0E0,0E0,0E0,0E0,0E0],"parents":[2147483647,0,0,1,1,2,2,3,3,4,4,5,5,6,6,7,7,8,8,9,9,10,10,11,11,12,12,13,13,14,14,15,15,16,16,17,17,18,18,19,19,20,20,21,21,22,22,23,23,24,24,25,25,26,26,27,27,28,28,29,29,30,30,31,31,32,32,33,33,34,34,35,35,36,36,37,37,38,38,39,39,40,40,41,41,42,42,43,43,44,44,46,46,47,47,48,48,49,49,50,50,51,51,52,52,53,53,54,54,55,55,56,56,57,57,58,58,59,59,60,60,61,61],"right_children":[2,4,6,8,10,12,14,16,18,20,22,24,26,28,30,32,34,36,38,40,42,44,46,48,50,52,54,56,58,60,62,64,66,68,70,72,74,76,78,80,82,84,86,88,90,-1,92,94,96,98,100,102,104,106,108,110,112,114,116,118,120,122,-1,-1,-1,-1,-1,-1,-1,-1,-1,-1,-1,-1,-1,-1,-1,-1,-1,-1,-1,-1,-1,-1,-1,-1,-1,-1,-1,-1,-1,-1,-1,-1,-1,-1,-1,-1,-1,-1,-1,-1,-1,-1,-1,-1,-1,-1,-1,-1,-1,-1,-1,-1,-1,-1,-1,-1,-1,-1,-1,-1,-1],"split_conditions":[7.4048877E0,6.364751E0,8.493924E0,5.7365723E0,7.7504053E0,7.886081E0,9.236008E0,3.647118E0,6.452049E0,6.828712E0,8.29674E0,7.6461873E0,8.203304E0,8.816112E0,9.662406E0,6.676209E0,5.351858E0,6.0234475E0,6.8906093E0,6.8330083E0,7.104144E0,6.8276377E0,8.547042E0,7.565275E0,-2.4492937E-16,7.7392178E0,7.935389E0,8.015219E0,6.752346E0,6.4759207E0,1.0027252E1,5.9894047E0,1.15827675E1,5.2464633E0,5.8594165E0,5.877114E0,6.2383246E0,6.98957E0,5.5739965E0,6.632002E0,7.2758646E0,7.6492596E0,-1.8369701E-16,7.332156E0,5E-1,2.7874062E-2,7.806508E0,-8.660254E-1,-1.8369701E-16,2.525E1,8.161646E0,-1.8369701E-16,5.838E1,7.488853E0,2.35E0,3.357E1,6.147E1,1.7E-1,8.642978E0,7.397311E0,9.355133E0,3.136E1,7.2567426E-2,-9.733441E-2,-4.6152517E-2,-1.8834035E-1,-1.07109666E-1,-6.764954E-2,-5.631904E-2,-5.2711435E-2,-4.2301938E-2,-4.4203065E-2,-3.9410967E-2,-3.549723E-2,-3.034015E-2,-2.2353478E-2,5.7929126E-3,1.1914917E-2,-9.15719E-3,-2.8246092E-2,-2.0536346E-2,-1.766175E-2,-3.137371E-4,-1.4218866E-2,2.2715052E-4,-2.5195368E-3,-7.823068E-3,1.1940949E-2,1.9602E-2,1.2582962E-2,-1.1115329E-2,1.7899694E-2,4.340941E-2,7.4615143E-3,-3.8295516E-4,7.7717355E-3,3.6515803E-3,7.1734213E-3,1.8446425E-2,8.301308E-3,1.7824523E-2,1.6269617E-2,1.062694E-2,1.6152136E-2,2.0841721E-2,6.7843255E-3,2.0447774E-2,2.3585733E-2,2.8033467E-2,2.5850127E-2,-1.184456E-2,3.0766614E-2,3.4908343E-2,3.7149407E-2,6.2945364E-3,3.876054E-2,4.4308722E-2,6.255745E-2,1.3382032E-2,4.7086146E-2,5.5451304E-2,6.1555322E-2,2.177045E-2],"split_indices":[0,1,0,0,15,0,0,5,0,0,15,15,0,0,4,16,1,0,0,15,0,4,15,0,8,15,15,15,15,16,0,16,14,15,15,15,0,5,15,0,1,6,9,6,8,0,16,9,9,18,15,9,19,1,17,22,19,17,15,5,0,18,0,0,0,0,0,0,0,0,0,0,0,0,0,0,0,0,0,0,0,0,0,0,0,0,0,0,0,0,0,0,0,0,0,0,0,0,0,0,0,0,0,0,0,0,0,0,0,0,0,0,0,0,0,0,0,0,0,0,0,0,0],"split_type":[0,0,0,0,0,0,0,0,0,0,0,0,0,0,0,0,0,0,0,0,0,0,0,0,0,0,0,0,0,0,0,0,0,0,0,0,0,0,0,0,0,0,0,0,0,0,0,0,0,0,0,0,0,0,0,0,0,0,0,0,0,0,0,0,0,0,0,0,0,0,0,0,0,0,0,0,0,0,0,0,0,0,0,0,0,0,0,0,0,0,0,0,0,0,0,0,0,0,0,0,0,0,0,0,0,0,0,0,0,0,0,0,0,0,0,0,0,0,0,0,0,0,0],"sum_hessian":[1.7771E4,8.76E3,9.011E3,3.755E3,5.005E3,5.004E3,4.007E3,1.371E3,2.384E3,4.734E3,2.71E2,2.07E3,2.934E3,2.802E3,1.205E3,1.43E2,1.228E3,1.897E3,4.87E2,2.461E3,2.273E3,1.43E2,1.28E2,1.518E3,5.52E2,1.461E3,1.473E3,1.486E3,1.316E3,8.62E2,3.43E2,1.1E2,3.3E1,4.98E2,7.3E2,7.49E2,1.148E3,3.65E2,1.22E2,2.074E3,3.87E2,1.092E3,1.181E3,1.13E2,3E1,5.4E1,7.4E1,5.82E2,9.36E2,1.02E2,4.5E2,5.3E2,9.31E2,4.64E2,1.009E3,2.38E2,1.248E3,4E1,1.276E3,4.2E1,8.2E2,2.37E2,1.06E2,9.9E1,1.1E1,1.5E1,1.8E1,2.84E2,2.14E2,5.06E2,2.24E2,3.96E2,3.53E2,6.39E2,5.09E2,3.58E2,7E0,8E0,1.14E2,1.4E3,6.74E2,2.62E2,1.25E2,1.06E3,3.2E1,4.7E2,7.11E2,3.5E1,7.8E1,8E0,2.2E1,5E0,6.9E1,4.8E1,5.34E2,3.23E2,6.13E2,1.6E1,8.6E1,4.26E2,2.4E1,1.89E2,3.41E2,5.9E2,3.41E2,3.8E1,4.26E2,6.75E2,3.34E2,2.32E2,6E0,7.67E2,4.81E2,1.1E1,2.9E1,8.61E2,4.15E2,1.4E1,2.8E1,2.54E2,5.66E2,2.28E2,9E0],"tree_param":{"num_deleted":"0","num_feature":"23","num_nodes":"123","size_leaf_vector":"1"}},{"base_weights":[-1.718157E-3,-8.697194E-1,8.416193E-1,-1.3777153E0,-5.031061E-1,4.4446895E-1,1.3439631E0,-1.9516491E0,-1.0319171E0,-5.7820725E-1,8.274621E-1,2.0773365E-1,6.7174584E-1,1.1452E0,1.7982895E0,-3.441702E0,-1.7748461E0,-1.1952888E0,-5.830234E-1,-8.0995035E-1,-3.014109E-1,5.1207495E-1,1.2477882E0,1.2966025E-1,3.8045612E-1,5.5386597E-1,7.5720817E-1,1.0370697E0,1.3332882E0,1.6528391E0,2.0558603E0,-2.9814696E0,-4.773682E0,-2.0144262E0,-1.624559E0,-1.3624518E0,-1.1042109E0,-8.0643773E-1,-3.743346E-1,-8.7128705E-1,-4.747977E-1,-4.6152177E-1,-2.0852563E-1,2.4911188E-1,6.462711E-1,1.0839542E0,4.69667E-2,4.0797196E-2,2.211262E-1,3.1221122E-1,5.069745E-1,-1.55030945E-2,5.6171185E-1,6.6235155E-1,8.503934E-1,-1.2542764E-2,1.0424927E0,6.5972805E-1,1.3563299E0,9.457734E-1,1.6990193E0,5.5912454E-2,6.724495E-2,-9.267657E-2,-4.4539765E-2,-1.7174783E-1,-1.07739575E-1,-6.487965E-2,-5.2028492E-2,-5.1330246E-2,-4.175294E-2,-4.1023806E-2,-1.7099371E-2,-2.9976116E-2,-3.5469644E-2,-2.0432042E-2,-2.5986325E-2,-1.4182266E-2,-3.7393284E-3,-3.2516595E-2,-2.3003798E-2,-1.7697625E-2,-3.7027043E-4,-1.404952E-2,1.3533361E-2,-1.9034325E-3,-7.7210157E-3,1.2499467E-3,9.533023E-3,1.4807901E-2,2.1941373E-2,1.4160642E-2,3.3362404E-2,2.3450288E-3,-2.7741427E-3,-4.7475067E-3,6.9565168E-3,4.9737697E-3,1.0661212E-2,1.4148638E-2,3.299052E-2,1.8444669E-2,1.2628253E-2,2.3423327E-2,1.8888032E-2,2.3511512E-2,2.7377505E-2,2.7919594E-2,3.3076197E-2,2.806566E-2,5.4790266E-3,4.2342197E-2,3.5838414E-2,5.7952326E-2,6.642696E-3,4.733017E-2,5.478276E-2],"categories":[],"categories_nodes":[],"categories_segments":[],"categories_sizes":[],"default_left":[0,0,0,0,0,0,0,0,0,0,0,0,0,0,0,0,0,0,0,0,0,0,0,0,0,0,0,0,0,0,0,0,0,0,0,0,0,0,0,0,0,0,0,0,0,0,0,0,0,0,0,0,0,0,0,0,0,0,0,0,0,0,0,0,0,0,0,0,0,0,0,0,0,0,0,0,0,0,0,0,0,0,0,0,0,0,0,0,0,0,0,0,0,0,0,0,0,0,0,0,0,0,0,0,0,0,0,0,0,0,0,0,0,0,0,0,0],"id":4,"left_children":[1,3,5,7,9,11,13,15,17,19,21,23,25,27,29,31,33,35,37,39,41,43,45,47,49,51,53,55,57,59,61,63,65,67,69,71,73,75,77,79,81,83,85,87,89,91,-1,93,95,97,99,-1,101,103,105,-1,107,109,111,113,115,-1,-1,-1,-1,-1,-1,-1,-1,-1,-1,-1,-1,-1,-1,-1,-1,-1,-1,-1,-1,-1,-1,-1,-1,-1,-1,-1,-1,-1,-1,-1,-1,-1,-1,-1,-1,-1,-1,-1,-1,-1,-1,-1,-1,-1,-1,-1,-1,-1,-1,-1,-1,-1,-1,-1,-1],"loss_changes":[1.3014553E4,1.6303091E3,1.7977925E3,7.2504785E2,5.0944727E2,2.7070856E2,3.5577393E2,3.529536E2,1.6686963E2,3.086256E2,3.4813675E1,3.3138763E1,2.4994507E1,5.385962E1,3.9436523E1,6.568152E1,3.884839E1,2.283545E1,2.8008148E1,5.3021362E1,3.2432465E1,5.1726837E0,2.9376984E0,1.3788162E1,6.225502E0,9.571045E0,1.1974426E1,1.4734741E1,1.3875488E1,2.2545898E1,8.22998E0,1.0188293E1,6.0994263E0,1.309082E1,1.1253418E1,7.6708984E-1,6.7854004E0,1.0200195E0,7.691845E0,4.75791E1,2.167012E1,5.315933E0,9.799618E0,7.129495E-1,5.583534E-1,2.9849243E-1,0E0,4.328397E0,3.491867E0,2.9894104E0,4.4711304E0,0E0,7.4753723E0,1.8642273E0,1.666748E0,0E0,9.890503E0,4.322733E0,5.602539E0,3.570846E1,6.261963E0,0E0,0E0,0E0,0E0,0E0,0E0,0E0,0E0,0E0,0E0,0E0,0E0,0E0,0E0,0E0,0E0,0E0,0E0,0E0,0E0,0E0,0E0,0E0,0E0,0E0,0E0,0E0,0E0,0E0,0E0,0E0,0E0,0E0,0E0,0E0,0E0,0E0,0E0,0E0,0E0,0E0,0E0,0E0,0E0,0E0,0E0,0E0,0E0,0E0,0E0,0E0,0E0,0E0,0E0,0E0,0E0],"parents":[2147483647,0,0,1,1,2,2,3,3,4,4,5,5,6,6,7,7,8,8,9,9,10,10,11,11,12,12,13,13,14,14,15,15,16,16,17,17,18,18,19,19,20,20,21,21,22,22,23,23,24,24,25,25,26,26,27,27,28,28,29,29,30,30,31,31,32,32,33,33,34,34,35,35,36,36,37,37,38,38,39,39,40,40,41,41,42,42,43,43,44,44,45,45,47,47,48,48,49,49,50,50,52,52,53,53,54,54,56,56,57,57,58,58,59,59,60,60],"right_children":[2,4,6,8,10,12,14,16,18,20,22,24,26,28,30,32,34,36,38,40,42,44,46,48,50,52,54,56,58,60,62,64,66,68,70,72,74,76,78,80,82,84,86,88,90,92,-1,94,96,98,100,-1,102,104,106,-1,108,110,112,114,116,-1,-1,-1,-1,-1,-1,-1,-1,-1,-1,-1,-1,-1,-1,-1,-1,-1,-1,-1,-1,-1,-1,-1,-1,-1,-1,-1,-1,-1,-1,-1,-1,-1,-1,-1,-1,-1,-1,-1,-1,-1,-1,-1,-1,-1,-1,-1,-1,-1,-1,-1,-1,-1,-1,-1,-1],"split_conditions":[7.4048877E0,6.3456364E0,8.493924E0,5.765191E0,4.542522E0,7.979339E0,9.236008E0,3.647118E0,6.452049E0,6.828712E0,8.341668E0,7.6461873E0,7.935389E0,8.899594E0,9.1386175E0,6.676209E0,5.3082676E0,6.003887E0,6.694562E0,6.8047004E0,7.044905E0,7.8522353E0,8.977224E0,7.6463537E0,7.866667E-1,4.9865866E0,8.293049E0,5.3488946E0,6.752346E0,6.6250854E0,9.751268E0,5.9894047E0,1.15827675E1,5.220356E0,5.8594165E0,6.461785E0,-1.8369701E-16,-5E-1,7.104144E0,6.35437E0,7.4960976E0,7.9267225E0,-5E-1,7.3530817E0,2.221E1,7.578597E0,4.69667E-2,8.660254E-1,6.3380475E0,7.673688E0,8.269286E0,-1.55030945E-2,8.660254E-1,-2.4492937E-16,1.3E-1,-1.2542764E-2,8.240606E0,2.688E1,8.660254E-1,7.355396E0,9.465525E0,5.5912454E-2,6.724495E-2,-9.267657E-2,-4.4539765E-2,-1.7174783E-1,-1.07739575E-1,-6.487965E-2,-5.2028492E-2,-5.1330246E-2,-4.175294E-2,-4.1023806E-2,-1.7099371E-2,-2.9976116E-2,-3.5469644E-2,-2.0432042E-2,-2.5986325E-2,-1.4182266E-2,-3.7393284E-3,-3.2516595E-2,-2.3003798E-2,-1.7697625E-2,-3.7027043E-4,-1.404952E-2,1.3533361E-2,-1.9034325E-3,-7.7210157E-3,1.2499467E-3,9.533023E-3,1.4807901E-2,2.1941373E-2,1.4160642E-2,3.3362404E-2,2.3450288E-3,-2.7741427E-3,-4.7475067E-3,6.9565168E-3,4.9737697E-3,1.0661212E-2,1.4148638E-2,3.299052E-2,1.8444669E-2,1.2628253E-2,2.3423327E-2,1.8888032E-2,2.3511512E-2,2.7377505E-2,2.7919594E-2,3.3076197E-2,2.806566E-2,5.4790266E-3,4.2342197E-2,3.5838414E-2,5.7952326E-2,6.642696E-3,4.733017E-2,5.478276E-2],"split_indices":[0,2,0,0,7,0,0,5,0,0,15,15,15,0,15,16,2,0,0,15,0,15,15,0,21,15,0,15,15,15,0,16,14,0,15,5,9,9,0,0,2,5,9,3,18,6,0,9,6,0,15,0,9,8,21,0,15,18,9,5,0,0,0,0,0,0,0,0,0,0,0,0,0,0,0,0,0,0,0,0,0,0,0,0,0,0,0,0,0,0,0,0,0,0,0,0,0,0,0,0,0,0,0,0,0,0,0,0,0,0,0,0,0,0,0,0,0],"split_type":[0,0,0,0,0,0,0,0,0,0,0,0,0,0,0,0,0,0,0,0,0,0,0,0,0,0,0,0,0,0,0,0,0,0,0,0,0,0,0,0,0,0,0,0,0,0,0,0,0,0,0,0,0,0,0,0,0,0,0,0,0,0,0,0,0,0,0,0,0,0,0,0,0,0,0,0,0,0,0,0,0,0,0,0,0,0,0,0,0,0,0,0,0,0,0,0,0,0,0,0,0,0,0,0,0,0,0,0,0,0,0,0,0,0,0,0,0],"sum_hessian":[1.7776E4,8.76E3,9.016E3,3.67E3,5.09E3,5.037E3,3.979E3,1.377E3,2.293E3,4.819E3,2.71E2,2.469E3,2.568E3,2.772E3,1.207E3,1.43E2,1.234E3,1.679E3,6.14E2,2.621E3,2.198E3,1.57E2,1.14E2,1.703E3,7.66E2,1.085E3,1.483E3,1.767E3,1.005E3,7.79E2,4.28E2,1.1E2,3.3E1,4.68E2,7.66E2,5.84E2,1.095E3,2.94E2,3.2E2,2.213E3,4.08E2,8.04E2,1.394E3,5.5E1,1.02E2,8E1,3.4E1,8.66E2,8.37E2,5.02E2,2.64E2,7E0,1.078E3,7.42E2,7.41E2,6E0,1.761E3,3.5E1,9.7E2,5E1,7.29E2,2.19E2,2.09E2,1.01E2,9E0,1.5E1,1.8E1,2.99E2,1.69E2,5.51E2,2.15E2,5.79E2,5E0,4.77E2,6.18E2,1.02E2,1.92E2,2.28E2,9.2E1,7.24E2,1.489E3,3.26E2,8.2E1,7.99E2,5E0,3.53E2,1.041E3,1.5E1,4E1,4.1E1,6.1E1,5E0,7.5E1,6.78E2,1.88E2,2.2E1,8.15E2,1.17E2,3.85E2,2.52E2,1.2E1,7.78E2,3E2,1.52E2,5.9E2,3.69E2,3.72E2,6.25E2,1.136E3,2.1E1,1.4E1,7.14E2,2.56E2,2E1,3E1,3.84E2,3.45E2],"tree_param":{"num_deleted":"0","num_feature":"23","num_nodes":"117","size_leaf_vector":"1"}},{"base_weights":[4.177451E-3,-8.472801E-1,8.031805E-1,-1.3543221E0,-4.7506028E-1,4.1648617E-1,1.3009691E0,-1.8548048E0,-1.034085E0,-5.4868686E-1,7.7976507E-1,1.4914642E-1,6.2003E-1,1.0767326E0,1.6595602E0,-3.2097847E0,-1.7106704E0,-1.161495E0,-6.377449E-1,-7.8736264E-1,-3.4713346E-1,5.144123E-1,1.2596817E0,8.6125106E-2,3.1856102E-1,4.6370628E-1,7.091542E-1,9.483622E-1,1.1844819E0,1.5377498E0,1.9859773E0,-3.516503E0,-2.22787E0,-1.9962033E0,-1.55682E0,-1.2968434E0,-1.0598137E0,-7.6020336E-1,-2.8935263E-1,-8.2416147E-1,-1.1726095E-1,-4.872909E-1,-2.2193216E-1,2.3935194E-1,6.667496E-1,3.217793E-2,4.646645E-2,-2.2227091E-3,1.5212102E-1,2.602984E-1,4.7483602E-1,3.3444968E-1,5.2633196E-1,5.9686047E-1,7.6616275E-1,7.8939456E-1,9.843112E-1,3.9910737E-1,1.2066964E0,1.2881876E0,1.6408466E0,1.8254008E0,6.6254176E-2,-1.1036561E-1,-6.1400056E-2,-2.9074967E-2,-7.73902E-2,-6.563981E-2,-5.498674E-2,-4.8805304E-2,-3.837588E-2,-3.904545E-2,-1.3620227E-2,-3.514257E-2,-2.9852444E-2,-2.3458181E-2,2.0160777E-3,-9.8329615E-3,1.3689865E-2,-2.8310115E-2,-2.1577261E-2,-7.319383E-3,2.8014693E-3,-9.700225E-3,-1.6143925E-2,-7.594506E-3,-1.5011445E-3,-0E0,9.541753E-3,1.5410786E-2,2.2727944E-2,-5.856434E-4,1.5389884E-2,7.460167E-3,3.0587567E-3,4.8129004E-3,9.2159305E-3,7.0555266E-3,1.6232572E-2,7.974422E-4,1.1112843E-2,1.4175841E-2,1.8734243E-2,8.739457E-3,1.8752784E-2,2.1294722E-2,2.5668804E-2,1.0199314E-3,2.4503421E-2,2.7686669E-2,3.155565E-2,1.5657232E-3,2.3335861E-2,3.7509277E-2,3.209561E-2,3.940724E-2,-8.54322E-3,4.4697795E-2,5.1417105E-2,5.5994485E-2,1.8020777E-2],"categories":[],"categories_nodes":[],"categories_segments":[],"categories_sizes":[],"default_left":[0,0,0,0,0,0,0,0,0,0,0,0,0,0,0,0,0,0,0,0,0,0,0,0,0,0,0,0,0,0,0,0,0,0,0,0,0,0,0,0,0,0,0,0,0,0,0,0,0,0,0,0,0,0,0,0,0,0,0,0,0,0,0,0,0,0,0,0,0,0,0,0,0,0,0,0,0,0,0,0,0,0,0,0,0,0,0,0,0,0,0,0,0,0,0,0,0,0,0,0,0,0,0,0,0,0,0,0,0,0,0,0,0,0,0,0,0,0,0,0,0],"id":5,"left_children":[1,3,5,7,9,11,13,15,17,19,21,23,25,27,29,31,33,35,37,39,41,43,45,47,49,51,53,55,57,59,61,63,65,67,69,71,73,75,77,79,81,83,85,87,89,-1,-1,91,93,95,97,99,101,103,105,107,109,111,113,115,117,119,-1,-1,-1,-1,-1,-1,-1,-1,-1,-1,-1,-1,-1,-1,-1,-1,-1,-1,-1,-1,-1,-1,-1,-1,-1,-1,-1,-1,-1,-1,-1,-1,-1,-1,-1,-1,-1,-1,-1,-1,-1,-1,-1,-1,-1,-1,-1,-1,-1,-1,-1,-1,-1,-1,-1,-1,-1,-1,-1],"loss_changes":[1.2174947E4,1.6337407E3,1.7760269E3,5.841865E2,4.623993E2,2.825857E2,3.2126367E2,2.6976465E2,1.1161865E2,2.2654333E2,3.401204E1,2.3895218E1,4.037915E1,3.2295166E1,5.632373E1,2.7908325E1,5.149463E1,2.076001E1,2.2861115E1,5.2942383E1,4.4679962E1,7.184597E0,2.2589264E0,9.607241E0,5.207958E0,8.277832E0,1.1047852E1,5.0144043E0,2.2431152E1,2.545874E1,7.990967E0,1.1543091E1,1.1702835E1,7.1967773E0,1.2791992E1,1.5915527E0,4.8657227E0,7.496521E0,4.3662987E0,2.4322632E1,3.1205735E0,9.63147E0,7.2049637E0,1.2416086E0,7.68013E-1,0E0,0E0,6.1774535E0,4.4517593E0,1.9285316E0,2.2338562E0,3.8546371E0,3.1478271E0,5.060074E0,5.0133667E0,4.3291016E0,1.9885254E0,4.9632463E0,5.3327637E0,1.4324036E1,4.3220215E0,1.0428345E1,0E0,0E0,0E0,0E0,0E0,0E0,0E0,0E0,0E0,0E0,0E0,0E0,0E0,0E0,0E0,0E0,0E0,0E0,0E0,0E0,0E0,0E0,0E0,0E0,0E0,0E0,0E0,0E0,0E0,0E0,0E0,0E0,0E0,0E0,0E0,0E0,0E0,0E0,0E0,0E0,0E0,0E0,0E0,0E0,0E0,0E0,0E0,0E0,0E0,0E0,0E0,0E0,0E0,0E0,0E0,0E0,0E0,0E0,0E0],"parents":[2147483647,0,0,1,1,2,2,3,3,4,4,5,5,6,6,7,7,8,8,9,9,10,10,11,11,12,12,13,13,14,14,15,15,16,16,17,17,18,18,19,19,20,20,21,21,22,22,23,23,24,24,25,25,26,26,27,27,28,28,29,29,30,30,31,31,32,32,33,33,34,34,35,35,36,36,37,37,38,38,39,39,40,40,41,41,42,42,43,43,44,44,47,47,48,48,49,49,50,50,51,51,52,52,53,53,54,54,55,55,56,56,57,57,58,58,59,59,60,60,61,61],"right_children":[2,4,6,8,10,12,14,16,18,20,22,24,26,28,30,32,34,36,38,40,42,44,46,48,50,52,54,56,58,60,62,64,66,68,70,72,74,76,78,80,82,84,86,88,90,-1,-1,92,94,96,98,100,102,104,106,108,110,112,114,116,118,120,-1,-1,-1,-1,-1,-1,-1,-1,-1,-1,-1,-1,-1,-1,-1,-1,-1,-1,-1,-1,-1,-1,-1,-1,-1,-1,-1,-1,-1,-1,-1,-1,-1,-1,-1,-1,-1,-1,-1,-1,-1,-1,-1,-1,-1,-1,-1,-1,-1,-1,-1,-1,-1,-1,-1,-1,-1,-1,-1],"split_conditions":[7.3733745E0,6.349139E0,8.493924E0,5.765191E0,4.542522E0,7.886081E0,9.101084E0,3.647118E0,6.395262E0,6.7381525E0,8.4203205E0,7.625547E0,8.125631E0,8.736489E0,9.60901E0,5.2464633E0,5.26269E0,6.0402546E0,6.828712E0,4.0980625E0,7.044905E0,7.88728E0,8.950463E0,7.565275E0,2.72E0,7.661081E0,7.935389E0,8.043833E0,6.752346E0,8.620572E0,9.894851E0,4.5108595E0,3.1869757E-1,4.955827E0,5.9599032E0,6.7814054E0,5.9918075E0,6.884863E0,8.660254E-1,6.464588E0,7.28988E0,-5E-1,7.553811E0,7.3530817E0,2.221E1,3.217793E-2,4.646645E-2,1.108E1,-1.8369701E-16,7.673688E0,7.7209053E0,6.59107E0,8.20166E0,7.249215E0,1.93E0,7.5994015E0,1.01E0,6.4759207E0,8.660254E-1,9.507627E0,9.296334E0,1.354607E1,6.6254176E-2,-1.1036561E-1,-6.1400056E-2,-2.9074967E-2,-7.73902E-2,-6.563981E-2,-5.498674E-2,-4.8805304E-2,-3.837588E-2,-3.904545E-2,-1.3620227E-2,-3.514257E-2,-2.9852444E-2,-2.3458181E-2,2.0160777E-3,-9.8329615E-3,1.3689865E-2,-2.8310115E-2,-2.1577261E-2,-7.319383E-3,2.8014693E-3,-9.700225E-3,-1.6143925E-2,-7.594506E-3,-1.5011445E-3,-0E0,9.541753E-3,1.5410786E-2,2.2727944E-2,-5.856434E-4,1.5389884E-2,7.460167E-3,3.0587567E-3,4.8129004E-3,9.2159305E-3,7.0555266E-3,1.6232572E-2,7.974422E-4,1.1112843E-2,1.4175841E-2,1.8734243E-2,8.739457E-3,1.8752784E-2,2.1294722E-2,2.5668804E-2,1.0199314E-3,2.4503421E-2,2.7686669E-2,3.155565E-2,1.5657232E-3,2.3335861E-2,3.7509277E-2,3.209561E-2,3.940724E-2,-8.54322E-3,4.4697795E-2,5.1417105E-2,5.5994485E-2,1.8020777E-2],"split_indices":[0,1,0,0,7,0,0,5,0,0,15,15,0,0,4,15,1,0,0,7,0,15,15,0,17,15,15,15,15,15,0,0,7,2,15,5,15,5,9,0,15,9,3,3,18,0,0,17,9,0,3,15,3,2,17,1,17,16,9,3,0,14,0,0,0,0,0,0,0,0,0,0,0,0,0,0,0,0,0,0,0,0,0,0,0,0,0,0,0,0,0,0,0,0,0,0,0,0,0,0,0,0,0,0,0,0,0,0,0,0,0,0,0,0,0,0,0,0,0,0,0],"split_type":[0,0,0,0,0,0,0,0,0,0,0,0,0,0,0,0,0,0,0,0,0,0,0,0,0,0,0,0,0,0,0,0,0,0,0,0,0,0,0,0,0,0,0,0,0,0,0,0,0,0,0,0,0,0,0,0,0,0,0,0,0,0,0,0,0,0,0,0,0,0,0,0,0,0,0,0,0,0,0,0,0,0,0,0,0,0,0,0,0,0,0,0,0,0,0,0,0,0,0,0,0,0,0,0,0,0,0,0,0,0,0,0,0,0,0,0,0,0,0,0,0],"sum_hessian":[1.7893E4,8.662E3,9.231E3,3.665E3,4.997E3,5.197E3,4.034E3,1.427E3,2.238E3,4.721E3,2.76E2,2.248E3,2.949E3,2.486E3,1.548E3,1.34E2,1.293E3,1.691E3,5.47E2,2.159E3,2.562E3,1.8E2,9.6E1,1.641E3,6.07E2,1.075E3,1.874E3,1.142E3,1.344E3,1.134E3,4.14E2,9.9E1,3.5E1,4.46E2,8.47E2,7.17E2,9.74E2,4.03E2,1.44E2,2.046E3,1.13E2,1.206E3,1.356E3,6.6E1,1.14E2,6.3E1,3.3E1,7.01E2,9.4E2,4.46E2,1.61E2,3.55E2,7.2E2,6.38E2,1.236E3,2.18E2,9.24E2,3.8E1,1.306E3,3.38E2,7.96E2,2.49E2,1.65E2,8.7E1,1.2E1,9E0,2.6E1,1.96E2,2.5E2,6.7E2,1.77E2,7.12E2,5E0,3.47E2,6.27E2,3.93E2,1E1,1.38E2,6E0,9.5E2,1.096E3,7.1E1,4.2E1,2.89E2,9.17E2,1.146E3,2.1E2,1.7E1,4.9E1,4.7E1,6.7E1,6.8E2,2.1E1,3.18E2,6.22E2,1.46E2,3E2,3.7E1,1.24E2,3.8E1,3.17E2,4.72E2,2.48E2,5.6E1,5.82E2,7.68E2,4.68E2,8E0,2.1E2,4.97E2,4.27E2,2.1E1,1.7E1,9.8E2,3.26E2,3.33E2,5E0,2.71E2,5.25E2,2.4E2,9E0],"tree_param":{"num_deleted":"0","num_feature":"23","num_nodes":"121","size_leaf_vector":"1"}},{"base_weights":[1.3820867E-3,-7.891191E-1,7.7547437E-1,-1.2177749E0,-4.0599757E-1,4.4807485E-1,1.2296258E0,-3.149186E0,-1.1413099E0,-5.985701E-1,-9.752465E-2,1.6075753E-1,6.684277E-1,1.0549132E0,1.6509455E0,-1.5411274E-1,-2.816998E0,-1.4989741E0,-9.5716405E-1,-4.3344718E-1,-7.435612E-1,-2.0373945E-1,1.7681791E-1,4.638754E-3,4.6239284E-1,5.974924E-1,1.2165741E0,9.6319157E-1,1.2474226E0,1.4840037E0,1.8395876E0,-2.9140987E0,-2.4167135E-2,-1.6257396E0,-1.064484E0,-1.0632491E0,-5.1822925E-1,-5.3519404E-1,-8.2342885E-2,-8.192284E-1,-5.379513E-1,-2.8073257E-1,4.396709E-2,8.617751E-2,4.0938565E-1,2.0861883E-1,-1.2418512E-1,6.729505E-1,3.3629942E-1,4.9963748E-1,6.9738555E-1,1.085474E0,4.9314894E-2,4.189165E-1,1.004602E0,1.1082779E0,1.4058005E0,8.0262053E-1,1.5005654E0,1.8636149E0,1.2172614E0,-9.608657E-2,-7.072556E-2,-5.2631605E-2,-4.164223E-2,-3.6147483E-2,3.0447948E-3,-3.2622896E-2,2.0808035E-3,-1.8379664E-2,-3.057915E-3,-1.2607334E-2,-1.9406945E-2,-5.329696E-3,1.7789396E-2,-2.5485566E-2,-1.214804E-2,4.5849398E-2,-1.7237436E-2,-6.4334036E-3,-1.5294429E-2,2.6368012E-3,-1.3070634E-2,-3.3911953E-3,3.7442988E-3,1.80144E-2,7.866931E-3,4.50122E-3,3.2004565E-2,-8.917356E-3,2.7158932E-4,1.3900396E-2,2.3216384E-2,4.653632E-3,1.2821228E-2,1.7352207E-2,8.724838E-3,2.424543E-2,1.857436E-2,3.5006512E-2,2.2444908E-2,-6.841948E-3,1.6438374E-2,2.729517E-2,3.456782E-2,3.0592706E-2,3.730347E-2,3.8963523E-2,4.9287867E-2,3.0665927E-2,4.931027E-3,4.2991493E-2,5.0388906E-2,5.3093925E-2,6.097583E-2,-5.618183E-3,4.8685808E-2],"categories":[],"categories_nodes":[],"categories_segments":[],"categories_sizes":[],"default_left":[0,0,0,0,0,0,0,0,0,0,0,0,0,0,0,0,0,0,0,0,0,0,0,0,0,0,0,0,0,0,0,0,0,0,0,0,0,0,0,0,0,0,0,0,0,0,0,0,0,0,0,0,0,0,0,0,0,0,0,0,0,0,0,0,0,0,0,0,0,0,0,0,0,0,0,0,0,0,0,0,0,0,0,0,0,0,0,0,0,0,0,0,0,0,0,0,0,0,0,0,0,0,0,0,0,0,0,0,0,0,0,0,0,0,0,0,0],"id":6,"left_children":[1,3,5,7,9,11,13,15,17,19,21,23,25,27,29,-1,31,33,35,37,39,41,43,45,47,49,51,53,55,57,59,61,-1,63,65,67,69,71,73,75,77,79,81,83,85,87,89,91,93,95,97,99,-1,101,103,105,107,109,111,113,115,-1,-1,-1,-1,-1,-1,-1,-1,-1,-1,-1,-1,-1,-1,-1,-1,-1,-1,-1,-1,-1,-1,-1,-1,-1,-1,-1,-1,-1,-1,-1,-1,-1,-1,-1,-1,-1,-1,-1,-1,-1,-1,-1,-1,-1,-1,-1,-1,-1,-1,-1,-1,-1,-1,-1,-1],"loss_changes":[1.0837728E4,1.4379751E3,1.3293809E3,6.0435596E2,2.7478137E2,3.2904944E2,2.7269922E2,8.004834E1,2.5945605E2,6.7502014E1,5.1970978E1,1.0635243E2,1.1299878E2,4.460913E1,2.9740479E1,0E0,2.2590088E1,7.119458E1,1.2139136E2,4.755519E1,2.2630005E1,2.4582535E1,1.0335286E1,3.9248646E1,1.9915405E1,2.474585E1,1.5570068E1,3.9754883E1,1.5903076E1,4.385132E0,3.56958E0,8.537109E0,0E0,2.75625E1,5.1081818E1,5.830957E1,2.0027466E1,1.2674957E1,1.9546116E1,1.3081177E1,3.2347397E1,1.4595093E1,6.4246016E0,2.7980165E0,3.485937E0,2.8598743E1,2.1148396E1,5.27565E0,7.7951927E0,2.1358948E1,1.0116211E1,5.4883423E0,0E0,1.114551E1,2.1459717E1,3.1553955E0,6.145874E0,1.963213E0,2.7004395E0,1.5375977E0,1.4130417E1,0E0,0E0,0E0,0E0,0E0,0E0,0E0,0E0,0E0,0E0,0E0,0E0,0E0,0E0,0E0,0E0,0E0,0E0,0E0,0E0,0E0,0E0,0E0,0E0,0E0,0E0,0E0,0E0,0E0,0E0,0E0,0E0,0E0,0E0,0E0,0E0,0E0,0E0,0E0,0E0,0E0,0E0,0E0,0E0,0E0,0E0,0E0,0E0,0E0,0E0,0E0,0E0,0E0,0E0,0E0,0E0],"parents":[2147483647,0,0,1,1,2,2,3,3,4,4,5,5,6,6,7,7,8,8,9,9,10,10,11,11,12,12,13,13,14,14,16,16,17,17,18,18,19,19,20,20,21,21,22,22,23,23,24,24,25,25,26,26,27,27,28,28,29,29,30,30,31,31,33,33,34,34,35,35,36,36,37,37,38,38,39,39,40,40,41,41,42,42,43,43,44,44,45,45,46,46,47,47,48,48,49,49,50,50,51,51,53,53,54,54,55,55,56,56,57,57,58,58,59,59,60,60],"right_children":[2,4,6,8,10,12,14,16,18,20,22,24,26,28,30,-1,32,34,36,38,40,42,44,46,48,50,52,54,56,58,60,62,-1,64,66,68,70,72,74,76,78,80,82,84,86,88,90,92,94,96,98,100,-1,102,104,106,108,110,112,114,116,-1,-1,-1,-1,-1,-1,-1,-1,-1,-1,-1,-1,-1,-1,-1,-1,-1,-1,-1,-1,-1,-1,-1,-1,-1,-1,-1,-1,-1,-1,-1,-1,-1,-1,-1,-1,-1,-1,-1,-1,-1,-1,-1,-1,-1,-1,-1,-1,-1,-1,-1,-1,-1,-1,-1,-1],"split_conditions":[7.170237E0,6.4345465E0,8.452121E0,3.647118E0,7.1057863E0,7.997663E0,9.193194E0,1.0373303E-2,5.5248594E0,6.123234E-17,7.403061E0,7.803435E0,8.7723055E0,8.7723055E0,9.358416E0,-1.5411274E-1,2.986234E0,5.6342845E0,6.6707664E0,6.8447175E0,6.8447175E0,7.3864303E0,7.777342E0,6.123234E-17,2.3E1,8.060856E0,9.371365E0,7.154291E0,1.9E0,8.144454E0,3.15E1,9.6E-1,-2.4167135E-2,5.5373344E0,5.8861357E-1,6.690799E0,4.0980625E0,-5E-1,5.434288E-1,3.926487E0,5.7427244E0,3.2E1,3.4E1,6.2260656E0,-5E-1,8.9266926E-1,7.47817E0,6.9355683E0,7.154291E0,3.2E1,2.3E1,3.4E1,4.9314894E-2,7.2122946E0,8.77771E0,8.98986E0,2.0261802E-1,2.635E1,5.654E1,9.769129E0,8.255791E0,-9.608657E-2,-7.072556E-2,-5.2631605E-2,-4.164223E-2,-3.6147483E-2,3.0447948E-3,-3.2622896E-2,2.0808035E-3,-1.8379664E-2,-3.057915E-3,-1.2607334E-2,-1.9406945E-2,-5.329696E-3,1.7789396E-2,-2.5485566E-2,-1.214804E-2,4.5849398E-2,-1.7237436E-2,-6.4334036E-3,-1.5294429E-2,2.6368012E-3,-1.3070634E-2,-3.3911953E-3,3.7442988E-3,1.80144E-2,7.866931E-3,4.50122E-3,3.2004565E-2,-8.917356E-3,2.7158932E-4,1.3900396E-2,2.3216384E-2,4.653632E-3,1.2821228E-2,1.7352207E-2,8.724838E-3,2.424543E-2,1.857436E-2,3.5006512E-2,2.2444908E-2,-6.841948E-3,1.6438374E-2,2.729517E-2,3.456782E-2,3.0592706E-2,3.730347E-2,3.8963523E-2,4.9287867E-2,3.0665927E-2,4.931027E-3,4.2991493E-2,5.0388906E-2,5.3093925E-2,6.097583E-2,-5.618183E-3,4.8685808E-2],"split_indices":[6,2,3,5,2,2,2,7,6,9,3,3,5,5,3,0,7,5,3,5,5,5,16,9,13,3,5,16,21,6,18,21,0,2,7,5,7,9,7,7,6,13,13,5,8,7,2,5,16,13,13,13,0,2,3,5,7,18,19,5,16,0,0,0,0,0,0,0,0,0,0,0,0,0,0,0,0,0,0,0,0,0,0,0,0,0,0,0,0,0,0,0,0,0,0,0,0,0,0,0,0,0,0,0,0,0,0,0,0,0,0,0,0,0,0,0,0],"split_type":[0,0,0,0,0,0,0,0,0,0,0,0,0,0,0,0,0,0,0,0,0,0,0,0,0,0,0,0,0,0,0,0,0,0,0,0,0,0,0,0,0,0,0,0,0,0,0,0,0,0,0,0,0,0,0,0,0,0,0,0,0,0,0,0,0,0,0,0,0,0,0,0,0,0,0,0,0,0,0,0,0,0,0,0,0,0,0,0,0,0,0,0,0,0,0,0,0,0,0,0,0,0,0,0,0,0,0,0,0,0,0,0,0,0,0,0,0],"sum_hessian":[1.7708E4,8.761E3,8.947E3,4.133E3,4.628E3,5.201E3,3.746E3,1.55E2,3.978E3,2.848E3,1.78E3,2.259E3,2.942E3,2.652E3,1.094E3,1.9E1,1.36E2,1.348E3,2.63E3,1.335E3,1.513E3,1.284E3,4.96E2,1.49E3,7.69E2,2.608E3,3.34E2,1.803E3,8.49E2,5.88E2,5.06E2,1.29E2,7E0,1.04E3,3.08E2,2.116E3,5.14E2,1.034E3,3.01E2,1.102E3,4.11E2,9.8E2,3.04E2,3.59E2,1.37E2,5.77E2,9.13E2,2.85E2,4.84E2,1.323E3,1.285E3,2.6E2,7.4E1,1.29E2,1.674E3,4.59E2,3.9E2,1.6E1,5.72E2,4.84E2,2.2E1,8E1,4.9E1,6.68E2,3.72E2,2.75E2,3.3E1,2.072E3,4.4E1,4.18E2,9.6E1,5.14E2,5.2E2,2.65E2,3.6E1,1.025E3,7.7E1,6E0,4.05E2,7.63E2,2.17E2,2.8E2,2.4E1,5.7E1,3.02E2,5.7E1,8E1,5.42E2,3.5E1,3.97E2,5.16E2,9.6E1,1.89E2,1.64E2,3.2E2,9.58E2,3.65E2,5.25E2,7.6E2,2.06E2,5.4E1,2.1E1,1.08E2,1.027E3,6.47E2,2.86E2,1.73E2,2.76E2,1.14E2,1.1E1,5E0,4.26E2,1.46E2,3.23E2,1.61E2,5E0,1.7E1],"tree_param":{"num_deleted":"0","num_feature":"23","num_nodes":"117","size_leaf_vector":"1"}},{"base_weights":[1.8999224E-3,-8.0248713E-1,7.5606984E-1,-1.2793103E0,-4.3997064E-1,3.9488706E-1,1.2328261E0,-1.8158554E0,-9.87883E-1,-5.124551E-1,7.551437E-1,1.4096507E-1,5.8091253E-1,1.0401399E0,1.610671E0,-3.1630542E0,-1.6435642E0,-1.1147383E0,-5.8296186E-1,-7.3203677E-1,-3.1234848E-1,4.679363E-1,1.0878567E0,2.0461582E-2,2.0922215E-1,4.6662727E-1,6.9381124E-1,9.537147E-1,1.213302E0,1.4397366E0,1.8095194E0,-2.7205572E0,-4.4260497E0,-1.9097135E0,-1.4871806E0,-1.2582768E0,-1.0159643E0,-7.083187E-1,-3.0555704E-1,-7.65132E-1,-1.0580942E-1,-4.499499E-1,-2.0259787E-1,1.8181539E-1,5.5474967E-1,2.7869962E-2,1.2743151E0,1.8291809E-3,5.2001834E-1,2.452632E-1,8.760352E-2,3.9502954E-1,5.4011136E-1,3.7712774E-1,7.086275E-1,9.950092E-1,8.234026E-1,6.98382E-2,1.2316797E0,5.605623E-1,1.4580959E0,1.0694973E0,1.8419938E0,-8.444984E-2,-3.6933918E-2,-1.5671058E-1,-8.635262E-2,-6.239496E-2,-5.2772656E-2,-4.6532374E-2,-3.3489697E-2,-3.789047E-2,-1.2005454E-2,-2.7527297E-2,-3.2437492E-2,-2.1844862E-2,3.2408682E-3,-9.765511E-3,8.469594E-3,-2.6607484E-2,-2.0156454E-2,-7.3817098E-3,2.4823758E-3,-1.386152E-2,-0E0,-2.2515582E-3,-7.450065E-3,-3.3655765E-3,7.1006874E-3,1.0149321E-2,1.7929533E-2,4.0016677E-2,1.4873808E-2,-1.273859E-4,1.7251085E-2,3.698548E-2,7.1655363E-3,4.487623E-3,8.5327625E-3,3.22977E-3,-4.741175E-3,1.4776169E-2,9.4071E-3,1.7069438E-2,1.2758499E-2,2.018344E-2,-1.4051538E-3,1.9253882E-2,2.2788484E-2,2.7740069E-2,3.1640705E-2,2.5153926E-2,-9.862539E-3,1.3456672E-2,-1.1915151E-2,3.829126E-2,3.2627515E-2,3.6338467E-2,4.1676136E-3,4.1054286E-2,4.6672523E-2,1.0816386E-2,5.2554123E-2,5.2425668E-2,6.500601E-2],"categories":[],"categories_nodes":[],"categories_segments":[],"categories_sizes":[],"default_left":[0,0,0,0,0,0,0,0,0,0,0,0,0,0,0,0,0,0,0,0,0,0,0,0,0,0,0,0,0,0,0,0,0,0,0,0,0,0,0,0,0,0,0,0,0,0,0,0,0,0,0,0,0,0,0,0,0,0,0,0,0,0,0,0,0,0,0,0,0,0,0,0,0,0,0,0,0,0,0,0,0,0,0,0,0,0,0,0,0,0,0,0,0,0,0,0,0,0,0,0,0,0,0,0,0,0,0,0,0,0,0,0,0,0,0,0,0,0,0,0,0,0,0,0,0],"id":7,"left_children":[1,3,5,7,9,11,13,15,17,19,21,23,25,27,29,31,33,35,37,39,41,43,45,47,49,51,53,55,57,59,61,63,65,67,69,71,73,75,77,79,81,83,85,87,89,-1,91,93,95,97,99,101,103,105,107,109,111,113,115,117,119,121,123,-1,-1,-1,-1,-1,-1,-1,-1,-1,-1,-1,-1,-1,-1,-1,-1,-1,-1,-1,-1,-1,-1,-1,-1,-1,-1,-1,-1,-1,-1,-1,-1,-1,-1,-1,-1,-1,-1,-1,-1,-1,-1,-1,-1,-1,-1,-1,-1,-1,-1,-1,-1,-1,-1,-1,-1,-1,-1,-1,-1,-1,-1],"loss_changes":[1.080251E4,1.488228E3,1.5815137E3,5.785005E2,4.2478888E2,2.4684766E2,2.8530273E2,2.947251E2,1.2270996E2,2.0238379E2,2.5729187E1,1.816238E1,3.8229004E1,3.7152588E1,4.0802002E1,6.2383423E1,4.3445557E1,2.3665283E1,1.962445E1,4.531018E1,3.6271652E1,3.5141983E0,1.5898132E0,7.3731356E0,6.092552E0,7.4138184E0,6.488098E0,7.8809814E0,1.786145E1,1.0080688E1,1.1134033E1,9.816345E0,1.9648438E1,4.621704E0,1.4393433E1,1.9244385E0,5.1552734E0,6.681183E0,2.2996845E0,2.2523438E1,3.0382004E0,5.847229E0,7.7798767E0,6.858542E-1,5.912857E-1,0E0,1.169754E0,2.821942E0,4.976061E0,3.924118E0,1.6239421E0,5.7192993E0,1.8830566E0,9.134775E0,3.9108276E0,3.7183838E0,8.038086E0,3.0189128E0,2.9483643E0,4.27904E0,2.4310303E0,1.2899921E1,1.1415039E1,0E0,0E0,0E0,0E0,0E0,0E0,0E0,0E0,0E0,0E0,0E0,0E0,0E0,0E0,0E0,0E0,0E0,0E0,0E0,0E0,0E0,0E0,0E0,0E0,0E0,0E0,0E0,0E0,0E0,0E0,0E0,0E0,0E0,0E0,0E0,0E0,0E0,0E0,0E0,0E0,0E0,0E0,0E0,0E0,0E0,0E0,0E0,0E0,0E0,0E0,0E0,0E0,0E0,0E0,0E0,0E0,0E0,0E0,0E0,0E0,0E0,0E0],"parents":[2147483647,0,0,1,1,2,2,3,3,4,4,5,5,6,6,7,7,8,8,9,9,10,10,11,11,12,12,13,13,14,14,15,15,16,16,17,17,18,18,19,19,20,20,21,21,22,22,23,23,24,24,25,25,26,26,27,27,28,28,29,29,30,30,31,31,32,32,33,33,34,34,35,35,36,36,37,37,38,38,39,39,40,40,41,41,42,42,43,43,44,44,46,46,47,47,48,48,49,49,50,50,51,51,52,52,53,53,54,54,55,55,56,56,57,57,58,58,59,59,60,60,61,61,62,62],"right_children":[2,4,6,8,10,12,14,16,18,20,22,24,26,28,30,32,34,36,38,40,42,44,46,48,50,52,54,56,58,60,62,64,66,68,70,72,74,76,78,80,82,84,86,88,90,-1,92,94,96,98,100,102,104,106,108,110,112,114,116,118,120,122,124,-1,-1,-1,-1,-1,-1,-1,-1,-1,-1,-1,-1,-1,-1,-1,-1,-1,-1,-1,-1,-1,-1,-1,-1,-1,-1,-1,-1,-1,-1,-1,-1,-1,-1,-1,-1,-1,-1,-1,-1,-1,-1,-1,-1,-1,-1,-1,-1,-1,-1,-1,-1,-1,-1,-1,-1,-1,-1,-1,-1,-1,-1],"split_conditions":[7.3733745E0,6.364751E0,8.509564E0,5.7071104E0,4.542522E0,7.886081E0,9.180706E0,3.647118E0,6.395262E0,6.767343E0,7.736777E0,7.565275E0,8.203304E0,8.899594E0,9.5467415E0,6.676209E0,5.26269E0,6.003887E0,6.767343E0,4.0980625E0,7.044905E0,7.1881723E0,9.033961E0,1.108E1,8.660254E-1,8.055158E0,6.542013E0,8.660254E-1,5.9894047E0,6.4759207E0,1.293E1,5.056246E0,7.2899055E-1,4.955827E0,3.2789903E0,6.6069913E0,-1.8369701E-16,6.857931E0,1E1,6.464588E0,6.2260656E0,7.6492596E0,-5E-1,6.728099E0,8.130354E0,2.7869962E-2,2.6246666E1,9.11548E0,6.4759207E0,7.09747E0,1.78E0,-1.8369701E-16,8.660254E-1,5.624677E-1,8.328451E0,8.674368E0,7.944963E-1,2.684E1,8.660254E-1,7.341477E0,9.355133E0,7.63E0,1.0027252E1,-8.444984E-2,-3.6933918E-2,-1.5671058E-1,-8.635262E-2,-6.239496E-2,-5.2772656E-2,-4.6532374E-2,-3.3489697E-2,-3.789047E-2,-1.2005454E-2,-2.7527297E-2,-3.2437492E-2,-2.1844862E-2,3.2408682E-3,-9.765511E-3,8.469594E-3,-2.6607484E-2,-2.0156454E-2,-7.3817098E-3,2.4823758E-3,-1.386152E-2,-0E0,-2.2515582E-3,-7.450065E-3,-3.3655765E-3,7.1006874E-3,1.0149321E-2,1.7929533E-2,4.0016677E-2,1.4873808E-2,-1.273859E-4,1.7251085E-2,3.698548E-2,7.1655363E-3,4.487623E-3,8.5327625E-3,3.22977E-3,-4.741175E-3,1.4776169E-2,9.4071E-3,1.7069438E-2,1.2758499E-2,2.018344E-2,-1.4051538E-3,1.9253882E-2,2.2788484E-2,2.7740069E-2,3.1640705E-2,2.5153926E-2,-9.862539E-3,1.3456672E-2,-1.1915151E-2,3.829126E-2,3.2627515E-2,3.6338467E-2,4.1676136E-3,4.1054286E-2,4.6672523E-2,1.0816386E-2,5.2554123E-2,5.2425668E-2,6.500601E-2],"split_indices":[0,1,0,0,7,0,0,5,0,0,6,0,0,0,0,16,1,0,0,7,0,6,1,17,9,0,16,9,16,16,20,0,7,2,7,5,9,5,12,0,5,6,9,6,1,0,22,2,16,6,17,9,9,7,0,0,7,22,9,5,0,21,0,0,0,0,0,0,0,0,0,0,0,0,0,0,0,0,0,0,0,0,0,0,0,0,0,0,0,0,0,0,0,0,0,0,0,0,0,0,0,0,0,0,0,0,0,0,0,0,0,0,0,0,0,0,0,0,0,0,0,0,0,0,0],"split_type":[0,0,0,0,0,0,0,0,0,0,0,0,0,0,0,0,0,0,0,0,0,0,0,0,0,0,0,0,0,0,0,0,0,0,0,0,0,0,0,0,0,0,0,0,0,0,0,0,0,0,0,0,0,0,0,0,0,0,0,0,0,0,0,0,0,0,0,0,0,0,0,0,0,0,0,0,0,0,0,0,0,0,0,0,0,0,0,0,0,0,0,0,0,0,0,0,0,0,0,0,0,0,0,0,0,0,0,0,0,0,0,0,0,0,0,0,0,0,0,0,0,0,0,0,0],"sum_hessian":[1.7804E4,8.615E3,9.189E3,3.719E3,4.896E3,5.23E3,3.959E3,1.306E3,2.413E3,4.617E3,2.79E2,2.213E3,3.017E3,2.626E3,1.333E3,1.45E2,1.161E3,1.835E3,5.78E2,2.199E3,2.418E3,1.52E2,1.27E2,8.02E2,1.411E3,1.504E3,1.513E3,1.759E3,8.67E2,7.24E2,6.09E2,1.11E2,3.4E1,4.23E2,7.38E2,7.4E2,1.095E3,3.96E2,1.82E2,2.088E3,1.11E2,1.07E3,1.348E3,3.7E1,1.15E2,7.4E1,5.3E1,7.75E2,2.7E1,1.086E3,3.25E2,7.68E2,7.36E2,7E1,1.443E3,1.327E3,4.32E2,1.4E1,8.53E2,1.6E1,7.08E2,2.8E1,5.81E2,1.03E2,8E0,2E1,1.4E1,1.89E2,2.34E2,6.25E2,1.13E2,7.35E2,5E0,4.47E2,6.48E2,3.87E2,9E0,1.77E2,5E0,8.99E2,1.189E3,6.4E1,4.7E1,1.042E3,2.8E1,3.58E2,9.9E2,5E0,3.2E1,2.2E1,9.3E1,4.8E1,5E0,7.68E2,7E0,6E0,2.1E1,3.19E2,7.67E2,3.02E2,2.3E1,3.45E2,4.23E2,5.82E2,1.54E2,4.1E1,2.9E1,6.35E2,8.08E2,6.22E2,7.05E2,4.27E2,5E0,8E0,6E0,6.41E2,2.12E2,5E0,1.1E1,3.82E2,3.26E2,1.5E1,1.3E1,4.58E2,1.23E2],"tree_param":{"num_deleted":"0","num_feature":"23","num_nodes":"125","size_leaf_vector":"1"}},{"base_weights":[1.3567576E-3,-7.7332765E-1,7.4913603E-1,-1.2433077E0,-4.2025307E-1,3.9344427E-1,1.1920235E0,-1.770851E0,-9.6140236E-1,-4.877229E-1,7.2925764E-1,1.8716282E-1,6.0246646E-1,9.8087656E-1,1.5272384E0,-3.0972667E0,-1.6020877E0,-1.1096435E0,-6.41609E-1,-7.1459085E-1,-2.907897E-1,4.785257E-1,1.1483825E0,1.0985354E-1,3.3971632E-1,5.028952E-1,6.8598235E-1,8.592812E-1,1.0720627E0,1.3453722E0,1.7241403E0,-2.615351E0,-4.4743853E0,-1.8507844E0,-1.4460812E0,-1.2592323E0,-1.0300581E0,-7.3663145E-1,-2.1859068E-1,-7.458082E-1,-1.0870558E-1,-3.8738838E-1,-1.2830329E-1,1.9221234E-1,5.9744304E-1,1.2823841E-2,1.1844897E0,2.8659381E-2,1.9148415E-1,2.996104E-1,5.219403E-1,1.5991904E-1,5.1490706E-1,7.2459507E-1,5.528115E-1,9.0061945E-1,7.3299634E-1,-1.9180587E-2,1.0847473E0,1.1695718E0,4.2974994E-2,1.0743234E0,1.76155E0,-8.706106E-2,-5.7045948E-2,-1.5866432E-1,-9.859081E-2,-6.1491907E-2,-5.1274057E-2,-4.5222852E-2,-3.2320954E-2,-3.3150308E-2,-3.8944803E-2,-3.3483144E-2,-2.8614393E-2,-2.428918E-2,-1.8012028E-2,9.732553E-3,-7.7827107E-3,-2.5995273E-2,-1.9595757E-2,-7.1962946E-3,3.3022808E-3,-1.1812797E-2,1.5559493E-2,-3.3916548E-4,-6.050867E-3,-6.5084454E-3,7.3246886E-3,1.372578E-2,2.0509282E-2,3.0817432E-2,4.3217104E-2,7.780213E-3,2.1399297E-4,-6.0975472E-3,6.127067E-3,7.064394E-3,1.1575501E-2,1.4556971E-2,3.078058E-2,1.2202268E-2,-2.6627698E-3,1.396044E-2,1.7786914E-2,-6.222623E-3,2.19145E-2,1.737068E-2,-9.051651E-4,1.289986E-2,2.73298E-2,1.8607985E-2,2.594164E-2,-1.8544024E-2,1.0696555E-2,3.3716053E-2,2.8939731E-2,1.1088956E-2,3.5893638E-2,1.78931E-3,4.4516724E-2,4.9670797E-2,6.083383E-2],"categories":[],"categories_nodes":[],"categories_segments":[],"categories_sizes":[],"default_left":[0,0,0,0,0,0,0,0,0,0,0,0,0,0,0,0,0,0,0,0,0,0,0,0,0,0,0,0,0,0,0,0,0,0,0,0,0,0,0,0,0,0,0,0,0,0,0,0,0,0,0,0,0,0,0,0,0,0,0,0,0,0,0,0,0,0,0,0,0,0,0,0,0,0,0,0,0,0,0,0,0,0,0,0,0,0,0,0,0,0,0,0,0,0,0,0,0,0,0,0,0,0,0,0,0,0,0,0,0,0,0,0,0,0,0,0,0,0,0,0,0,0,0],"id":8,"left_children":[1,3,5,7,9,11,13,15,17,19,21,23,25,27,29,31,33,35,37,39,41,43,45,47,49,51,53,55,57,59,61,63,65,67,69,71,73,75,77,79,81,83,85,87,89,-1,91,93,95,97,99,101,103,105,107,109,111,113,115,117,-1,119,121,-1,-1,-1,-1,-1,-1,-1,-1,-1,-1,-1,-1,-1,-1,-1,-1,-1,-1,-1,-1,-1,-1,-1,-1,-1,-1,-1,-1,-1,-1,-1,-1,-1,-1,-1,-1,-1,-1,-1,-1,-1,-1,-1,-1,-1,-1,-1,-1,-1,-1,-1,-1,-1,-1,-1,-1,-1,-1,-1,-1],"loss_changes":[1.0317202E4,1.4504258E3,1.4266079E3,5.548125E2,3.8807776E2,2.1648877E2,2.8288232E2,2.8362988E2,1.1465674E2,2.1043372E2,2.8012253E1,2.9733704E1,2.0005127E1,2.5735107E1,5.164453E1,7.75907E1,4.035132E1,1.7483887E1,3.090039E1,4.1176758E1,3.9540955E1,5.6792183E0,1.5862427E0,1.1112488E1,5.8167953E0,4.4607544E0,6.0983276E0,4.2766724E0,1.9768677E1,9.472778E0,1.4619629E1,1.3579285E1,6.5618286E0,6.4349365E0,1.33446045E1,8.0462646E-1,5.2026367E0,5.3094482E0,3.339373E0,2.2149292E1,3.2079744E0,9.434204E0,8.081325E0,1.2432065E0,7.92099E-1,0E0,1.172409E0,4.152366E0,4.282997E0,3.619152E0,1.7357635E0,2.6649995E0,3.6474E0,6.0531006E0,4.895912E0,3.0475464E0,2.9597778E0,4.3212214E0,4.507324E0,5.0339966E0,0E0,1.805183E1,1.3913574E1,0E0,0E0,0E0,0E0,0E0,0E0,0E0,0E0,0E0,0E0,0E0,0E0,0E0,0E0,0E0,0E0,0E0,0E0,0E0,0E0,0E0,0E0,0E0,0E0,0E0,0E0,0E0,0E0,0E0,0E0,0E0,0E0,0E0,0E0,0E0,0E0,0E0,0E0,0E0,0E0,0E0,0E0,0E0,0E0,0E0,0E0,0E0,0E0,0E0,0E0,0E0,0E0,0E0,0E0,0E0,0E0,0E0,0E0,0E0,0E0],"parents":[2147483647,0,0,1,1,2,2,3,3,4,4,5,5,6,6,7,7,8,8,9,9,10,10,11,11,12,12,13,13,14,14,15,15,16,16,17,17,18,18,19,19,20,20,21,21,22,22,23,23,24,24,25,25,26,26,27,27,28,28,29,29,30,30,31,31,32,32,33,33,34,34,35,35,36,36,37,37,38,38,39,39,40,40,41,41,42,42,43,43,44,44,46,46,47,47,48,48,49,49,50,50,51,51,52,52,53,53,54,54,55,55,56,56,57,57,58,58,59,59,61,61,62,62],"right_children":[2,4,6,8,10,12,14,16,18,20,22,24,26,28,30,32,34,36,38,40,42,44,46,48,50,52,54,56,58,60,62,64,66,68,70,72,74,76,78,80,82,84,86,88,90,-1,92,94,96,98,100,102,104,106,108,110,112,114,116,118,-1,120,122,-1,-1,-1,-1,-1,-1,-1,-1,-1,-1,-1,-1,-1,-1,-1,-1,-1,-1,-1,-1,-1,-1,-1,-1,-1,-1,-1,-1,-1,-1,-1,-1,-1,-1,-1,-1,-1,-1,-1,-1,-1,-1,-1,-1,-1,-1,-1,-1,-1,-1,-1,-1,-1,-1,-1,-1,-1,-1,-1,-1],"split_conditions":[7.4048877E0,6.364751E0,8.493924E0,5.7071104E0,4.542522E0,7.9949694E0,9.101084E0,3.647118E0,6.3117347E0,6.767343E0,8.4203205E0,7.625547E0,8.229511E0,8.722743E0,9.465525E0,6.676209E0,5.3082676E0,5.9375362E0,6.828712E0,4.0980625E0,7.1608458E0,7.8522353E0,7.685591E0,7.6463537E0,4.99E0,6.6762395E0,8.660254E-1,8.660254E-1,5.877114E0,8.630358E0,6.975273E0,2.777E1,1.15827675E1,4.8807087E0,3.2789903E0,-5E-1,6.0227804E0,6.516193E0,5.5739965E0,6.464588E0,7.28988E0,8.088092E0,-1.8369701E-16,6.7120037E0,2.221E1,1.2823841E-2,8.993123E0,-8.660254E-1,6.3380475E0,7.858254E0,8.311163E0,3.6739403E-16,2.35E0,6.7726774E0,2.64E0,6.542013E0,8.269286E0,8.082701E0,8.660254E-1,1.277E1,4.2974994E-2,2.503E1,9.894851E0,-8.706106E-2,-5.7045948E-2,-1.5866432E-1,-9.859081E-2,-6.1491907E-2,-5.1274057E-2,-4.5222852E-2,-3.2320954E-2,-3.3150308E-2,-3.8944803E-2,-3.3483144E-2,-2.8614393E-2,-2.428918E-2,-1.8012028E-2,9.732553E-3,-7.7827107E-3,-2.5995273E-2,-1.9595757E-2,-7.1962946E-3,3.3022808E-3,-1.1812797E-2,1.5559493E-2,-3.3916548E-4,-6.050867E-3,-6.5084454E-3,7.3246886E-3,1.372578E-2,2.0509282E-2,3.0817432E-2,4.3217104E-2,7.780213E-3,2.1399297E-4,-6.0975472E-3,6.127067E-3,7.064394E-3,1.1575501E-2,1.4556971E-2,3.078058E-2,1.2202268E-2,-2.6627698E-3,1.396044E-2,1.7786914E-2,-6.222623E-3,2.19145E-2,1.737068E-2,-9.051651E-4,1.289986E-2,2.73298E-2,1.8607985E-2,2.594164E-2,-1.8544024E-2,1.0696555E-2,3.3716053E-2,2.8939731E-2,1.1088956E-2,3.5893638E-2,1.78931E-3,4.4516724E-2,4.9670797E-2,6.083383E-2],"split_indices":[0,1,0,0,7,0,0,5,0,0,15,15,0,0,0,16,2,0,0,7,0,15,16,0,17,15,9,9,15,15,15,22,14,15,7,9,15,0,15,0,15,5,9,6,18,0,15,9,6,0,15,10,17,6,17,16,15,4,9,20,0,22,0,0,0,0,0,0,0,0,0,0,0,0,0,0,0,0,0,0,0,0,0,0,0,0,0,0,0,0,0,0,0,0,0,0,0,0,0,0,0,0,0,0,0,0,0,0,0,0,0,0,0,0,0,0,0,0,0,0,0,0,0],"split_type":[0,0,0,0,0,0,0,0,0,0,0,0,0,0,0,0,0,0,0,0,0,0,0,0,0,0,0,0,0,0,0,0,0,0,0,0,0,0,0,0,0,0,0,0,0,0,0,0,0,0,0,0,0,0,0,0,0,0,0,0,0,0,0,0,0,0,0,0,0,0,0,0,0,0,0,0,0,0,0,0,0,0,0,0,0,0,0,0,0,0,0,0,0,0,0,0,0,0,0,0,0,0,0,0,0,0,0,0,0,0,0,0,0,0,0,0,0,0,0,0,0,0,0],"sum_hessian":[1.7807E4,8.746E3,9.061E3,3.75E3,4.996E3,5.027E3,4.034E3,1.303E3,2.447E3,4.72E3,2.76E2,2.532E3,2.495E3,2.479E3,1.555E3,1.44E2,1.159E3,1.669E3,7.78E2,2.191E3,2.529E3,1.75E2,1.01E2,1.683E3,8.49E2,1.144E3,1.351E3,1.07E3,1.409E3,8.15E2,7.4E2,1.1E2,3.4E1,4.4E2,7.19E2,5.71E2,1.098E3,6.34E2,1.44E2,2.083E3,1.08E2,1.584E3,9.45E2,5.3E1,1.22E2,6E0,9.5E1,8.46E2,8.37E2,7E2,1.49E2,4E1,1.104E3,1.041E3,3.1E2,7.98E2,2.72E2,1.6E1,1.393E3,2.78E2,5.37E2,4.3E1,6.97E2,7.5E1,3.5E1,1.7E1,1.7E1,1.74E2,2.66E2,6.12E2,1.07E2,1.25E2,4.46E2,5.05E2,5.93E2,4.07E2,2.27E2,9E0,1.35E2,8.98E2,1.185E3,6.8E1,4E1,1.574E3,1E1,3.66E2,5.79E2,5E0,4.8E1,5.1E1,7.1E1,6.4E1,3.1E1,7E1,7.76E2,2.5E1,8.12E2,4.06E2,2.94E2,1.42E2,7E0,2E1,2E1,6.83E2,4.21E2,6E0,1.035E3,2.97E2,1.3E1,1.9E1,7.79E2,1.52E2,1.2E2,6E0,1E1,1.04E3,3.53E2,1E1,2.68E2,1.3E1,3E1,5.07E2,1.9E2],"tree_param":{"num_deleted":"0","num_feature":"23","num_nodes":"123","size_leaf_vector":"1"}},{"base_weights":[4.3015255E-4,-7.5378346E-1,7.1157944E-1,-1.2017711E0,-4.1215035E-1,3.8193622E-1,1.1650183E0,-1.6774952E0,-9.224443E-1,-4.795446E-1,7.408283E-1,1.3547406E-1,5.555882E-1,1.0189108E0,1.615109E0,-3.4054594E0,-1.5681949E0,-1.0150069E0,-4.792722E-1,-6.9380397E-1,-3.1137758E-1,4.8197678E-1,1.1431861E0,4.3948926E-2,2.191961E-1,4.3954635E-1,6.618739E-1,9.0701807E-1,1.1977836E0,1.5476636E0,5.872152E-2,-1.5033199E-1,-2.8540905E0,-2.295409E0,-1.5011084E0,-1.1186084E0,-8.538169E-1,-5.791749E-1,-2.1254684E-1,-7.4683285E-1,-1.5607207E-1,-4.3435022E-1,-1.913566E-1,-2.125316E-1,5.486993E-1,2.9523928E-2,4.2519636E-2,1.566425E-2,2.8471693E-1,1.5830891E-1,3.2230926E-1,2.021433E-1,4.6477523E-1,5.8936757E-1,7.2835314E-1,6.5407664E-1,9.426878E-1,4.6823442E-1,1.2157707E0,8.8711053E-1,1.5761634E0,-9.064539E-2,-4.2128764E-2,-7.175444E-2,-2.7370386E-2,-5.0293587E-2,-3.9271224E-2,-3.6461618E-2,-3.1325962E-2,-2.7351027E-2,-2.3380365E-2,-1.8948428E-2,-1.08041875E-2,1.176319E-2,-7.961021E-3,-2.5414981E-2,-1.9651392E-2,-1.1027146E-3,-2.0587906E-2,-1.3170798E-2,1.6539745E-2,-8.445387E-3,-4.117877E-3,6.835427E-3,-1.4214996E-2,1.0643389E-2,1.8250683E-2,-4.93295E-4,4.8030177E-3,4.052324E-2,4.291926E-3,-6.188841E-3,5.066406E-3,8.086536E-3,1.5179384E-2,-1.0263213E-2,6.9138356E-3,1.207865E-2,1.577611E-2,-9.944937E-3,1.7885588E-2,2.5974771E-2,2.0464571E-2,9.983062E-4,2.1884533E-2,2.6301254E-2,3.0253718E-2,2.448386E-2,-1.5352869E-2,3.339414E-2,3.957691E-2,5.3440496E-2,3.8892026E-3,4.473803E-2,5.0754726E-2],"categories":[],"categories_nodes":[],"categories_segments":[],"categories_sizes":[],"default_left":[0,0,0,0,0,0,0,0,0,0,0,0,0,0,0,0,0,0,0,0,0,0,0,0,0,0,0,0,0,0,0,0,0,0,0,0,0,0,0,0,0,0,0,0,0,0,0,0,0,0,0,0,0,0,0,0,0,0,0,0,0,0,0,0,0,0,0,0,0,0,0,0,0,0,0,0,0,0,0,0,0,0,0,0,0,0,0,0,0,0,0,0,0,0,0,0,0,0,0,0,0,0,0,0,0,0,0,0,0,0,0,0,0,0,0],"id":9,"left_children":[1,3,5,7,9,11,13,15,17,19,21,23,25,27,29,31,33,35,37,39,41,43,45,47,49,51,53,55,57,59,-1,-1,61,63,65,67,69,71,73,75,77,79,81,83,85,-1,-1,87,89,91,93,95,97,99,101,103,105,107,109,111,113,-1,-1,-1,-1,-1,-1,-1,-1,-1,-1,-1,-1,-1,-1,-1,-1,-1,-1,-1,-1,-1,-1,-1,-1,-1,-1,-1,-1,-1,-1,-1,-1,-1,-1,-1,-1,-1,-1,-1,-1,-1,-1,-1,-1,-1,-1,-1,-1,-1,-1,-1,-1,-1,-1],"loss_changes":[9.521964E3,1.3175142E3,1.364833E3,4.923457E2,3.8049268E2,2.2630347E2,2.4989111E2,2.5097046E2,9.543262E1,1.659939E2,2.7021317E1,1.6718002E1,3.7632935E1,5.6141846E1,1.6443115E1,4.8239014E1,5.737207E1,3.0628296E1,1.0568779E1,5.754492E1,3.8013657E1,8.004005E0,1.9839325E0,7.0803757E0,7.000267E0,8.646912E0,6.8843384E0,1.4955566E1,1.3421143E1,1.2329468E1,0E0,0E0,8.163574E0,1.0266174E1,3.627246E1,6.1239014E0,1.90448E0,2.866066E0,3.7876425E0,1.5881226E1,1.1488983E1,6.233719E0,6.2738686E0,1.9947526E0,1.259407E0,0E0,0E0,4.398866E0,1.5946956E1,2.8295326E0,3.7246819E0,2.3537965E0,4.6021423E0,5.2628174E0,4.1110535E0,1.0461029E1,5.107544E0,1.0744959E1,8.836914E0,2.3995033E1,3.0168457E0,0E0,0E0,0E0,0E0,0E0,0E0,0E0,0E0,0E0,0E0,0E0,0E0,0E0,0E0,0E0,0E0,0E0,0E0,0E0,0E0,0E0,0E0,0E0,0E0,0E0,0E0,0E0,0E0,0E0,0E0,0E0,0E0,0E0,0E0,0E0,0E0,0E0,0E0,0E0,0E0,0E0,0E0,0E0,0E0,0E0,0E0,0E0,0E0,0E0,0E0,0E0,0E0,0E0,0E0],"parents":[2147483647,0,0,1,1,2,2,3,3,4,4,5,5,6,6,7,7,8,8,9,9,10,10,11,11,12,12,13,13,14,14,15,15,16,16,17,17,18,18,19,19,20,20,21,21,22,22,23,23,24,24,25,25,26,26,27,27,28,28,29,29,32,32,33,33,34,34,35,35,36,36,37,37,38,38,39,39,40,40,41,41,42,42,43,43,44,44,47,47,48,48,49,49,50,50,51,51,52,52,53,53,54,54,55,55,56,56,57,57,58,58,59,59,60,60],"right_children":[2,4,6,8,10,12,14,16,18,20,22,24,26,28,30,32,34,36,38,40,42,44,46,48,50,52,54,56,58,60,-1,-1,62,64,66,68,70,72,74,76,78,80,82,84,86,-1,-1,88,90,92,94,96,98,100,102,104,106,108,110,112,114,-1,-1,-1,-1,-1,-1,-1,-1,-1,-1,-1,-1,-1,-1,-1,-1,-1,-1,-1,-1,-1,-1,-1,-1,-1,-1,-1,-1,-1,-1,-1,-1,-1,-1,-1,-1,-1,-1,-1,-1,-1,-1,-1,-1,-1,-1,-1,-1,-1,-1,-1,-1,-1,-1],"split_conditions":[7.3733745E0,6.364751E0,8.525162E0,5.7365723E0,7.7504053E0,7.886081E0,9.355133E0,4.265417E0,6.4907236E0,6.7262335E0,8.4203205E0,7.626083E0,8.203304E0,8.935904E0,9.913585E0,1.15827675E1,3.3430796E0,6.173786E0,6.8906093E0,7.247081E0,7.044905E0,5E-1,8.993123E0,7.88E0,7.6461873E0,7.190123E0,8.072862E0,7.9834833E0,6.3684306E0,6.6250854E0,5.872152E-2,-1.5033199E-1,4.7004805E0,4.67E0,5.503738E0,5.9375362E0,6.2766433E0,6.7250338E0,5.5739965E0,6.464588E0,8E0,2.424E1,7.1608458E0,1.2573253E1,8.144098E0,2.9523928E-2,4.2519636E-2,7.770223E0,6.99067E0,6.3380475E0,3.55E0,1.1710906E1,8.045909E0,4.9865866E0,1.959E1,7.370073E0,8.722743E0,2.688E1,8.642978E0,7.355396E0,9.63299E0,-9.064539E-2,-4.2128764E-2,-7.175444E-2,-2.7370386E-2,-5.0293587E-2,-3.9271224E-2,-3.6461618E-2,-3.1325962E-2,-2.7351027E-2,-2.3380365E-2,-1.8948428E-2,-1.08041875E-2,1.176319E-2,-7.961021E-3,-2.5414981E-2,-1.9651392E-2,-1.1027146E-3,-2.0587906E-2,-1.3170798E-2,1.6539745E-2,-8.445387E-3,-4.117877E-3,6.835427E-3,-1.4214996E-2,1.0643389E-2,1.8250683E-2,-4.93295E-4,4.8030177E-3,4.052324E-2,4.291926E-3,-6.188841E-3,5.066406E-3,8.086536E-3,1.5179384E-2,-1.0263213E-2,6.9138356E-3,1.207865E-2,1.577611E-2,-9.944937E-3,1.7885588E-2,2.5974771E-2,2.0464571E-2,9.983062E-4,2.1884533E-2,2.6301254E-2,3.0253718E-2,2.448386E-2,-1.5352869E-2,3.339414E-2,3.957691E-2,5.3440496E-2,3.8892026E-3,4.473803E-2,5.0754726E-2],"split_indices":[0,1,0,0,15,0,0,15,0,0,15,0,0,0,4,14,4,0,0,1,0,11,15,17,15,15,15,15,15,15,0,0,1,17,15,0,3,2,15,0,12,20,0,14,1,0,0,3,4,6,17,14,3,15,20,5,0,18,15,5,0,0,0,0,0,0,0,0,0,0,0,0,0,0,0,0,0,0,0,0,0,0,0,0,0,0,0,0,0,0,0,0,0,0,0,0,0,0,0,0,0,0,0,0,0,0,0,0,0,0,0,0,0,0,0],"split_type":[0,0,0,0,0,0,0,0,0,0,0,0,0,0,0,0,0,0,0,0,0,0,0,0,0,0,0,0,0,0,0,0,0,0,0,0,0,0,0,0,0,0,0,0,0,0,0,0,0,0,0,0,0,0,0,0,0,0,0,0,0,0,0,0,0,0,0,0,0,0,0,0,0,0,0,0,0,0,0,0,0,0,0,0,0,0,0,0,0,0,0,0,0,0,0,0,0,0,0,0,0,0,0,0,0,0,0,0,0,0,0,0,0,0,0],"sum_hessian":[1.775E4,8.614E3,9.136E3,3.725E3,4.889E3,5.292E3,3.844E3,1.375E3,2.35E3,4.62E3,2.69E2,2.189E3,3.103E3,2.906E3,9.38E2,7.9E1,1.296E3,1.942E3,4.08E2,2.029E3,2.591E3,1.66E2,1.03E2,1.048E3,1.141E3,1.488E3,1.615E3,1.794E3,1.112E3,7.91E2,1.47E2,1.7E1,6.2E1,1.05E2,1.191E3,1.176E3,7.66E2,2.95E2,1.13E2,1.846E3,1.83E2,1.277E3,1.314E3,1.4E1,1.52E2,7E1,3.3E1,9.4E2,1.08E2,7.21E2,4.2E2,1.45E2,1.343E3,7.81E2,8.34E2,2.26E2,1.568E3,2.8E1,1.084E3,3.5E1,7.56E2,5.4E1,8E0,9.7E1,8E0,6.16E2,5.75E2,5E2,6.76E2,4.2E2,3.46E2,2.35E2,6E1,8E0,1.05E2,8.75E2,9.71E2,1.51E2,3.2E1,1.272E3,5E0,4.89E2,8.25E2,5E0,9E0,3.9E1,1.13E2,7.69E2,1.71E2,1.1E1,9.7E1,1.9E1,7.02E2,3.3E2,9E1,6E0,1.39E2,6.73E2,6.7E2,5E0,7.76E2,2.02E2,6.32E2,2.5E1,2.01E2,7.95E2,7.73E2,2.1E1,7E0,5.54E2,5.3E2,1.5E1,2E1,4.49E2,3.07E2],"tree_param":{"num_deleted":"0","num_feature":"23","num_nodes":"115","size_leaf_vector":"1"}},{"base_weights":[2.8722783E-4,-6.643703E-1,7.300777E-1,-1.0205553E0,-1.87166E-1,4.5551965E-1,1.1611679E0,-1.6482798E0,-8.6496717E-1,-3.4295857E-1,2.0958918E-1,2.2762749E-1,6.45177E-1,9.609601E-1,1.4456714E0,-2.8054333E0,-1.4661126E0,-9.717453E-1,-5.9164315E-1,-1.935153E-1,-4.427087E-1,7.052849E-2,5.7580537E-1,1.04439154E-1,3.846857E-1,5.239971E-1,7.625677E-1,8.5426044E-1,1.0831037E0,1.3679678E0,5.3523593E-2,-3.2396886E0,-1.9965737E0,-1.7089952E0,-1.2013415E0,-1.1255885E0,-8.196168E-1,-6.708657E-1,-2.615568E-1,-2.7031845E-1,-8.851126E-3,-5.8881503E-1,-3.3585212E-1,1.1591678E0,3.9234895E-2,4.3945602E-1,1.2368978E0,1.5748572E-2,2.578286E-1,3.2980546E-1,5.256523E-1,4.40049E-1,6.4524394E-1,6.497066E-1,8.6424005E-1,7.858205E-1,1.005767E0,1.062353E0,4.2255357E-2,1.2056892E0,1.4621813E0,-1.1218374E-1,-7.474778E-2,-7.905519E-2,-3.2135405E-2,-5.553076E-2,-4.78149E-2,2.51422E-3,-3.6863226E-2,-5.7615045E-2,-3.3125784E-2,-2.0909572E-2,-2.7012678E-2,-1.4220074E-2,-2.2015313E-2,-9.49944E-3,-2.979018E-4,-9.385399E-3,-2.215958E-3,7.2076838E-3,-1.8707322E-3,1.175705E-2,-1.8197633E-2,-1.029344E-2,1.9739496E-2,5.0696447E-2,1.5474331E-2,3.40726E-3,-3.5889964E-3,-1.6529498E-3,1.6032554E-2,1.9568076E-2,4.2110905E-2,-1.1661827E-2,1.174032E-3,5.1853983E-3,1.0777747E-2,1.8776257E-2,8.626402E-3,2.5069667E-3,1.6315786E-2,1.2823546E-2,3.585343E-2,1.5971493E-2,2.1100003E-2,1.5177935E-2,2.1369554E-2,2.650602E-2,8.495859E-3,2.1662405E-2,2.5737751E-2,3.0937105E-2,2.3828518E-2,3.2217093E-2,1.5225221E-2,4.1918788E-2,3.4533575E-2,4.1096568E-2,4.6521366E-2],"categories":[],"categories_nodes":[],"categories_segments":[],"categories_sizes":[],"default_left":[0,0,0,0,0,0,0,0,0,0,0,0,0,0,0,0,0,0,0,0,0,0,0,0,0,0,0,0,0,0,0,0,0,0,0,0,0,0,0,0,0,0,0,0,0,0,0,0,0,0,0,0,0,0,0,0,0,0,0,0,0,0,0,0,0,0,0,0,0,0,0,0,0,0,0,0,0,0,0,0,0,0,0,0,0,0,0,0,0,0,0,0,0,0,0,0,0,0,0,0,0,0,0,0,0,0,0,0,0,0,0,0,0,0,0,0,0,0,0],"id":10,"left_children":[1,3,5,7,9,11,13,15,17,19,21,23,25,27,29,31,33,35,37,39,41,43,45,47,49,51,53,55,57,59,-1,61,63,65,67,69,71,73,75,77,79,81,83,85,87,89,91,93,95,97,99,101,103,105,107,109,111,113,-1,115,117,-1,-1,-1,-1,-1,-1,-1,-1,-1,-1,-1,-1,-1,-1,-1,-1,-1,-1,-1,-1,-1,-1,-1,-1,-1,-1,-1,-1,-1,-1,-1,-1,-1,-1,-1,-1,-1,-1,-1,-1,-1,-1,-1,-1,-1,-1,-1,-1,-1,-1,-1,-1,-1,-1,-1,-1,-1,-1],"loss_changes":[8.601595E3,1.5769062E3,9.9931494E2,5.163096E2,2.4543346E2,2.2290869E2,1.8468994E2,2.1504883E2,1.2319702E2,4.2236633E1,5.682179E1,4.529943E1,3.923755E1,2.343628E1,3.1330322E1,3.8952393E1,5.5083984E1,6.9878174E1,3.096988E1,1.6172787E1,2.6176605E1,2.7405962E1,2.6567291E1,1.7889933E1,7.548828E0,1.3530548E1,1.5235352E1,9.245178E0,3.3082275E0,1.3769775E1,0E0,1.8239868E1,2.6640732E1,2.61438E0,1.5983826E1,2.2023438E1,1.4053955E1,1.1231781E1,3.1945686E0,6.634491E0,4.498721E0,1.2923019E1,7.424881E0,5.933735E0,9.378851E0,1.2233284E1,3.2374725E0,7.8842807E0,3.9594383E0,8.899727E0,2.1043854E0,6.789795E0,2.8986359E0,5.3686523E0,7.7489624E0,2.0845337E0,1.1645508E-1,4.303894E0,0E0,1.4324951E0,1.8959961E0,0E0,0E0,0E0,0E0,0E0,0E0,0E0,0E0,0E0,0E0,0E0,0E0,0E0,0E0,0E0,0E0,0E0,0E0,0E0,0E0,0E0,0E0,0E0,0E0,0E0,0E0,0E0,0E0,0E0,0E0,0E0,0E0,0E0,0E0,0E0,0E0,0E0,0E0,0E0,0E0,0E0,0E0,0E0,0E0,0E0,0E0,0E0,0E0,0E0,0E0,0E0,0E0,0E0,0E0,0E0,0E0,0E0,0E0],"parents":[2147483647,0,0,1,1,2,2,3,3,4,4,5,5,6,6,7,7,8,8,9,9,10,10,11,11,12,12,13,13,14,14,15,15,16,16,17,17,18,18,19,19,20,20,21,21,22,22,23,23,24,24,25,25,26,26,27,27,28,28,29,29,31,31,32,32,33,33,34,34,35,35,36,36,37,37,38,38,39,39,40,40,41,41,42,42,43,43,44,44,45,45,46,46,47,47,48,48,49,49,50,50,51,51,52,52,53,53,54,54,55,55,56,56,57,57,59,59,60,60],"right_children":[2,4,6,8,10,12,14,16,18,20,22,24,26,28,30,32,34,36,38,40,42,44,46,48,50,52,54,56,58,60,-1,62,64,66,68,70,72,74,76,78,80,82,84,86,88,90,92,94,96,98,100,102,104,106,108,110,112,114,-1,116,118,-1,-1,-1,-1,-1,-1,-1,-1,-1,-1,-1,-1,-1,-1,-1,-1,-1,-1,-1,-1,-1,-1,-1,-1,-1,-1,-1,-1,-1,-1,-1,-1,-1,-1,-1,-1,-1,-1,-1,-1,-1,-1,-1,-1,-1,-1,-1,-1,-1,-1,-1,-1,-1,-1,-1,-1,-1,-1],"split_conditions":[7.2645793E0,6.6359553E0,8.311163E0,5.5301185E0,7.4223037E0,8.001328E0,8.722287E0,3.647118E0,6.4129686E0,-1.8369701E-16,8.001328E0,7.685493E0,8.34095E0,8.784452E0,9.334735E0,4.19E0,5.443441E0,6.0900226E0,4.0147114E0,7.1333146E0,6.924945E0,6.8112445E0,8.707355E0,2.4E0,8.036633E0,2.48E0,1.7E-1,1.77E0,9.427708E0,9.211187E0,5.3523593E-2,1.9433647E0,4.6494246E0,4.8807087E0,4.955827E0,3.3430796E0,-1.8369701E-16,-5E-1,4.366614E0,7.88E0,6.98749E0,5.3474474E0,2.424E1,7.0859013E0,8.660254E-1,2.462E1,8.897926E0,6.595577E0,7.154291E0,-5E-1,7.066316E0,6.4645386E-1,7.876847E0,8.036633E0,3.378E1,8.59063E0,2.849E1,9.251419E0,4.2255357E-2,-2.4492937E-16,4.1E-1,-1.1218374E-1,-7.474778E-2,-7.905519E-2,-3.2135405E-2,-5.553076E-2,-4.78149E-2,2.51422E-3,-3.6863226E-2,-5.7615045E-2,-3.3125784E-2,-2.0909572E-2,-2.7012678E-2,-1.4220074E-2,-2.2015313E-2,-9.49944E-3,-2.979018E-4,-9.385399E-3,-2.215958E-3,7.2076838E-3,-1.8707322E-3,1.175705E-2,-1.8197633E-2,-1.029344E-2,1.9739496E-2,5.0696447E-2,1.5474331E-2,3.40726E-3,-3.5889964E-3,-1.6529498E-3,1.6032554E-2,1.9568076E-2,4.2110905E-2,-1.1661827E-2,1.174032E-3,5.1853983E-3,1.0777747E-2,1.8776257E-2,8.626402E-3,2.5069667E-3,1.6315786E-2,1.2823546E-2,3.585343E-2,1.5971493E-2,2.1100003E-2,1.5177935E-2,2.1369554E-2,2.650602E-2,8.495859E-3,2.1662405E-2,2.5737751E-2,3.0937105E-2,2.3828518E-2,3.2217093E-2,1.5225221E-2,4.1918788E-2,3.4533575E-2,4.1096568E-2,4.6521366E-2],"split_indices":[15,4,15,15,4,4,15,5,15,9,4,15,4,4,15,17,4,4,7,4,4,2,5,21,15,17,17,21,1,4,0,7,15,15,2,4,9,9,7,17,2,6,20,1,9,22,4,6,16,8,6,7,15,15,22,1,18,6,0,8,17,0,0,0,0,0,0,0,0,0,0,0,0,0,0,0,0,0,0,0,0,0,0,0,0,0,0,0,0,0,0,0,0,0,0,0,0,0,0,0,0,0,0,0,0,0,0,0,0,0,0,0,0,0,0,0,0,0,0],"split_type":[0,0,0,0,0,0,0,0,0,0,0,0,0,0,0,0,0,0,0,0,0,0,0,0,0,0,0,0,0,0,0,0,0,0,0,0,0,0,0,0,0,0,0,0,0,0,0,0,0,0,0,0,0,0,0,0,0,0,0,0,0,0,0,0,0,0,0,0,0,0,0,0,0,0,0,0,0,0,0,0,0,0,0,0,0,0,0,0,0,0,0,0,0,0,0,0,0,0,0,0,0,0,0,0,0,0,0,0,0,0,0,0,0,0,0,0,0,0,0],"sum_hessian":[1.773E4,9.279E3,8.451E3,5.312E3,3.967E3,5.165E3,3.286E3,1.052E3,4.26E3,2.849E3,1.118E3,2.348E3,2.817E3,1.933E3,1.353E3,1.4E2,9.12E2,3.06E3,1.2E3,1.143E3,1.706E3,8.12E2,3.06E2,1.318E3,1.03E3,1.391E3,1.426E3,1.039E3,8.94E2,1.107E3,2.46E2,8.8E1,5.2E1,4.71E2,4.41E2,1.516E3,1.544E3,9.66E2,2.34E2,8.06E2,3.37E2,7.17E2,9.89E2,2.1E1,7.91E2,2.56E2,5E1,8.37E2,4.81E2,7.46E2,2.84E2,8.27E2,5.64E2,6.82E2,7.44E2,7.23E2,3.16E2,8.47E2,4.7E1,4.15E2,6.92E2,4.9E1,3.9E1,2.9E1,2.3E1,2E2,2.71E2,9E0,4.32E2,3.6E1,1.48E3,6.2E2,9.24E2,2.38E2,7.28E2,1.91E2,4.3E1,6.61E2,1.45E2,5.8E1,2.79E2,1.2E1,7.05E2,9.83E2,6E0,1E1,1.1E1,5.4E2,2.51E2,4.1E1,2.15E2,1.3E1,3.7E1,4.4E1,7.93E2,2.65E2,2.16E2,9E1,6.56E2,1.2E1,2.72E2,8.16E2,1.1E1,1.98E2,3.66E2,2.12E2,4.7E2,7.19E2,2.5E1,3.94E2,3.29E2,2.76E2,4E1,8.28E2,1.9E1,8.3E1,3.32E2,3.52E2,3.4E2],"tree_param":{"num_deleted":"0","num_feature":"23","num_nodes":"119","size_leaf_vector":"1"}},{"base_weights":[3.9714252E-4,-6.80974E-1,7.113768E-1,-1.0265142E0,-2.958703E-1,4.1925195E-1,1.1325015E0,-1.52969E0,-7.6331633E-1,-3.643156E-1,6.042275E-1,2.208885E-1,6.038211E-1,9.90566E-1,1.5210223E0,-2.8392446E0,-1.3942724E0,-8.854743E-1,-4.1423836E-1,-5.1367795E-1,-1.3626689E-1,3.0929953E-1,9.3956107E-1,1.4647463E-1,3.4776065E-1,5.1539236E-1,6.9003135E-1,8.747422E-1,1.1257288E0,1.4315077E0,5.3042013E-2,-2.4491746E0,-3.9217572E0,-1.5786881E0,-1.2449737E0,-1.0330906E0,-7.812014E-1,-5.315426E-1,-2.737546E-1,-5.998996E-1,-3.3330768E-1,-2.2113873E-1,-5.2803557E-2,4.1282353E-1,-1.2088136E-1,7.3267686E-1,1.1004678E0,8.708223E-2,2.2310555E-1,5.1301944E-1,3.0428386E-1,3.4555644E-1,5.3045964E-1,-9.625748E-3,6.943423E-1,1.0737632E-1,8.883476E-1,1.0238857E0,3.7275314E-2,7.766134E-1,1.4566703E0,-7.677427E-2,-3.3104755E-2,-1.4577001E-1,-8.627914E-2,-5.2822396E-2,-4.1596945E-2,-2.8371206E-2,-3.9060187E-2,-3.1213563E-2,-1.9507058E-2,-2.37384E-2,-2.6140783E-3,-1.4812294E-2,-2.5195483E-2,-8.69924E-3,1.1225147E-2,-2.1628946E-2,-1.415867E-2,-1.1271816E-2,1.8544673E-3,-6.797092E-3,1.3387493E-2,-2.9519359E-3,3.326287E-3,3.6488313E-3,1.3402279E-2,-1.4893896E-2,3.7662573E-3,1.3338379E-2,2.3789436E-2,3.406469E-2,1.3076764E-2,3.686861E-3,1.6944728E-5,1.9343924E-3,7.4244635E-3,1.1400468E-2,1.9112295E-2,6.9452273E-3,1.14048505E-2,3.2533258E-3,1.1267273E-2,1.6792981E-2,1.3004116E-2,1.8134542E-2,2.2230752E-2,-9.617132E-3,2.4729904E-2,2.3866287E-2,2.8278632E-2,3.1102052E-2,-3.0451997E-3,4.042829E-2,3.5267347E-3,2.1311432E-2,4.3979898E-2],"categories":[],"categories_nodes":[],"categories_segments":[],"categories_sizes":[],"default_left":[0,0,0,0,0,0,0,0,0,0,0,0,0,0,0,0,0,0,0,0,0,0,0,0,0,0,0,0,0,0,0,0,0,0,0,0,0,0,0,0,0,0,0,0,0,0,0,0,0,0,0,0,0,0,0,0,0,0,0,0,0,0,0,0,0,0,0,0,0,0,0,0,0,0,0,0,0,0,0,0,0,0,0,0,0,0,0,0,0,0,0,0,0,0,0,0,0,0,0,0,0,0,0,0,0,0,0,0,0,0,0,0,0,0,0,0,0],"id":11,"left_children":[1,3,5,7,9,11,13,15,17,19,21,23,25,27,29,31,33,35,37,39,41,43,45,47,49,51,53,55,57,59,-1,61,63,65,67,69,71,73,75,77,79,81,83,85,87,89,91,93,95,97,99,101,103,-1,105,107,109,111,-1,113,115,-1,-1,-1,-1,-1,-1,-1,-1,-1,-1,-1,-1,-1,-1,-1,-1,-1,-1,-1,-1,-1,-1,-1,-1,-1,-1,-1,-1,-1,-1,-1,-1,-1,-1,-1,-1,-1,-1,-1,-1,-1,-1,-1,-1,-1,-1,-1,-1,-1,-1,-1,-1,-1,-1,-1,-1],"loss_changes":[8.57219E3,1.201623E3,1.0642778E3,6.283779E2,2.6368484E2,1.8692249E2,1.927539E2,2.8289502E2,1.3264014E2,1.3514398E2,2.9231346E1,2.3129974E1,1.941626E1,3.884961E1,1.6472412E1,4.8289917E1,3.733252E1,3.4083008E1,1.3043091E1,3.684558E1,1.1088043E1,7.4145565E0,3.101059E0,7.0065613E0,6.1442566E0,2.9135742E0,6.228882E0,1.4362915E1,1.1845215E1,9.432739E0,0E0,1.2123352E1,1.4247314E1,1.8706177E1,1.1827148E1,1.3343506E0,9.265869E0,4.256447E0,4.0816917E0,2.436731E1,1.3179543E1,2.933094E0,5.9655056E0,1.1135368E0,3.175618E0,3.7883377E-1,7.0053864E-1,2.7095942E0,2.5372658E0,2.5106926E0,3.7519379E0,6.428728E-1,2.8582153E0,0E0,4.6401367E0,8.627827E0,5.4960938E0,9.708069E0,0E0,1.0570721E1,2.6972656E0,0E0,0E0,0E0,0E0,0E0,0E0,0E0,0E0,0E0,0E0,0E0,0E0,0E0,0E0,0E0,0E0,0E0,0E0,0E0,0E0,0E0,0E0,0E0,0E0,0E0,0E0,0E0,0E0,0E0,0E0,0E0,0E0,0E0,0E0,0E0,0E0,0E0,0E0,0E0,0E0,0E0,0E0,0E0,0E0,0E0,0E0,0E0,0E0,0E0,0E0,0E0,0E0,0E0,0E0,0E0,0E0],"parents":[2147483647,0,0,1,1,2,2,3,3,4,4,5,5,6,6,7,7,8,8,9,9,10,10,11,11,12,12,13,13,14,14,15,15,16,16,17,17,18,18,19,19,20,20,21,21,22,22,23,23,24,24,25,25,26,26,27,27,28,28,29,29,31,31,32,32,33,33,34,34,35,35,36,36,37,37,38,38,39,39,40,40,41,41,42,42,43,43,44,44,45,45,46,46,47,47,48,48,49,49,50,50,51,51,52,52,54,54,55,55,56,56,57,57,59,59,60,60],"right_children":[2,4,6,8,10,12,14,16,18,20,22,24,26,28,30,32,34,36,38,40,42,44,46,48,50,52,54,56,58,60,-1,62,64,66,68,70,72,74,76,78,80,82,84,86,88,90,92,94,96,98,100,102,104,-1,106,108,110,112,-1,114,116,-1,-1,-1,-1,-1,-1,-1,-1,-1,-1,-1,-1,-1,-1,-1,-1,-1,-1,-1,-1,-1,-1,-1,-1,-1,-1,-1,-1,-1,-1,-1,-1,-1,-1,-1,-1,-1,-1,-1,-1,-1,-1,-1,-1,-1,-1,-1,-1,-1,-1,-1,-1,-1,-1,-1,-1],"split_conditions":[7.4860525E0,6.4129686E0,8.5869055E0,5.8522024E0,7.7504053E0,8.055158E0,9.355133E0,3.647118E0,6.632002E0,7.044905E0,8.223477E0,7.685493E0,8.317278E0,8.918248E0,9.334735E0,6.676209E0,5.5373344E0,6.173786E0,6.9077554E0,6.8330083E0,7.2605224E0,2.5E1,8.530922E0,7.736307E0,-2.4492937E-16,2.368E1,4.9865866E0,6.59107E0,8.642978E0,1.293E1,5.3042013E-2,5.9894047E0,1.15827675E1,5.220356E0,1.3E1,6.8844867E0,7.262985E0,1.2E1,8.12241E0,6.632002E0,7.3660893E0,7.830226E0,5.41E0,7.455877E0,2.9E1,2.112E1,2.711E1,3.2E1,6.533306E0,7.8633637E0,7.886081E0,7.406421E0,3.3E1,-9.625748E-3,8.060813E0,6.4759207E0,8.311163E0,9.507627E0,3.7275314E-2,3.1E1,6.0279393E0,-7.677427E-2,-3.3104755E-2,-1.4577001E-1,-8.627914E-2,-5.2822396E-2,-4.1596945E-2,-2.8371206E-2,-3.9060187E-2,-3.1213563E-2,-1.9507058E-2,-2.37384E-2,-2.6140783E-3,-1.4812294E-2,-2.5195483E-2,-8.69924E-3,1.1225147E-2,-2.1628946E-2,-1.415867E-2,-1.1271816E-2,1.8544673E-3,-6.797092E-3,1.3387493E-2,-2.9519359E-3,3.326287E-3,3.6488313E-3,1.3402279E-2,-1.4893896E-2,3.7662573E-3,1.3338379E-2,2.3789436E-2,3.406469E-2,1.3076764E-2,3.686861E-3,1.6944728E-5,1.9343924E-3,7.4244635E-3,1.1400468E-2,1.9112295E-2,6.9452273E-3,1.14048505E-2,3.2533258E-3,1.1267273E-2,1.6792981E-2,1.3004116E-2,1.8134542E-2,2.2230752E-2,-9.617132E-3,2.4729904E-2,2.3866287E-2,2.8278632E-2,3.1102052E-2,-3.0451997E-3,4.042829E-2,3.5267347E-3,2.1311432E-2,4.3979898E-2],"split_indices":[0,15,0,0,15,0,0,5,0,0,15,15,0,0,15,16,2,0,0,15,0,13,15,0,8,18,15,15,15,20,0,16,14,0,13,3,5,12,5,0,15,4,17,3,13,18,18,13,16,15,0,15,13,0,15,16,15,3,0,13,15,0,0,0,0,0,0,0,0,0,0,0,0,0,0,0,0,0,0,0,0,0,0,0,0,0,0,0,0,0,0,0,0,0,0,0,0,0,0,0,0,0,0,0,0,0,0,0,0,0,0,0,0,0,0,0,0],"split_type":[0,0,0,0,0,0,0,0,0,0,0,0,0,0,0,0,0,0,0,0,0,0,0,0,0,0,0,0,0,0,0,0,0,0,0,0,0,0,0,0,0,0,0,0,0,0,0,0,0,0,0,0,0,0,0,0,0,0,0,0,0,0,0,0,0,0,0,0,0,0,0,0,0,0,0,0,0,0,0,0,0,0,0,0,0,0,0,0,0,0,0,0,0,0,0,0,0,0,0,0,0,0,0,0,0,0,0,0,0,0,0,0,0,0,0,0,0],"sum_hessian":[1.7692E4,9.034E3,8.658E3,4.76E3,4.274E3,5.114E3,3.544E3,1.632E3,3.128E3,3.973E3,3.01E2,2.467E3,2.647E3,2.6E3,9.44E2,1.5E2,1.482E3,2.315E3,8.13E2,2.399E3,1.574E3,1.62E2,1.39E2,1.558E3,9.09E2,1.313E3,1.334E3,1.407E3,1.193E3,7.01E2,2.43E2,1.14E2,3.6E1,6.56E2,8.26E2,9.52E2,1.363E3,4.4E2,3.73E2,1.62E3,7.79E2,7.78E2,7.96E2,1.31E2,3.1E1,6.5E1,7.4E1,8.81E2,6.77E2,1.85E2,7.24E2,1.11E2,1.202E3,5E0,1.329E3,2.5E1,1.382E3,6.46E2,5.47E2,2.8E1,6.73E2,1.04E2,1E1,1.6E1,2E1,3.3E2,3.26E2,1.37E2,6.89E2,9.31E2,2.1E1,1.343E3,2E1,3.96E2,4.4E1,3.65E2,8E0,8.28E2,7.92E2,7.04E2,7.5E1,7.73E2,5E0,6.24E2,1.72E2,1.5E1,1.16E2,1.2E1,1.9E1,1.4E1,5.1E1,6.9E1,5E0,6.21E2,2.6E2,9.2E1,5.85E2,9.3E1,9.2E1,3.74E2,3.5E2,1.4E1,9.7E1,9.16E2,2.86E2,4.63E2,8.66E2,1.6E1,9E0,5.2E2,8.62E2,6.39E2,7E0,1.4E1,1.4E1,1E1,6.63E2],"tree_param":{"num_deleted":"0","num_feature":"23","num_nodes":"117","size_leaf_vector":"1"}},{"base_weights":[-1.5146477E-3,-6.74538E-1,6.661305E-1,-1.1019609E0,-3.6383137E-1,3.5992223E-1,1.0622746E0,-1.5451411E0,-8.459902E-1,-4.2308265E-1,6.3516235E-1,1.901076E-1,5.5784875E-1,8.796218E-1,1.3445123E0,-3.0248995E0,-1.4539711E0,-9.3089515E-1,-4.0733993E-1,-6.0280496E-1,-2.344981E-1,3.496022E-1,9.457497E-1,1.019385E-1,3.0789432E-1,4.9046952E-1,6.297267E-1,3.0383167E-1,8.9304435E-1,1.21739E0,1.5466123E0,-3.385576E0,-3.7249595E-2,-1.7400564E0,-1.2694881E0,-1.0511479E0,-8.2816595E-1,-5.089276E-1,-1.805437E-1,-6.6391563E-1,-2.9398233E-1,-3.2328558E-1,-1.1558551E-1,4.436001E-1,-1.3679507E-1,1.7475141E-2,1.0215019E0,5.7345305E-2,2.1024477E-1,1.9352852E-1,3.6323547E-1,5.253408E-1,3.648378E-1,-9.403611E-3,6.345681E-1,-1.2509915E-1,7.3883915E-1,7.805167E-1,9.677221E-1,3.9714935E-1,1.234292E0,8.525495E-1,1.5842711E0,-1.4949328E-1,-8.4670685E-2,-5.9343886E-2,-4.5064963E-2,-4.047821E-2,-3.1899516E-2,-2.7289191E-2,-3.2694366E-2,-2.1740856E-2,-2.7008012E-2,-1.0788404E-2,-1.7254356E-2,-6.5084575E-3,1.4653179E-2,-2.3592172E-2,-1.7331276E-2,-1.3039789E-2,9.3982747E-4,-1.02281645E-2,-8.316934E-4,9.895744E-4,-4.881135E-3,7.281241E-3,1.5470613E-2,3.0463603E-3,-1.9647753E-2,2.5376953E-2,3.4270506E-2,7.0772157E-3,1.2459981E-3,4.8828777E-4,7.131053E-3,5.0914614E-3,1.663007E-2,1.3392E-2,8.440061E-3,5.359377E-3,1.599406E-2,7.465903E-3,1.20622665E-2,1.5592571E-2,2.0187842E-2,1.8836375E-3,-2.5055673E-2,1.4946264E-2,2.7175196E-2,2.4515377E-2,1.986959E-2,3.0267645E-2,2.5249362E-2,-1.12575125E-2,2.0323344E-2,3.2262694E-2,3.895564E-2,9.944123E-3,4.718619E-2,4.4968445E-2,5.6433294E-2],"categories":[],"categories_nodes":[],"categories_segments":[],"categories_sizes":[],"default_left":[0,0,0,0,0,0,0,0,0,0,0,0,0,0,0,0,0,0,0,0,0,0,0,0,0,0,0,0,0,0,0,0,0,0,0,0,0,0,0,0,0,0,0,0,0,0,0,0,0,0,0,0,0,0,0,0,0,0,0,0,0,0,0,0,0,0,0,0,0,0,0,0,0,0,0,0,0,0,0,0,0,0,0,0,0,0,0,0,0,0,0,0,0,0,0,0,0,0,0,0,0,0,0,0,0,0,0,0,0,0,0,0,0,0,0,0,0,0,0,0,0],"id":12,"left_children":[1,3,5,7,9,11,13,15,17,19,21,23,25,27,29,31,33,35,37,39,41,43,45,47,49,51,53,55,57,59,61,63,-1,65,67,69,71,73,75,77,79,81,83,85,87,-1,89,91,93,95,97,99,101,-1,103,105,107,109,111,113,115,117,119,-1,-1,-1,-1,-1,-1,-1,-1,-1,-1,-1,-1,-1,-1,-1,-1,-1,-1,-1,-1,-1,-1,-1,-1,-1,-1,-1,-1,-1,-1,-1,-1,-1,-1,-1,-1,-1,-1,-1,-1,-1,-1,-1,-1,-1,-1,-1,-1,-1,-1,-1,-1,-1,-1,-1,-1,-1,-1],"loss_changes":[7.985686E3,1.1744797E3,1.081343E3,4.2007275E2,3.0386572E2,1.6890497E2,1.9823926E2,1.7618604E2,8.7226074E1,1.6371283E2,2.4743744E1,2.8040672E1,1.0565552E1,1.7635498E1,3.578955E1,4.261499E1,6.3930664E1,2.2771973E1,8.62912E0,4.627191E1,2.4831009E1,7.124735E0,2.5426788E0,7.436201E0,7.121826E0,4.824463E0,5.4654846E0,1.0803619E1,1.7933228E1,1.2018921E1,1.2711792E1,3.4477722E1,0E0,2.3136108E1,1.0319458E1,3.0673828E0,6.7199707E0,2.127861E0,3.0880468E0,2.086676E1,1.897863E1,6.968933E0,7.136033E0,1.5214767E0,3.3594618E0,0E0,4.9784088E-1,3.0482905E0,2.3479958E0,3.000496E0,4.968582E0,2.2563477E0,8.7926865E-1,0E0,4.1366577E0,4.1689334E0,1.8753052E-1,2.9244995E0,5.5319824E0,5.096509E0,6.854004E0,1.1411154E1,9.036987E0,0E0,0E0,0E0,0E0,0E0,0E0,0E0,0E0,0E0,0E0,0E0,0E0,0E0,0E0,0E0,0E0,0E0,0E0,0E0,0E0,0E0,0E0,0E0,0E0,0E0,0E0,0E0,0E0,0E0,0E0,0E0,0E0,0E0,0E0,0E0,0E0,0E0,0E0,0E0,0E0,0E0,0E0,0E0,0E0,0E0,0E0,0E0,0E0,0E0,0E0,0E0,0E0,0E0,0E0,0E0,0E0,0E0,0E0],"parents":[2147483647,0,0,1,1,2,2,3,3,4,4,5,5,6,6,7,7,8,8,9,9,10,10,11,11,12,12,13,13,14,14,15,15,16,16,17,17,18,18,19,19,20,20,21,21,22,22,23,23,24,24,25,25,26,26,27,27,28,28,29,29,30,30,31,31,33,33,34,34,35,35,36,36,37,37,38,38,39,39,40,40,41,41,42,42,43,43,44,44,46,46,47,47,48,48,49,49,50,50,51,51,52,52,54,54,55,55,56,56,57,57,58,58,59,59,60,60,61,61,62,62],"right_children":[2,4,6,8,10,12,14,16,18,20,22,24,26,28,30,32,34,36,38,40,42,44,46,48,50,52,54,56,58,60,62,64,-1,66,68,70,72,74,76,78,80,82,84,86,88,-1,90,92,94,96,98,100,102,-1,104,106,108,110,112,114,116,118,120,-1,-1,-1,-1,-1,-1,-1,-1,-1,-1,-1,-1,-1,-1,-1,-1,-1,-1,-1,-1,-1,-1,-1,-1,-1,-1,-1,-1,-1,-1,-1,-1,-1,-1,-1,-1,-1,-1,-1,-1,-1,-1,-1,-1,-1,-1,-1,-1,-1,-1,-1,-1,-1,-1,-1,-1,-1,-1],"split_conditions":[7.418781E0,6.364751E0,8.525162E0,5.7365723E0,7.7504053E0,8.055158E0,9.101084E0,4.265417E0,6.504288E0,6.828712E0,8.29674E0,7.7389235E0,8.293049E0,6.542013E0,9.5467415E0,4.5108595E0,5.26269E0,6.079933E0,6.8906093E0,6.825135E0,7.1608458E0,2.3E1,8.1873E0,7.800573E0,7.7544813E0,8.660254E-1,4.9865866E0,6.59107E0,8.722743E0,6.4759207E0,1.293E1,1.15827675E1,-3.7249595E-2,4.9416423E0,5.8594165E0,-5E-1,-1.8369701E-16,-5E-1,8.660254E-1,6.464588E0,7.293018E0,7.6610565E0,-5E-1,8.144098E0,2.855E1,1.7475141E-2,8.620572E0,-8.660254E-1,6.542013E0,8.210668E0,-1.8369701E-16,6.475433E0,7.685493E0,-9.403611E-3,7.935389E0,1.2364975E1,8.647695E0,8.660254E-1,8.660254E-1,1.210408E1,8.630358E0,7.63E0,1.0027252E1,-1.4949328E-1,-8.4670685E-2,-5.9343886E-2,-4.5064963E-2,-4.047821E-2,-3.1899516E-2,-2.7289191E-2,-3.2694366E-2,-2.1740856E-2,-2.7008012E-2,-1.0788404E-2,-1.7254356E-2,-6.5084575E-3,1.4653179E-2,-2.3592172E-2,-1.7331276E-2,-1.3039789E-2,9.3982747E-4,-1.02281645E-2,-8.316934E-4,9.895744E-4,-4.881135E-3,7.281241E-3,1.5470613E-2,3.0463603E-3,-1.9647753E-2,2.5376953E-2,3.4270506E-2,7.0772157E-3,1.2459981E-3,4.8828777E-4,7.131053E-3,5.0914614E-3,1.663007E-2,1.3392E-2,8.440061E-3,5.359377E-3,1.599406E-2,7.465903E-3,1.20622665E-2,1.5592571E-2,2.0187842E-2,1.8836375E-3,-2.5055673E-2,1.4946264E-2,2.7175196E-2,2.4515377E-2,1.986959E-2,3.0267645E-2,2.5249362E-2,-1.12575125E-2,2.0323344E-2,3.2262694E-2,3.895564E-2,9.944123E-3,4.718619E-2,4.4968445E-2,5.6433294E-2],"split_indices":[0,1,0,0,15,0,0,15,0,0,15,3,0,16,0,0,1,0,0,15,0,13,3,0,0,9,15,15,0,16,20,14,0,0,15,9,9,9,9,0,1,3,9,1,18,0,15,9,16,1,9,3,15,0,15,14,0,9,9,14,15,21,0,0,0,0,0,0,0,0,0,0,0,0,0,0,0,0,0,0,0,0,0,0,0,0,0,0,0,0,0,0,0,0,0,0,0,0,0,0,0,0,0,0,0,0,0,0,0,0,0,0,0,0,0,0,0,0,0,0,0],"split_type":[0,0,0,0,0,0,0,0,0,0,0,0,0,0,0,0,0,0,0,0,0,0,0,0,0,0,0,0,0,0,0,0,0,0,0,0,0,0,0,0,0,0,0,0,0,0,0,0,0,0,0,0,0,0,0,0,0,0,0,0,0,0,0,0,0,0,0,0,0,0,0,0,0,0,0,0,0,0,0,0,0,0,0,0,0,0,0,0,0,0,0,0,0,0,0,0,0,0,0,0,0,0,0,0,0,0,0,0,0,0,0,0,0,0,0,0,0,0,0,0,0],"sum_hessian":[1.7769E4,8.849E3,8.92E3,3.723E3,5.126E3,5.033E3,3.887E3,1.36E3,2.363E3,4.84E3,2.86E2,2.711E3,2.322E3,2.364E3,1.523E3,7.6E1,1.284E3,1.978E3,3.85E2,2.476E3,2.364E3,1.51E2,1.35E2,1.553E3,1.158E3,1.206E3,1.116E3,5.5E1,2.309E3,9.42E2,5.81E2,6.2E1,1.4E1,4.98E2,7.86E2,9.04E2,1.074E3,2.64E2,1.21E2,2.065E3,4.11E2,1.351E3,1.013E3,1.27E2,2.4E1,2.6E1,1.09E2,1.103E3,4.5E2,3.81E2,7.77E2,9.39E2,2.67E2,5E0,1.111E3,2.8E1,2.7E1,9.29E2,1.38E3,2E1,9.22E2,3.2E1,5.49E2,1.3E1,4.9E1,2.43E2,2.55E2,5.6E2,2.26E2,2.03E2,7.01E2,4.49E2,6.25E2,8.5E1,1.79E2,1.16E2,5E0,8.47E2,1.218E3,2.87E2,1.24E2,1.274E3,7.7E1,2.43E2,7.7E2,3.6E1,9.1E1,1.7E1,7E0,5E1,5.9E1,8.7E1,1.016E3,5.7E1,3.93E2,3.6E2,2.1E1,3.81E2,3.96E2,2.2E1,9.17E2,6.9E1,1.98E2,2.85E2,8.26E2,2.3E1,5E0,1.4E1,1.3E1,7.01E2,2.28E2,1.031E3,3.49E2,5E0,1.5E1,2.74E2,6.48E2,2E1,1.2E1,4.34E2,1.15E2],"tree_param":{"num_deleted":"0","num_feature":"23","num_nodes":"121","size_leaf_vector":"1"}},{"base_weights":[1.8297455E-3,-6.693603E-1,6.3720053E-1,-1.066859E0,-3.6692637E-1,3.3356696E-1,1.0267035E0,-1.5288917E0,-8.2070667E-1,-4.2737368E-1,6.3943964E-1,1.2709056E-1,4.863985E-1,9.005728E-1,1.4339372E0,-2.9906502E0,-1.420142E0,-9.46478E-1,-5.375958E-1,-6.4389414E-1,-2.8351328E-1,4.5925063E-1,1.0589349E0,8.00959E-2,2.5982583E-1,3.7036803E-1,5.6608367E-1,7.930003E-1,1.0497268E0,1.3735429E0,5.2514024E-2,-3.791069E0,-2.1048343E0,-1.6703018E0,-1.2496501E0,-1.056227E0,-8.548034E-1,-6.4039636E-1,-2.6364592E-1,-6.787617E-1,-7.189353E-2,-3.7783918E-1,-1.5919112E-1,1.8109155E-1,5.547635E-1,2.7591545E-2,3.7665248E-2,3.4620622E-1,5.7787884E-2,4.401314E-1,2.1498549E-1,1.5105796E-1,3.9890912E-1,4.7802255E-1,6.1101943E-1,-1.3545319E-2,7.976815E-1,3.877157E-1,1.0644544E0,8.710033E-1,1.4035567E0,-1.2655196E-1,-5.3569783E-2,-6.676883E-2,-2.5070943E-2,-7.535417E-2,-4.764293E-2,-3.94088E-2,-2.9567707E-2,-3.3694904E-2,-2.8890923E-2,-2.8121397E-2,-2.3759384E-2,-2.0699987E-2,-1.5512927E-2,-8.463617E-3,1.0430021E-2,-2.2513539E-2,-1.7904012E-2,-8.776686E-3,1.5129888E-3,-1.1567179E-2,1.144232E-2,-2.2497799E-3,-6.6164695E-3,-9.088349E-4,7.866807E-3,1.2262783E-2,1.8936228E-2,3.3480987E-2,4.880751E-3,-6.339608E-4,3.5143343E-3,4.6387264E-3,1.4202822E-2,5.916708E-3,1.5346843E-2,-9.260355E-3,5.722768E-3,1.3910727E-2,1.041953E-2,1.5693206E-2,1.0793024E-2,1.5707502E-2,1.9807454E-2,2.193422E-2,2.5799533E-2,1.760775E-2,-3.7278428E-3,2.9530577E-2,3.4859203E-2,-2.6498737E-3,3.3668697E-2,4.3718312E-2,3.7550796E-2],"categories":[],"categories_nodes":[],"categories_segments":[],"categories_sizes":[],"default_left":[0,0,0,0,0,0,0,0,0,0,0,0,0,0,0,0,0,0,0,0,0,0,0,0,0,0,0,0,0,0,0,0,0,0,0,0,0,0,0,0,0,0,0,0,0,0,0,0,0,0,0,0,0,0,0,0,0,0,0,0,0,0,0,0,0,0,0,0,0,0,0,0,0,0,0,0,0,0,0,0,0,0,0,0,0,0,0,0,0,0,0,0,0,0,0,0,0,0,0,0,0,0,0,0,0,0,0,0,0,0,0,0,0,0,0],"id":13,"left_children":[1,3,5,7,9,11,13,15,17,19,21,23,25,27,29,31,33,35,37,39,41,43,45,47,49,51,53,55,57,59,-1,61,63,65,67,69,71,73,75,77,79,81,83,85,87,-1,-1,89,91,93,95,97,99,101,103,-1,105,107,109,111,113,-1,-1,-1,-1,-1,-1,-1,-1,-1,-1,-1,-1,-1,-1,-1,-1,-1,-1,-1,-1,-1,-1,-1,-1,-1,-1,-1,-1,-1,-1,-1,-1,-1,-1,-1,-1,-1,-1,-1,-1,-1,-1,-1,-1,-1,-1,-1,-1,-1,-1,-1,-1,-1,-1],"loss_changes":[7.601972E3,1.0412275E3,1.0822368E3,4.2351172E2,2.9999615E2,1.622511E2,2.0359375E2,1.9932324E2,8.60531E1,1.4430438E2,2.0093857E1,1.3577278E1,2.6843079E1,4.7584473E1,1.3843384E1,4.9600037E1,4.7998535E1,1.52821045E1,2.087062E1,3.6743347E1,3.2584656E1,4.9758377E0,9.060669E-2,9.520991E0,4.347599E0,7.370285E0,6.266968E0,1.1029053E1,1.1565186E1,9.800537E0,0E0,2.5635498E1,3.5731049E0,2.685022E1,9.888184E0,2.716919E0,3.3677979E0,2.5780182E0,2.5000696E0,9.320801E0,2.9992855E0,9.542648E0,6.164646E0,9.7587454E-1,1.0400963E0,0E0,0E0,1.7060562E1,7.0471997E0,8.2453156E-1,2.13797E0,2.6656501E0,3.1673584E0,2.7373505E0,4.201233E0,0E0,6.128296E0,3.3126445E0,7.623413E0,1.2288322E1,2.8692627E0,0E0,0E0,0E0,0E0,0E0,0E0,0E0,0E0,0E0,0E0,0E0,0E0,0E0,0E0,0E0,0E0,0E0,0E0,0E0,0E0,0E0,0E0,0E0,0E0,0E0,0E0,0E0,0E0,0E0,0E0,0E0,0E0,0E0,0E0,0E0,0E0,0E0,0E0,0E0,0E0,0E0,0E0,0E0,0E0,0E0,0E0,0E0,0E0,0E0,0E0,0E0,0E0,0E0,0E0],"parents":[2147483647,0,0,1,1,2,2,3,3,4,4,5,5,6,6,7,7,8,8,9,9,10,10,11,11,12,12,13,13,14,14,15,15,16,16,17,17,18,18,19,19,20,20,21,21,22,22,23,23,24,24,25,25,26,26,27,27,28,28,29,29,31,31,32,32,33,33,34,34,35,35,36,36,37,37,38,38,39,39,40,40,41,41,42,42,43,43,44,44,47,47,48,48,49,49,50,50,51,51,52,52,53,53,54,54,56,56,57,57,58,58,59,59,60,60],"right_children":[2,4,6,8,10,12,14,16,18,20,22,24,26,28,30,32,34,36,38,40,42,44,46,48,50,52,54,56,58,60,-1,62,64,66,68,70,72,74,76,78,80,82,84,86,88,-1,-1,90,92,94,96,98,100,102,104,-1,106,108,110,112,114,-1,-1,-1,-1,-1,-1,-1,-1,-1,-1,-1,-1,-1,-1,-1,-1,-1,-1,-1,-1,-1,-1,-1,-1,-1,-1,-1,-1,-1,-1,-1,-1,-1,-1,-1,-1,-1,-1,-1,-1,-1,-1,-1,-1,-1,-1,-1,-1,-1,-1,-1,-1,-1,-1],"split_conditions":[7.3733745E0,6.364751E0,8.493924E0,5.7071104E0,4.542522E0,7.886081E0,9.355133E0,2.843896E0,6.3261495E0,6.6821084E0,8.505791E0,7.6461873E0,8.149313E0,8.899594E0,9.913585E0,1.9433647E0,5.26269E0,6.003887E0,6.7129564E0,4.0980625E0,7.07327E0,7.8633637E0,8.993123E0,-8.660254E-1,-2.4492937E-16,7.2011733E0,7.935389E0,5.3488946E0,6.3684306E0,6.975273E0,5.2514024E-2,2.944439E0,2.5881133E0,4.265417E0,5.9599032E0,5.877114E0,6.0227804E0,6.516193E0,7.95E0,6.40942E0,7.379632E0,8.324821E0,-1.8369701E-16,7.406421E0,2.194E1,2.7591545E-2,3.7665248E-2,6.6250854E0,7.565275E0,2.515E1,8.299535E0,6.9650803E0,-1.8369701E-16,8.660254E-1,8.293049E0,-1.3545319E-2,8.674368E0,2.655E1,8.642978E0,2.465E1,8.660254E-1,-1.2655196E-1,-5.3569783E-2,-6.676883E-2,-2.5070943E-2,-7.535417E-2,-4.764293E-2,-3.94088E-2,-2.9567707E-2,-3.3694904E-2,-2.8890923E-2,-2.8121397E-2,-2.3759384E-2,-2.0699987E-2,-1.5512927E-2,-8.463617E-3,1.0430021E-2,-2.2513539E-2,-1.7904012E-2,-8.776686E-3,1.5129888E-3,-1.1567179E-2,1.144232E-2,-2.2497799E-3,-6.6164695E-3,-9.088349E-4,7.866807E-3,1.2262783E-2,1.8936228E-2,3.3480987E-2,4.880751E-3,-6.339608E-4,3.5143343E-3,4.6387264E-3,1.4202822E-2,5.916708E-3,1.5346843E-2,-9.260355E-3,5.722768E-3,1.3910727E-2,1.041953E-2,1.5693206E-2,1.0793024E-2,1.5707502E-2,1.9807454E-2,2.193422E-2,2.5799533E-2,1.760775E-2,-3.7278428E-3,2.9530577E-2,3.4859203E-2,-2.6498737E-3,3.3668697E-2,4.3718312E-2,3.7550796E-2],"split_indices":[0,1,0,0,7,0,0,4,0,0,15,15,0,0,4,7,1,0,0,7,0,15,15,9,8,15,15,15,15,15,0,3,7,15,15,15,15,0,21,15,2,2,9,15,18,0,0,15,0,18,1,1,9,9,0,0,0,18,15,22,9,0,0,0,0,0,0,0,0,0,0,0,0,0,0,0,0,0,0,0,0,0,0,0,0,0,0,0,0,0,0,0,0,0,0,0,0,0,0,0,0,0,0,0,0,0,0,0,0,0,0,0,0,0,0],"split_type":[0,0,0,0,0,0,0,0,0,0,0,0,0,0,0,0,0,0,0,0,0,0,0,0,0,0,0,0,0,0,0,0,0,0,0,0,0,0,0,0,0,0,0,0,0,0,0,0,0,0,0,0,0,0,0,0,0,0,0,0,0,0,0,0,0,0,0,0,0,0,0,0,0,0,0,0,0,0,0,0,0,0,0,0,0,0,0,0,0,0,0,0,0,0,0,0,0,0,0,0,0,0,0,0,0,0,0,0,0,0,0,0,0,0,0],"sum_hessian":[1.7823E4,8.667E3,